encog,BasicNetwork,java,3.4.0,1,1592139991837
[BASIC]
[BASIC:PARAMS]
[BASIC:NETWORK]
beginTraining=0
connectionLimit=0
contextTargetOffset=0,0,0
contextTargetSize=0,0,0
endTraining=2
hasContext=f
inputCount=22
layerCounts=3,38,23
layerFeedCounts=3,37,22
layerContextCount=0,0,0
layerIndex=0,3,41
output=0.0733944855,-0.9999996517,-0.9380567537,0.5422322576,-0.3333619858,0.9999997865,0.3936444062,0.6092967916,-0.5876350685,-0.7883438605,0.9836326519,-0.7363015365,0.9998756595,-0.6781194252,-0.2332758477,0.6193754391,0.9988321736,-0.9009976746,-0.9993614372,0.9746729126,0.9934036176,-0.9988285209,0.9822402273,-0.9758320761,0.9992718029,0.3962020897,-0.9999149077,0.7340000263,-0.9690065572,-0.9280543325,0.1515838212,0.9160191408,0.7259671517,-0.9732895987,0.3294088275,-0.654287768,0.8787146152,-0.4658350131,-0.9078866875,0.9035351329,1,-0.4496050212,-0.9232240449,-0.2444555181,0.9358274252,0.9042604865,0.8217775159,-0.1486989643,-0.6507021385,-0.6440291596,-0.8987466759,-0.8948265945,-0.9123744155,-0.9201977811,-0.8718131334,-0.6858892168,-0.3985034297,-0.9780128671,-0.8832512695,-0.8936479174,-0.9066733509,-0.9151543067,-0.9207593211,1
outputCount=3
weightIndex=0,114,965
weights=-2.1904701612,0.2502569839,-3.0397243453,-0.0485953618,-0.4876117125,2.3073783852,-2.234640164,0.4930253314,-0.0450192084,-0.0883443392,-0.3319914679,2.3535089257,2.2931420316,1.5335818554,-1.0716317167,-1.6065048754,0.0466327116,-0.6003884168,1.4598561188,0.0566752801,0.061782196,0.046504618,-2.5513272948,-1.4453792639,-2.1747815416,7.0755064658,-2.5971219004,0.2102467917,0.7205237116,0.101784675,-0.5032863283,-0.2160144993,-1.3307011071,0.0835566034,-2.0316071465,-0.3089133041,-0.4561515752,0.0649652983,0.3453709949,2.6748106413,45.5604697427,0.1215125502,8.1488981306,2.9008542843,10.7821394341,1.8866124948,12.0506293528,-0.0910054784,3.005892225,16.1470885082,-27.7923118537,0.0573704756,5.8619625696,2.3485452136,-3.7625944987,-2.9736242309,0.123250154,-28.203294837,0.1061478764,0.0440215161,65.782902359,-3.262656713,-0.0491801948,-65.2456055498,0.1033378174,-8.3471378531,-4.9324536204,-2.3649549721,-4.911310219,8.7157035313,8.1005941664,1.0592857336,-71.2768462351,1.4178722682,-6.0089740675,-0.0096957486,-0.1047961237,-1.3228930585,0.1476415737,-0.0101026214,-0.0603540839,-0.2627794431,1.3626274898,0.3571300386,-0.6142865561,0.0710170285,-0.0250372302,-0.0508813877,3.9429601039,0.0824355864,1.2290508012,-0.3995771931,-0.1625020995,-0.1055484592,-0.8065061508,-0.5985889146,-0.0000786363,-1.7706710376,-0.2082140043,-3.7211521909,-0.5584106716,0.2074056016,0.0026385995,0.0464392399,1.2652875021,0.0256112248,-0.3598023723,-0.1190813348,-0.0642010284,-1.6856236906,0.1979110767,-0.1062271523,-0.9459732571,-0.0829546977,0.0947631684,0.0669713309,0.0239239636,0.5660107676,0.2155894158,0.1764721849,-0.134457695,-0.2683718223,-0.1087413071,-0.5747192949,0.0965208196,-0.0416443193,0.7089519975,-0.1332177913,-0.1720036728,0.0254033176,-0.0694070864,0.6231228095,0.2117486841,0.2175781915,0.1578218266,0.6140164216,0.0013378969,1.0321894563,0.0213389,0.5978422306,0.0219003762,0.0353045322,1.0324136245,-0.0304525537,0.0112382135,-0.8175969322,-0.3969661739,-0.9753138298,-0.134623009,0.7454109399,1.567090109,-0.1751887018,-0.0164015374,-0.0833529221,0.4191394069,0.0777052309,0.0954422341,-0.0566093234,-0.0116303054,0.0572228874,0.6841054269,-0.0700389633,0.048746898,0.110903517,0.1069806573,-0.402887281,-0.0360920833,0.0804018128,-0.0960723869,0.0718958944,0.0837639905,-0.0254775208,-0.3488794587,0.0227608496,0.0483921495,0.1070835631,0.0361255369,0.0412155062,-0.0613346146,-0.0367677772,0.0255798626,-0.0126685363,-0.2023035424,0.7557769207,-0.0874126602,-2.3779064964,-0.0517252121,0.0937279462,0.0482423393,0.3724749204,1.3472837826,1.379961431,3.9050210577,3.9929000955,4.3994486168,1.2051684789,3.3363182678,0.3899716542,0.142804925,3.8215902232,0.0109618815,-0.460270049,0.0777187672,-0.0615310541,-0.08820419,-3.999691928,1.5958255659,-0.0009451637,2.6692335341,-0.1409608247,-0.1401422372,-0.2186371105,0.5900368836,-0.0111759083,0.0214645886,0.1021118657,0.217572236,0.2749297792,-0.4549994457,0.2257170684,-0.066687946,-0.0532435987,0.0047915013,-1.2584578765,-0.4103310968,-0.113353289,-0.1654634723,-0.2279005305,-0.2308848731,0.9185492497,0.0005627251,0.2773283137,-0.029380177,-0.0015079762,0.0815571643,0.0927509873,0.0184209314,-0.0888945049,0.0069968133,0.0520167638,-0.0872855866,-0.2066149961,0.0968593111,-0.036004103,0.093003144,0.0623723997,0.0931355315,-0.0955502475,-0.0363702661,-0.0161327092,0.0447069072,-0.0194324783,0.0934444271,-0.0853515279,-0.1915507789,-0.0132114765,0.057002309,-0.0161310726,-0.0894791669,0.0796908021,0.0964132606,0.1084053921,0.0056382517,-0.1059082362,0.1693412263,-0.0324194453,-0.0114238782,-0.0492725728,-0.0519374942,-0.1090396645,0.030906721,-0.1007921589,0.0439683054,0.061986698,0.0172124085,2.3555779737,-0.0837608725,-0.951673354,0.0958716778,0.0510253777,0.0864074975,0.1164761034,-0.0266284055,0.0999354708,0.087760029,-0.111836028,-0.0454726848,1.0985522536,-1.1262070925,-0.1152971163,0.071775693,-0.1657178203,1.3429938682,0.018232084,-0.3024172368,-0.1352794825,-0.3049573331,-0.1495156276,0.1095417227,0.2743588582,0.285048597,0.0591089626,-0.1760539462,0.0176541555,2.7197569199,0.1776518988,0.43796188,0.0284640926,0.0557704268,0.0507840009,-0.3599280225,-0.9736626143,-1.3098105475,-0.1543308808,-0.1900898321,0.2602036908,0.1564812406,0.1263506072,0.2291364137,0.1239163914,0.122537792,0.1453037467,0.0748945708,-0.0767001669,0.0381632319,-0.0367922547,-0.0465232564,0.0616185117,-0.0824031998,0.0837666484,0.0159238972,0.0213112285,0.0289890399,-0.1442521611,0.0554403834,0.0498476623,-1.8683361406,-0.1374169647,0.7239240827,0.0287205404,0.1078677468,-0.0317735357,-0.0074010464,18.5717593416,-2.6124585157,0.0324216121,2.8350732766,0.1240689427,0.128786584,-0.0630236398,3.9789143212,0.1617129106,0.6220611399,0.3218955754,0.1574317472,0.0301199475,-0.3765030469,-0.3630414438,0.3423283049,-0.3522195373,-0.7850994048,-0.6711670032,-0.1643470698,-0.0089609546,-0.0053435918,-0.1100418044,-0.2575050748,-0.0924605194,0.0781427343,-0.1177757783,-0.0868959691,-0.0766991441,-0.0342665879,-0.0615469489,0.0162530057,-0.076046559,0.0251215261,0.0359375808,-0.0839746716,-0.2414524682,0.1135705504,0.0151810336,0.1154897801,0.0296120298,-0.5623379144,0.0695381062,0.0817184107,0.0561399221,-0.0076691421,-0.2001239053,-0.0357540758,-0.0311666818,0.2110474534,-0.0511060881,-0.069556397,-0.0312717936,-0.0844752216,0.0060792067,-0.0047794998,0.0341147263,-0.0942089712,0.0454494966,0.115239211,0.0896790482,0.0937255338,-0.0054637361,0.0414841907,0.0686855316,0.028023573,-0.0058827222,-0.0347561239,-0.0886242791,0.1417086642,2.6316269842,0.0447971235,0.0112434701,-0.5456646081,0.0818893,0.3556418405,0.4766223055,0.7771562517,0.6154288975,0.3647468361,-0.195886492,-1.1134137244,-6.6228266362,0.3541889366,0.9221431053,1.3221749537,0.6353937561,-0.4075387112,0.07837058,-0.021785499,0.1186279413,0.0146258968,-0.2013646942,-0.0323824816,0.0123749829,-0.0019318746,0.0952656138,-0.031526924,0.0105469771,0.0728467685,-0.038440625,0.0302709742,-0.0577580837,-0.0306932274,-0.0975621587,0.0444972327,0.0545990201,0.0459302345,0.0263376316,0.0842197307,-0.053660747,0.0890336726,-0.0031060507,0.0353087358,-0.0541805054,0.0046065816,1.0703903185,-0.0442903212,0.8045980257,0.151992095,0.1152799329,0.2963804667,-0.0631086882,-0.0348197633,-0.2673708451,-0.0739209553,-0.1972773122,-0.0003847249,0.626605189,0.4016097826,-0.1885229984,0.0367246973,-0.0296260784,0.0792562116,0.0294006605,0.1758218673,0.1376160546,0.1250980468,0.0327148509,-1.6789668743,-0.1976106451,-2.6436284045,0.0986096032,-0.4413723313,-0.8316231189,-4.9727656331,0.0920008131,-4.9923830619,-11.1988795548,12.8884026414,0.6609711192,-0.8223452456,2.3369951242,-0.1838591782,-0.0455473025,0.0909630755,0.8522062379,-0.0905163288,-0.0216771041,-0.1030768569,-4.0493895445,-0.011957266,1.3527112331,-0.0226482975,-0.5225473213,0.2821797175,-0.0048602272,0.3862325737,0.12907487,-0.0074707094,-0.1542014426,-0.3618297608,0.6743869258,0.0377178828,0.0759914425,-0.5315402676,-1.1600204509,-0.2954227837,-0.1601400184,-0.8043440053,-0.2712927251,-0.1301158429,0.0197405213,0.0517903589,0.5492951097,0.8444554906,0.0589349987,-0.0181849697,-0.3823005844,-0.0213603511,-0.4013986263,-0.0992115524,0.0915725837,0.0423689276,0.0864174466,0.3087129895,-0.0500093843,0.7982783907,0.9234604409,-0.2581019767,-0.0805838011,-0.039343905,-1.2898929452,0.0641400594,0.0732909021,-0.0415292362,0.5814365835,-0.1166437072,-0.1160994916,-0.0112643525,-0.0642233429,0.1820232475,0.2388744581,0.0834793518,0.044569604,-0.0814897298,-0.0553224045,-0.0909931488,-0.06188266,0.0890766943,0.2671706776,-0.0179396626,0.0039693143,0.0403671233,0.0806490065,0.0260456365,0.0491555028,-0.0834488487,0.070436384,0.0165878298,0.3016919941,51.8032324125,0.3371940835,-253.8249138894,-175.2781502979,-5.3655670045,-48.4623477653,0.0711508744,0.0195600452,2.2288478768,0.5054398823,1.7138474684,-24.350414774,28.6238193144,41.1434797726,0.1322088337,0.0290981752,-0.4351377483,-116.7619573944,0.5203089767,0.6535140025,0.4984833883,-15.2772001147,0.9304067475,0.1028589811,-0.4417542753,-0.5172411062,-0.5330735356,-1.1020494343,-1.8343752263,0.0721174991,0.0904019633,0.554729069,0.1209468021,-4.0571157178,-3.9064215879,-1.8179168651,-0.8652904309,2.1754650374,1.6502109475,1.7467938308,-1.9750227471,0.3998907871,0.3168044333,-3.0651890274,0.4290131933,-5.0626172959,-0.0410772991,-0.0156423356,-0.1064831577,-0.0636968125,-0.0228476258,0.0244406853,0.0465612321,0.0153887183,-0.115703133,0.0294892251,-0.2275485083,0.2306816917,0.1360372111,-0.0541797884,-0.0821360658,-0.0438495383,0.0342526648,-0.0415494206,0.0155999254,-0.0019989574,0.0712928939,-0.1094403851,-0.0302749257,-0.147949297,-0.0605264025,-0.098662402,0.0332976074,0.051208569,0.1456850798,0.0113970409,-0.066007854,-0.0396169798,0.0371677715,-0.0472255636,0.071590272,-0.0399907716,0.0494222676,-0.0847027146,-0.0344552919,0.0012384805,0.216974186,0.0255432694,0.0259796627,-0.0371452868,0.0088200088,0.14242075,0.3011397921,0.0855437967,-0.662919759,-1.2064449995,-1.0534458005,-0.6936149512,0.2565843223,0.1516813162,0.6407998167,0.0741984535,-0.1167776997,-0.5745620176,0.001293751,0.3535621284,-0.3024275993,-0.3570363037,-0.0721537385,-1.7078401087,-0.0473700899,0.0472670635,-0.1457676871,-0.1858284769,0.00045785,-0.5048090189,0.0228529473,0.0315100183,-0.0075062383,-0.0561256077,0.0550704497,-0.0142711351,-0.0615027624,0.067038209,0.0439749477,-0.0527142133,0.0609002975,1.9990778191,-0.1422232706,-0.2990316036,-0.17747458,-0.1616746701,-0.1303833442,0.0288951469,0.1512266257,0.1894459991,0.1181172387,0.4704064693,-1.1856312296,0.017278886,-0.0933943726,-0.1394733202,-0.0531610532,-0.48279685,-0.81429616,-0.3097165887,-0.5772380261,-0.0629481837,-0.0316449635,0.2669556057,2.9506997448,-0.0971430181,0.2729824481,0.3011326869,0.0792796818,-1.0677986129,0.0595340577,0.4011521971,-0.0237371175,-0.6287674319,0.2607388111,-1.2947205205,-0.0243282141,-0.6077231806,-0.0171609869,-0.062975264,1.3665104571,0.729484046,0.263273419,-3.3123095977,1.1312228828,-1.5741980866,9.2417833659,4.8940659723,0.4982403327,-11.3049001949,-0.0401897718,0.1841497348,1.6868479554,-0.1395158431,-0.092018798,0.0856564326,0.3045777518,-0.4846561349,0.1203244741,-0.0926444023,0.3892760078,0.1019791327,-0.0693390253,-0.041676376,0.065408298,0.0102421157,0.0943141314,-0.093841036,-0.0139934196,0.0223552381,-0.1345621644,0.2248705284,-0.0073312034,0.0955507856,-0.0552153527,-0.0464490424,-0.0322488134,-0.0184272673,-0.0526747511,0.0198943282,0.071879462,8.9609642916,0.8720420043,-0.9615032868,-1.6926537769,-2.0885261874,-8.0787579312,-3.4891846793,0.0115355197,0.3383496459,0.0119545769,0.0064452782,-0.138740949,2.3169289621,2.0292677039,-1.7291572039,-2.0840498413,-0.2534896798,-15.3280855582,-3.2303632524,-2.5620122804,0.1766090252,11.3098162695,1.3921961897,-0.1931518804,-0.0706780273,0.1402993546,0.0390648654,0.0650885476,-0.0660200745,0.0566041687,-0.1067214608,-0.1444852462,-0.0247879282,-0.0201856566,-0.0117200716,0.1762263326,0.0935596553,-0.0080163724,-0.0250520888,-0.0604367498,-0.093481822,0.0802147056,0.0001114522,0.0078804491,-0.055188422,0.1017035661,4.7764865062,0.2485964707,1.1915006237,-0.0490324483,0.083542964,-1.1030217208,-0.8214419425,0.0294179854,0.0293873217,0.6862388141,-5.1277031236,1.315255673,1.2485619633,-0.011186661,-0.9887407432,-1.2621768503,-0.31529606,-0.5087020169,-0.056674148,-0.1902116307,0.0432981512,0.2455873249,-2.653859295,2.0460472684,0.045800506,1.007172833,-0.0810590208,-0.1475811458,-0.1288667233,-2.5132996797,-0.2229363708,0.2150310048,5.6766860471,-0.6539890779,-0.8914501249,-1.6254973711,-0.3913107173,0.8353608576,0.0283351563,0.2447319909,0.4378713641,0.1445488485,0.1418939326,0.4232140734,-0.1695571392,-0.313348043,-0.3092248603,0.0907392973,-0.03374523,0.0101026969,-0.0605803957,0.0608959832,0.0794547361,-0.0323106849,-0.0072673842,0.0778247313,0.0595278,0.0571387122,-0.0507069819,0.04385271,0.0672891914,0.0056202454,0.013142037,0.0870502527,-0.0103730376,0.0577676867,0.077540711,-0.0164924825,-0.1387972658,0.0877576731,-0.0628309598,0.0964762982,0.0626502969,0.0565102323,0.0346949727,0.0372315905,0.0918108225,-0.0537854309,-0.0959371732,0.0938122495,0.0278492758,0.0168997196,-0.0870911329,0.047851231,0.026308369,0.0145174931,0.1293760824,0.0628253773,-0.0307698235,0.0113683409,-0.0602100374,0.0961434562,0.3798119285,4.8535845025,2.2270121677,-0.4740903808,0.0890480195,2.5990959428,9.5034471451,0.07258447,0.3274491507,0.0545301911,-0.1283078169,-2.7655514915,-0.66950144,0.1569410058,-3.9801201954,0.1321291854,-0.0266135663,0.27238535,1.8376527569,1.0911961906,-0.2024393532,0.8854317565,-0.496597695,-0.0419791709,-0.0737725026,0.3105956299,0.0264741958,-0.0662834049,0.0674880056,-0.0379191445,-0.0988300879,-0.0355553596,-0.0901555761,0.0552008093,-0.0020407292,0.2826493349,-0.0637755065,0.0924293614,-0.0214011874,-0.0797824203,-0.0883157343,-0.0469826872,-0.0478326775,0.0737747183,-0.0571803107,0.0953515822
biasActivation=0,1,1
[BASIC:ACTIVATION]
"org.encog.engine.network.activation.ActivationTANH"
"org.encog.engine.network.activation.ActivationTANH"
"org.encog.engine.network.activation.ActivationLinear"
