encog,BasicNetwork,java,3.4.0,1,1592071366103
[BASIC]
[BASIC:PARAMS]
[BASIC:NETWORK]
beginTraining=0
connectionLimit=0
contextTargetOffset=0,0,0
contextTargetSize=0,0,0
endTraining=2
hasContext=f
inputCount=22
layerCounts=3,38,23
layerFeedCounts=3,37,22
layerContextCount=0,0,0
layerIndex=0,3,41
output=0.0733944855,-0.9999996517,-0.9380567537,0.5422322576,-0.3333619858,0.9999997865,0.3936444062,0.6092967916,-0.5876350685,-0.7883438605,0.9836326519,-0.7363015365,0.9998756595,-0.6781194252,-0.2332758477,0.6193754391,0.9988321736,-0.9009976746,-0.9993614372,0.9746729126,0.9934036176,-0.9988285209,0.9822402273,-0.9758320761,0.9992718029,0.3962020897,-0.9999149077,0.7340000263,-0.9690065572,-0.9280543325,0.1515838212,0.9160191408,0.7259671517,-0.9732895987,0.3294088275,-0.654287768,0.8787146152,-0.4658350131,-0.9078866875,0.9035351329,1,-0.4496050212,-0.9232240449,-0.2444555181,0.9358274252,0.9042604865,0.8217775159,-0.1486989643,-0.6507021385,-0.6440291596,-0.8987466759,-0.8948265945,-0.9123744155,-0.9201977811,-0.8718131334,-0.6858892168,-0.3985034297,-0.9780128671,-0.8832512695,-0.8936479174,-0.9066733509,-0.9151543067,-0.9207593211,1
outputCount=3
weightIndex=0,114,965
weights=-0.1589880647,1.497730318,-0.2576611205,-0.1274405993,0.1570057671,1.6529867344,-0.2807238744,0.1575661619,-0.448402096,0.1239006972,-0.2635990819,1.2641772623,-4.5904912447,-0.1242819312,-0.6034889766,0.0963203868,-0.2945953727,-0.1256697934,0.3496902027,-1.3484981918,-0.0082161867,-0.1498590345,-0.4749983752,0.0362201035,-2.6842064124,-1.6119278858,1.8750850162,0.3786363168,4.387885666,-0.1890950229,-0.2394159547,0.1893736778,-2.6489758885,-0.2904122314,0.3638092229,-0.2194407782,-0.2060059584,0.7158898016,5.3635527379,0.0985232355,33.0388694057,-3.7598677029,-20.2207706599,0.5763379308,12.2009923665,-0.7538526256,-0.4128354967,-2.7058361982,-1.0578515569,-2.8169875947,7.3880664481,3.0194923865,1.2729968758,38.3983230673,-0.9983291526,-28.8223172803,-1.8448926225,-0.1506995076,0.8171848896,5.3311808152,0.8311803293,-5.3109954705,-0.6239735223,-0.4827657578,-31.4753083913,-1.2217657156,-39.7088216881,8.0438518627,21.4259019899,-5.9380300917,-1.0419667244,2.3623461958,-10.8903697589,10.89035669,18.4811244655,0.0387747141,-0.3253151458,0.0956810699,-0.1399620194,-0.2762236184,-0.2895427219,-0.0656639591,0.108882673,-0.0304024226,-0.9309503665,0.0104535727,0.7994811094,0.4480122049,-0.04068479,-0.6501808293,0.0079447443,-0.7996363202,-0.4252046727,-0.4252693868,0.5015623378,-1.6276862726,1.4752924761,-0.4251342787,0.2425451092,0.0162034516,-0.9285320845,-0.8829092839,0.966797016,0.1889090907,1.1998545643,-0.0710679895,-0.1061424461,0.1937451395,-0.5929626956,-0.0113749485,-0.9910333725,0.2334744092,0.0501835875,-0.0449933303,8.8126755982,0.2999842455,1.2347554561,-0.3921572069,0.4920838431,-1.3366879204,0.7588740514,-0.8382659965,0.8246291969,-0.3504846144,-5.0493590172,-2.4784559125,1.7592304127,1.1225128974,0.7531837755,-0.0271901608,-0.002801319,0.343703941,-0.2729533676,-0.7935519012,-0.6578228221,-1.5705373876,-0.2871416693,1.3532020918,-0.169276432,2.0320426368,-0.0651096161,-1.0304807998,-0.2821339003,1.4253334967,-0.8959359832,-0.4842011553,1.6711623369,-0.0939977902,0.44837553,-0.369865007,0.6297984226,-0.2656707164,0.1229448192,1.6652097263,-1.7027313522,0.2337193285,-0.956754459,0.5091078836,0.0922154059,0.6070147006,1.2916657333,-0.1702217937,0.126832882,0.2745529133,-0.7933907073,-0.1183122394,-0.4855120937,-0.4816942746,0.7013306565,-0.324884599,0.750182379,-0.9806649479,0.0411799153,-0.8458992003,0.015652067,1.1123299608,-0.609263037,-0.4331710963,-0.7254090812,-0.0451387117,-0.2969552584,0.5081967332,-1.1702359979,-1.4674962379,-0.6351864635,-2.9258380512,-0.0830832896,-0.6159157788,0.800326542,0.7071017892,0.0345359276,-0.0243736897,0.7250771221,-0.5613305227,-0.9295554458,0.8150262498,-0.2333308925,-0.9350037365,-0.7461475297,0.3199780806,-0.3361883389,0.3406015787,0.0864722307,-0.5174393438,-1.109314843,1.1561812536,-2.8144315787,-0.8297458124,0.2105314115,1.3976542876,0.0883422085,-0.0020490589,-0.4659565797,0.3508459487,1.3041744438,-0.2611210253,-0.0978771515,-0.1900298113,-1.0203991616,1.0203107558,0.8215290844,0.6242350993,0.0596623616,1.0187724784,1.1664894409,0.2613931708,-0.5224456132,-0.7533558351,0.3827942383,5.9769992199,0.6056271296,-0.7152430314,-0.0308384609,0.31292736,-0.0544802593,0.3807068496,0.3876298199,-0.2599146603,1.3947816485,0.8345773541,0.4713622817,-7.8391590621,1.363317935,-0.2395758625,2.4810752964,1.8601620685,0.4023015382,-0.7757514829,-0.532349104,0.9817250252,0.6434129813,-0.1053453713,-0.6888281128,-0.1118342443,-2.0316488035,1.14128649,-0.7497356107,0.0668033782,-0.5532301559,-0.2958871,0.4411737854,-0.2283579549,-0.6616987469,0.5757383184,0.4849826865,-1.3319117207,0.8902178672,0.4061993863,0.9780174698,0.9347460093,0.7417359422,0.5736529068,0.9517673712,-0.0664321677,-1.2744780072,1.2265255807,1.4297349922,-10.4858339961,6.5041936509,-44.696403859,4.5779516737,12.5124817601,-10.590245444,6.1385489661,-1.1090140325,-1.3953283153,-4.9098809763,0.4148382709,-7.4742042751,-9.2217655072,-4.8930540324,5.7518741719,-26.590640871,4.2742706382,-2.3601330716,-0.762582426,4.1380342619,-1.6374853989,0.0221781326,0.060951432,-2.0737147458,-1.3614623954,-0.612100216,0.415498995,-1.1603582241,1.9351022478,0.2354753464,-0.3701835779,1.1338249449,2.0652885354,-0.2489158605,0.9108734641,-1.090917188,-0.7291109044,-0.5374990129,-1.1528489071,-0.0153029071,-0.4760639673,0.5628111776,-0.0324159263,-0.3794286336,-3.7431580753,0.2288651439,9.2547786196,-2.0449097748,2.0695438318,-1.9753123123,0.6681697612,-0.6381369733,-0.3143139372,-0.1807817861,0.6246790539,0.1134988924,-2.6405212479,2.617243964,-0.6892422229,-0.7547194574,-0.7470664424,-7.6527075652,0.1439088771,-1.2618612659,0.5835775285,-0.8883485918,-0.5261729598,-5.1952008885,0.6579244036,10.8361008478,6.665692795,0.6603704145,0.8003377362,-0.2263802747,-0.3609885399,-0.6844789295,-0.9718402584,-1.2149646899,4.1217656232,-2.4674430166,-0.5256632008,1.0122379276,-1.2281875055,-2.4114611981,6.5728622419,-0.2456624249,0.4110437635,-0.688135806,-1.921327938,4.7272335892,-2.3694817454,0.4198048639,1.1839357473,-0.0201332066,-0.2767070962,0.6869617787,0.0032572495,0.6605896384,2.0029712999,1.0138981891,0.9228172218,-0.9542397743,-1.2799693158,0.46454264,1.4006233197,-0.5111226651,1.5953792955,-0.1643360655,0.0501222007,-0.5899352111,-0.6636959272,0.5826143646,2.1330448959,5.1836135687,0.9997443461,-0.98284934,0.3218917286,-0.9094036392,-1.5835967978,0.6761469407,0.0836257305,0.7666246661,1.2078508686,-0.5066118426,-0.3205042797,-8.1832466573,0.516802893,-0.3141831929,1.2816770987,1.2745121114,-0.9538372202,-0.1973680167,-0.0160355675,-0.9730899581,-0.1391287091,-3.6392582114,-0.1406285238,-0.5247736284,-1.4919064266,0.8870714047,-0.5096679026,-0.6333191776,1.0355046992,0.3509217124,-0.203508567,0.481686271,-1.0713556638,2.480154866,-1.2573499804,-0.5424806346,-0.7488482768,-0.3348479793,-0.7331826093,-0.6885383249,0.8915486123,-0.8916742253,0.7928489979,0.831426193,-0.0248593287,25.8738564231,0.3170361774,-50.3097007257,-31.4386672972,-2.2990908666,-1.9118741044,-0.3379987559,2.7255298201,0.3037772956,0.3470903515,0.4268032096,-11.3473219526,13.4450512097,27.0510224098,11.4188449531,25.625901505,7.091633198,15.75495526,-0.0163239949,-0.4691287282,0.1655857624,1.214322537,-0.5273143898,0.3833090267,0.4808529971,-0.6205362542,0.4250292902,0.6761068013,0.2659216983,-0.4358615184,-0.3334445719,-0.3516214462,0.2648819841,-0.572017736,-0.4765183,-1.5811333738,1.1406911669,-0.5201894372,-0.1315391172,1.0862123082,-0.8885957474,0.3804529595,0.1547801805,0.8166675299,0.0578856761,-1.0119524783,0.0175939944,-0.4427567904,3.0772366839,0.5206301849,0.7482913739,-0.9268202795,-1.134493396,-0.1059306712,0.0191961895,-0.6919303776,0.2627619422,0.9389826321,0.2771492443,1.0465195183,0.8037645572,0.1471768754,-0.523795239,-0.1423148288,0.3637657363,-0.7269446556,-0.277979833,0.671515083,-0.4327641661,0.8835381733,0.6602765591,1.0209811129,-0.3252248826,0.5400843523,0.4736823962,-0.7629808471,0.3053661624,-0.3319049767,0.5026766322,0.8803896798,-0.7192318566,0.9989408161,0.8475665604,-1.0806985878,-0.1753620994,0.2715794287,-0.039220006,0.2479914361,0.8483372358,-0.1561483565,-0.9487507412,0.2881508458,-1.1819196035,-0.3587673318,0.633304515,2.3047967872,0.3083762975,0.5830990989,-6.638706133,0.8710394251,-0.0012368035,-0.1931202645,1.2691337827,0.0752491797,-1.6727751372,0.5041807922,3.8407015075,0.4799709242,-0.2507233252,1.0125528725,-0.0433225103,0.0549885288,-1.0616859551,-1.4131728755,-0.2109078866,-0.3695343531,-0.3806380207,0.6839272154,-0.4608912808,0.0117995632,0.3618114694,0.3539257848,-0.5404009557,-0.7270468155,-0.0569913465,0.014431867,-0.2058503151,1.0246618062,-0.5402234235,-0.1841561769,0.6686396661,0.5822642153,-1.0451036076,0.0671620481,0.0331571289,-0.2822695191,0.9389020421,0.4663632444,0.6209892653,1.9714541672,0.9751657476,-1.5929819395,-0.8920262514,-0.5682463005,2.6464977923,-0.8372771406,0.1035648424,2.7159169879,-0.7360160974,-0.9301859892,-0.1995401065,-1.9757540855,0.99650749,-0.2181434473,0.6128028667,-5.4764670996,0.130308395,-0.1730985463,0.9901596053,0.1758731233,-1.0321012662,1.5287414231,-0.6849890664,3.3343409055,0.0533742196,0.4673329907,-1.0754120729,-0.6727073078,-0.3369216574,0.6669437586,0.4788171777,0.1405116869,-0.5935089135,-0.7439734579,-0.4379172384,1.8689537764,0.6644655939,-0.4856352612,0.8669613064,-0.1513183021,0.7611986346,-0.8140822801,0.6060325402,-0.8937034445,1.2521194022,0.0916055849,0.0046467646,-0.3111315159,-0.3800762579,-0.3797304076,0.8276859468,1.0250313385,-1.1040014818,-0.9222231803,0.2141917599,0.3255726411,-0.5695265277,-1.0853732872,-1.2394384417,0.1079164009,0.7569096719,-1.586286642,-0.11265891,-0.9145199934,-0.1666939054,-0.3512084044,0.9114370344,7.6339340201,0.3147032958,1.5666383571,0.906943007,1.1744643085,-0.6986739492,-11.4722359745,0.2259384488,1.868246428,-0.7674650687,-0.9838168398,0.1779347494,0.5759555935,0.7899910477,-0.6365586606,0.3493680269,1.9658566845,0.7783218036,0.3863320094,0.744544634,-0.1618251407,-1.0899563317,0.5551157911,-2.9664494521,-0.7043073497,0.1347410923,0.6301883264,0.8465629955,0.7371350461,0.0877861363,-0.5114757567,0.1381492244,-4.1769393314,-0.3418129377,1.3162845834,-2.6979852579,0.7630836722,-0.9656041836,0.0497292953,-0.913458701,-1.1380825852,-0.1065793115,0.2239540555,-0.3974136903,0.9741375101,0.7354945038,-0.0009761353,0.358721575,-0.839930132,-0.0665452232,-1.7381286729,1.7097821649,-0.6529942904,-0.3574793714,-0.7823883461,-0.1211861107,-0.5117029192,0.1088331398,1.223742713,0.5008485555,0.1722271743,-0.7878440528,0.341527453,-0.8533383765,0.3265740279,0.5653064322,-0.8488154102,0.7259981543,-0.9032656781,0.3311014966,-0.6035529957,-0.0437170903,0.7719460818,-0.9616994275,0.1934100825,-0.7895648796,-0.176997051,-0.5112550065,-0.9815047246,0.1020320645,0.651616446,0.8772183924,0.5747245802,-0.0227979753,0.723050902,-0.9128347263,0.0247742206,-0.6602075029,0.6884921082,0.9701941337,-0.1142176211,-0.3838692924,-0.0090112732,-0.6343087291,3.7380396924,-0.2762331709,-0.5215869823,1.0020609258,0.0669153635,0.0294622182,-0.3441121395,0.3585715293,0.4869223177,0.1784300521,-1.228472359,0.6740301878,-1.4412749563,-0.3297659247,-0.9221918454,-0.9437273959,-0.333967666,0.200229855,-0.710444337,0.3378408612,-0.1725316144,-0.6357581466,-0.4011293611,-0.4215390396,-0.6745645964,-0.5663175488,0.534717772,1.1336815003,-1.0404769066,-1.1774163122,-0.5177575389,-0.2738463,0.5685734707,3.274509892,-0.7441500268,-1.0519973695,0.081853659,0.4502929791,-0.1037934006,-1.2051857822,-0.0566876573,0.6024538996,0.7270171148,-0.1782002081,-10.6327177881,0.5552336291,-2.6521642487,0.0234897098,0.3922251418,-2.0565366495,-2.009446673,-0.5052337895,-2.3069604338,1.1420012719,0.5110467355,6.7912512415,-1.8618227654,1.6158992352,-0.0255416384,-1.2585147346,0.8809149849,-2.4639896448,-1.0871095072,-0.2189945607,0.0427143968,0.7924618197,-1.1369671316,1.6732825405,0.0875599784,1.5985746203,0.1947088638,-0.6699599277,0.1930081756,-0.4336287373,0.3121763054,-0.1052447177,-0.617682056,-0.3392131586,-0.9892585455,-0.2704273023,0.4505225087,0.8721174176,0.3843733206,-0.1028435755,0.9199338497,-1.2725793649,0.8500967441,0.2668720486,-1.2176412368,-0.8141162084,4.4608416443,0.7004022019,1.0470913574,0.120742227,0.9075984571,0.1285097785,0.1635659328,-0.0468922654,0.1322950881,-1.1131942915,0.1813375339,0.3676965524,0.1917600576,1.494632977,-0.6793357527,0.2117657397,0.394393194,0.8754042653,-0.2545786804,0.451797823,-0.0760935665,0.3981878707,3.4834435228,-1.3124515413,0.655026247,-0.0982428387,0.8230565166,0.9042950109,-1.4318315716,-0.6768205811,-0.0896627644,-1.7580602749,-0.3534656748,0.0585785383,1.235310829,5.0916622041,-0.7588416531,-0.5474850382,-0.672490138,0.5400352222,-0.6941429244,0.4618655947,-0.0611191327,-0.6243172922,0.0111202025,0.6440859654,-1.115882909,-1.8505831327,5.2075490426,0.5264977435,-0.7668885752,-0.9842146314,0.1397145571,-0.9106619189,-1.4451566214,-0.1001206445,-0.0115160507,0.6085939832,-2.2031014276,0.211939288,0.8220528651,0.1719433933,0.489470266,1.4364709585,-1.5309433394,-1.5602724278,-0.5713127674,-1.9311275404,0.108352966,-3.6679290825,0.3695420422,-0.1548224032,-0.7818820156,0.0327765137,0.8903160905,1.1650424937,-0.7202812952,0.7346233137,-0.0404097146,0.1083932379,-0.108929873,-2.0547064501,0.1073311365,2.5727540245,2.2949557097,0.9028872263,0.5334739354,-0.1243814252,-0.7528031884,0.0456384929,-0.3488002673,1.08106796,0.7886982338,0.6783504568,1.7621802695,-0.237228789,0.5687012482,-0.6817548485,0.8555446125,-0.2047896512,0.9386040454,0.1920111402,0.6521868927,-0.1168268651,-2.0682269794,0.518591292,0.0769873128,-0.1994519308,0.3318872647,-0.077981993,-0.6994731337,0.9132455717,0.6463285951,-0.9289948169,0.775633625,3.1624229023,-0.5673839653,-1.1043279924,-0.7979824709,-0.605744048,-0.3886197129,-0.2486848276,0.8417565413,0.5517547444,1.0825595344,0.9394494284,0.4773693069,-2.3608473216,-0.5284228729,-0.2054434199,-0.1927928151,0.8937189653,-0.8984607769,0.4460135874,-0.0983968159,0.6087600925,-0.5448699846,0.6395458196
biasActivation=0,1,1
[BASIC:ACTIVATION]
"org.encog.engine.network.activation.ActivationTANH"
"org.encog.engine.network.activation.ActivationTANH"
"org.encog.engine.network.activation.ActivationLinear"
