encog,BasicNetwork,java,3.4.0,1,1591970271748
[BASIC]
[BASIC:PARAMS]
[BASIC:NETWORK]
beginTraining=0
connectionLimit=0
contextTargetOffset=0,0,0
contextTargetSize=0,0,0
endTraining=2
hasContext=f
inputCount=22
layerCounts=3,38,23
layerFeedCounts=3,37,22
layerContextCount=0,0,0
layerIndex=0,3,41
output=-0.1083152043,-0.9858474108,-0.9809852474,-0.1838784482,-0.2552884537,-0.9921665084,-0.1038743416,0.1001476814,0.9476450988,0.382087372,0.8104707233,0.9684336519,0.9992048481,-0.6794550841,-0.9549215726,-0.9997278298,0.9999745018,0.5526135908,-0.7060971453,-0.9999058951,0.6321847588,-0.1351600514,-0.9990161218,-0.1939400658,0.9999977135,-0.7224787533,0.999164641,0.5798078792,0.8949116169,-0.9973989717,0.999998565,0.9999154126,-0.7244805486,0.9953419067,0.9913175746,-0.5308135195,0.7982943679,0.5827251498,0.003192952,0.9997818008,1,-0.4496050212,-0.9232240449,-0.2444555181,0.9358274252,0.9042604865,0.8217775159,-0.1486989643,-0.6507021385,-0.6440291596,-0.8987466759,-0.8948265945,-0.9123744155,-0.9201977811,-0.8718131334,-0.6858892168,-0.3985034297,-0.9780128671,-0.8832512695,-0.8936479174,-0.9066733509,-0.9151543067,-0.9207593211,1
outputCount=3
weightIndex=0,114,965
weights=0.2270129975,0.0958874173,1.2050689609,0.4029066814,0.4500381861,0.1941312563,-0.0026728043,0.9055003953,-0.216862825,-1.1953601169,0.460531961,0.5336206409,0.1502573903,0.7175548475,0.1175543889,-1.9356867651,-0.1098405785,-0.0555750967,-0.1326550042,-0.4882862977,1.3192110212,0.1912409953,0.1019260971,-0.0561175916,-0.3091547783,-0.2072994374,1.2219729137,0.9884537648,-0.0015965084,-0.5502977505,-0.0888816936,2.0349245311,-0.0821559879,-0.0541229323,0.8232176993,0.6470022568,0.7109510562,-0.0998748153,1.9785153183,16.1008873915,-0.7533466044,-3.3774592384,-5.0415647981,-4.4083809356,-7.1475613632,0.5276619743,-5.6055194207,-6.3627520607,-29.9119917172,4.8738301373,-6.0927036253,-13.3842649449,-20.149706412,1.9175975786,-13.7180907674,17.5146064749,15.4930952724,28.8465730209,-18.1519405169,-2.9345680371,-4.7733495616,8.9256172879,-36.825410258,11.2392484268,-16.1977255353,-0.6238866148,-4.5128782582,0.0259872229,4.072644543,-94.4352258746,-7.2199098252,-5.4395157002,-13.720116801,-2.7666912521,-0.8383332113,0.9541745378,0.7424190131,-0.724572006,-1.6510198553,-0.9328760224,0.5461159737,0.0746589039,-0.1343061207,0.1689841319,-0.1909285864,-0.4343109952,-0.0533603874,0.6312066763,0.0970696111,0.1115765826,0.1422305571,-0.8621718015,-0.1449867904,-0.1450141376,-0.133666513,0.7958387166,0.233203601,0.0767589105,0.0019622261,-0.1001956049,0.812106174,0.3321074955,0.0522245498,0.3846783474,0.0848577074,0.0897136551,-0.2926160634,0.2577475037,-0.0732561546,-0.0694598189,0.3025684346,0.1252435069,0.0091252992,-0.4110512884,1.2718565206,-0.1240051594,-0.7823763502,0.6516943075,0.0130282456,-0.099781507,0.8656310045,-0.7045565544,0.6913965114,0.6144674376,0.0220691417,-0.802966415,0.2154972701,-0.221485667,-0.9050898047,-0.7211569347,0.0120982478,3.081398119,-1.1076555706,-0.9087577846,-0.1470059621,-0.5017840594,-0.3589452438,0.8559620061,0.9415651411,-2.3557599918,-0.0210562618,0.0765834223,-1.3649245585,4.212213984,-0.862936509,-1.3051976264,0.6741217717,-1.0028037413,0.6074162676,1.5949795065,-0.9213551624,-3.0005100791,-0.5259989511,-0.0987278605,-0.7723136983,-0.8928361936,1.0750108475,0.8196631933,0.4308696073,0.183437684,-1.1375251503,0.1226317696,0.3559281615,0.2017267171,0.383520373,-0.016874991,0.2014869113,-0.4363075517,-0.4187944451,-0.2763883258,1.0141074122,-0.1718638792,-4.5608920441,0.8422045681,1.1133705231,0.1451027562,0.883851817,-0.719611097,-0.8876854542,-0.1639193611,-0.5582899387,1.4007967767,-3.3711015557,0.7919466591,0.3324997739,-0.2070307746,-0.8261999494,0.5415746313,0.8591776206,1.3630064893,0.3850072991,0.1525879266,0.8278301141,-0.1658761111,-0.9461411031,0.0661894541,0.3753188045,-0.668931287,0.3068885589,-0.386869109,-0.0014506981,0.6699809523,0.4826186323,-0.2868125156,-0.5924707853,1.0153150171,1.0335779463,-0.8250742639,-0.9436609241,1.1931769028,-0.2815623974,0.7748343462,-0.2083729567,-0.6595586171,-0.449200547,-0.1983764015,1.3318153893,-0.2514546515,-0.6968094722,0.6320937666,0.1017818299,1.3981738134,0.2567676633,0.7160679062,0.1684007465,-0.5306971731,0.4011405033,0.1077261885,0.1735816475,8.399791365,21.6951488884,28.4351975257,17.572448102,-2.3098212601,16.4412294932,5.8572208237,1.7769823185,11.8177881409,6.7613737266,-48.0976825863,13.5743885305,6.2588992348,-7.1265572727,-5.3220999303,-0.3996544505,1.225017855,9.3794152778,11.2257246163,19.327752552,0.7674531737,-27.8904569485,-0.3259292198,7.2110547432,-0.8668944196,0.1343425693,0.5018472054,0.4334779445,0.5499423079,0.1409338278,0.7883502802,-0.4431600366,-0.4279768382,-0.1557991689,-1.703023256,2.1211617151,-0.5592609379,0.2055711092,0.6088628938,-0.0414451841,0.116746662,0.476841104,-0.6220065199,-0.2874758317,0.5745516956,1.5353699117,1.7347605717,-1.0105404245,0.9137605207,2.1992220789,2.4118236216,1.0087914694,0.3797241661,0.182569987,-0.3625514453,-0.5799284355,-0.9178907594,0.2177765476,-0.6089624126,0.1829305289,0.5734850158,0.6535675498,0.8529659773,3.4998551117,0.0651040298,0.1611851791,-0.2230537963,0.3933725187,0.4122388989,1.0591687366,0.665379001,-2.5844755407,0.2898881303,0.2479252617,0.1414566127,0.9985800951,-0.8405373913,-0.1627860888,-0.2158928113,1.1684597265,0.9012824301,-1.6062489734,0.0367927713,-0.5106262547,-0.047813037,0.2347954095,-0.3434709568,-0.2177064061,-0.9339232273,0.439864754,1.0749593551,0.5080677101,0.0602276188,0.8234174885,1.2623730315,2.4342774401,5.0761608318,-0.3691552483,0.9197859768,-0.3546512214,-0.1995683572,-0.9798310737,-0.7013534848,1.157998592,1.4217348842,-0.3384432215,-0.1219315642,0.3942342134,-0.0830565068,2.6783056812,3.1114144889,-1.1798973217,-1.1168200575,-0.4039453048,-0.1450161106,1.4593089113,0.3137518891,1.5267613766,-0.660729494,0.8620398895,1.3860078001,-0.4796179961,-0.7713412408,0.4479441312,0.0285429753,-0.4819859906,0.7302294973,0.0540042449,-0.1335844147,0.4277877607,-0.6296923366,-0.5461838169,1.2306785767,-0.040807651,-0.8567269968,0.2069578917,-0.0258332489,1.0365992819,0.6540206982,-1.1660725155,0.5247470744,0.2270717011,-0.5067051088,-0.1380467869,0.7022566801,0.0729551755,-0.3423106785,0.0232285537,1.1434993238,0.692056906,3.0225532773,-1.9087127338,-0.636755776,-2.7099841258,0.2657789965,1.2478965028,-0.3113539781,0.1496827963,-0.0241278487,0.3961159532,0.3492792212,5.0184589428,0.9513170986,0.1659669088,0.8208220949,0.550488147,1.8581332074,25.115379204,0.9910733161,0.1115232319,0.4408854493,-0.0210813344,0.1812151099,-2.8379868216,4.4965212932,-0.9772371005,0.7951839687,0.9748069016,0.5341777639,-1.7525002427,-0.9729679899,0.5305716221,-1.5037917503,0.6354737431,-2.338258965,-0.9457334976,1.5337695063,1.1012222894,-0.1715693618,0.7208578164,-0.4504620269,-1.1954496246,-1.9527786177,-10.7236216054,2.9411986014,10.0273956398,3.2521960769,1.2324268629,4.9958510458,-1.4740097819,-1.4366128755,1.7046526433,-0.3936250374,-1.0382807485,-0.6616297224,0.9898971822,4.5528789999,0.6947684598,-0.0093461026,0.2010512823,-1.2874562624,-0.2273751822,0.0620595566,0.4913812246,0.0088434782,1.0514597252,0.1567859372,0.4479237832,2.3623808457,-6.3425274821,0.0236841702,-0.2318262537,0.1289512783,0.6553609404,-1.2607577693,-0.044221911,0.0659761175,0.8744809241,-0.5696993476,-0.4926166988,-0.5417855121,-0.4178681739,0.4399598516,0.7866207527,-0.4581930672,0.8471467035,-0.545201962,-0.8323999127,-0.6879216949,-1.2834423356,-0.8153039653,2.2305377526,2.3772921563,0.0209973873,0.2146179685,-0.8441879097,0.4197937547,1.0371319605,0.1146221789,-0.7140210861,0.2814532855,-0.5756365777,0.9757367374,1.03497254,0.2696328786,1.8990426946,-0.0258217061,-0.4043715391,-0.0316443663,-0.4380865372,0.6226118971,-0.7874040463,0.7571758403,0.946602185,0.1670011586,0.3965515888,0.4099574067,-0.9746970371,0.9766955826,-1.0618276783,0.6896179565,-0.1482622416,-0.2953420385,-0.5452364324,-0.0270703212,0.2620104182,1.4882478952,-1.5825091558,1.7517423884,-2.6209576228,0.166723972,-0.7560947614,-3.4619792507,0.7162376954,-1.1994681127,-3.7494159612,-15.4635534991,21.1078035607,2.7985957309,-2.0937276283,-4.4891066612,1.1718025107,0.8924860617,2.6517801742,2.6737535433,-0.0336591209,-1.1135770701,-8.6134759758,-0.2009072054,-2.1023637943,0.5426401354,0.5763877197,-0.5923373442,-0.4202231264,0.9503740037,1.1994320907,-0.0924616415,0.0533582459,0.9682345175,-1.1944208745,0.0004642133,-0.6733203643,0.3635922134,-0.4930481733,0.9886752045,0.2726096655,0.5640213902,-0.9596281181,-1.0112302169,-0.9490066788,0.0650717889,-1.0248333102,0.8192698905,0.0022741815,0.5314724766,1.5332773791,-0.7157599102,0.8641533591,0.6386270454,-0.9110048748,-0.0435397367,0.3144301401,1.1541732945,6.5124127116,0.1929442517,2.1707222852,-2.1397951495,-7.2426970556,-3.2614350113,1.0476718606,0.0206665166,-0.142329527,1.597368939,-0.1459362596,-0.6575994134,1.441566469,0.6046023066,-0.1116244169,-0.1913083375,-0.0031617101,0.1209584142,1.0942395375,0.399192121,1.041696107,0.5826180244,-0.2963042397,0.0433960756,-2.8952060411,0.5510073569,0.3316240448,-0.1817019111,0.11784861,-0.3402748282,0.6250279015,-0.2596152209,0.0651167027,0.0174650973,-0.0225656434,-0.3559749462,0.5216248818,1.7053066311,1.8631008845,1.0453009234,1.2024693945,-2.4706795189,0.4328191606,0.8970746642,0.5714630916,0.5652907433,1.0773894679,2.064248286,-5.4992131756,1.6883949083,0.134443029,1.0096325591,0.1897322812,-0.6658592414,-0.3033341859,0.4261784761,2.1156537569,0.503035083,16.2190593529,-1.1882875699,32.6592419453,0.6509034398,-0.4771171701,1.1338699985,-15.91174604,1.0266398328,-0.4731685246,-0.6935531813,-0.0281392461,-0.0327193416,0.6646837897,-0.1446897148,-3.6680380512,-5.8582624024,-1.1461856975,0.119634283,0.830207357,1.1285542061,0.8695625705,-0.1164880403,-0.2858948066,0.3259528587,0.6322410229,-1.0633858431,0.3649827266,1.4456702306,5.1749522168,1.5683809343,-0.2300778776,-3.7302850464,1.8355699409,0.4808465151,0.8714970744,1.2967822317,-0.2424198085,-0.9331266378,-1.0976347884,-0.1738413423,1.2077499195,0.1764422552,-1.4460945905,0.1986852749,2.3010369847,-1.2905256458,-4.3383333877,-0.4374505629,-1.0495201223,0.5611051344,0.1473776666,-0.2491269481,4.0073897952,0.4220707701,0.424274195,1.2799724194,1.1931749004,0.3396644274,-2.1497326535,-0.4526551408,-0.4697447317,0.3295119043,0.4552022367,0.9834875691,-0.1196669676,1.0518118168,0.4461965157,-0.5520429314,0.5577102556,-3.6804689543,-1.1183181099,-2.5187671687,-0.3781299569,0.3155517591,-0.6985827846,-4.3858393112,0.7476543765,-0.257322393,0.8244136124,0.2119258828,0.7396679016,0.5724222749,0.908935576,-0.8342411303,0.73628995,0.4405042198,0.7176571773,-0.9094014596,-1.6588129942,-1.6867920763,-0.5644643095,-2.3048947192,-1.3342168666,1.0597502011,0.0030644197,-0.7206817536,-0.5557399375,0.5701829837,-0.1899856486,-0.1236807997,-0.381946309,0.3156736838,0.1780821247,0.2058841566,0.4393293116,0.5440429586,0.2062177403,-0.6360064344,0.6971212751,-0.8995782124,1.2362252489,-0.1711553005,-0.4527060344,-0.0812998321,1.0175390116,-0.1427464447,-2.956836071,2.2315187563,9.9631480639,-1.1799213249,-1.578237117,-0.4574446826,-0.3035976091,-1.3969054777,0.1321139286,0.6314275415,1.1762958892,1.7540335986,-0.8697593157,0.4459186444,0.3003346451,-0.1700573898,4.8097639265,-2.7841215608,0.0751754067,1.0439178362,2.5087494447,0.6645294847,-2.0626909523,0.6637415745,2.9340318606,-1.3683679792,-1.0783360344,0.2476795925,0.2734914548,-0.3411858314,-1.1071592047,-1.4730229181,-0.936495316,-0.9300362568,0.6229591364,-0.5826776866,0.0670124399,-0.3263992885,0.1273917886,-0.7549811001,2.1158429115,0.3749212208,0.2164448739,1.4018364792,-0.0719895364,3.1960552826,0.2006013302,3.3909914684,3.4661280748,-0.5045246706,-0.2976503409,1.4418024312,-0.5545957791,-2.1039815265,0.4244400855,-0.2299843922,-1.1157299074,0.1466230042,0.2456995393,-2.0343147262,-2.5495921256,0.8744974237,2.3782028346,0.5430439417,0.6041097528,-0.7171123822,1.0813651105,-2.9220253267,-4.7806046618,-0.613125861,-9.2715370807,0.9303102313,-0.9150890973,1.9824620552,-3.5714005753,1.5751303055,1.771517169,0.6615029183,-0.2135905545,-0.0887879578,2.1867862737,-2.5988375194,5.3754587698,-1.8295296693,0.0645967682,-0.2578521996,-0.72002414,-0.6144553773,0.5378599622,-1.7802673949,-2.5473827324,-4.1123073149,0.1329404055,-0.3894198549,0.4156859716,0.5768137869,-0.0365785918,-0.2618510397,-0.8654826002,-1.0706843046,-0.8535298137,0.0455883538,2.0748235913,9.5062476639,-0.3005687492,-0.6774401906,-0.2771429704,-0.3777883091,0.1385615259,0.6939522515,-0.6184431379,-0.6575257291,0.7878916668,5.1701229421,-15.651169112,0.6129929138,-0.842175494,0.7306993508,-0.3885060936,-0.0614216173,16.5053134514,0.5157392698,-0.6090531998,1.4245544243,-0.2747011594,1.1499326929,-2.1716470699,-0.1532967943,-0.9301050871,-0.3164960738,2.145945797,-0.7334496646,-0.4616119353,0.5617757376,-0.2558784909,-0.1666513099,-1.2507403353,-3.4417562398,0.6529938113,-2.1378012872,-0.6167153374,0.8658264944,1.8721476304,-0.1095501107,0.5777843328,-1.0478615216,-0.5536785628,-0.1886185916,0.7422099024,-1.0001051465,-0.8934140775,0.2213028844,-0.5929004078,-0.2589566735,0.8857870409,-0.3138094689,-0.0300533696,0.5226463377,0.5248101614,0.764162079,-6.6441706658,0.7159126649,0.2063842563,0.9675444216,-0.7544599371,-3.34026901,-1.5431859798,-0.2834371656,-2.1385320464,1.116198063,-4.0127435492,0.6022775677,8.8029486651,-1.0346130917,-0.1225816484,0.2605808436,-1.4765410501,0.6531935628,-5.9977013925,-3.5962956501,0.3238138784,3.2923346827,3.7163343529,-10.2202641009,-0.4491875439,-1.3334476292,-0.3724486131,0.5337822226,0.3706251636,8.2769890999,1.175115735,0.5597332357,3.7911296739,2.0042660398,-3.5135324295,-2.3779216059,-0.1142954382,-1.0409751906,0.0542365006,1.6658690996,0.2628070879,-0.3583455089,0.0730481503,0.7412463875,-0.2628673703,0.0391356078,6.7536513805,-0.545187209,0.5642890111,0.3291946042,-0.5292508876,2.6213057174,-2.1678499305,-2.690867957,3.971085717,-1.6496532513,-3.1205621096,-0.9013305903,2.7281810653,-1.0457804451,-1.9162640737,-0.6611586193,0.7106152544,3.7675737906,-0.7446624818,0.6781039181,-0.9754335789,-0.0111493169,-1.358098852
biasActivation=0,1,1
[BASIC:ACTIVATION]
"org.encog.engine.network.activation.ActivationTANH"
"org.encog.engine.network.activation.ActivationTANH"
"org.encog.engine.network.activation.ActivationLinear"
