encog,BasicNetwork,java,3.4.0,1,1591968700348
[BASIC]
[BASIC:PARAMS]
[BASIC:NETWORK]
beginTraining=0
connectionLimit=0
contextTargetOffset=0,0,0
contextTargetSize=0,0,0
endTraining=2
hasContext=f
inputCount=22
layerCounts=3,38,23
layerFeedCounts=3,37,22
layerContextCount=0,0,0
layerIndex=0,3,41
output=-0.1083152043,-0.9858474108,-0.9809852474,-0.1838784482,-0.2552884537,-0.9921665084,-0.1038743416,0.1001476814,0.9476450988,0.382087372,0.8104707233,0.9684336519,0.9992048481,-0.6794550841,-0.9549215726,-0.9997278298,0.9999745018,0.5526135908,-0.7060971453,-0.9999058951,0.6321847588,-0.1351600514,-0.9990161218,-0.1939400658,0.9999977135,-0.7224787533,0.999164641,0.5798078792,0.8949116169,-0.9973989717,0.999998565,0.9999154126,-0.7244805486,0.9953419067,0.9913175746,-0.5308135195,0.7982943679,0.5827251498,0.003192952,0.9997818008,1,-0.4496050212,-0.9232240449,-0.2444555181,0.9358274252,0.9042604865,0.8217775159,-0.1486989643,-0.6507021385,-0.6440291596,-0.8987466759,-0.8948265945,-0.9123744155,-0.9201977811,-0.8718131334,-0.6858892168,-0.3985034297,-0.9780128671,-0.8832512695,-0.8936479174,-0.9066733509,-0.9151543067,-0.9207593211,1
outputCount=3
weightIndex=0,114,965
weights=0.2640750332,0.0670107008,1.20543013,0.4271292293,0.468290164,0.2020417404,-0.0252229559,0.8286324178,-0.2371774514,-1.1914133408,0.4632779191,0.4948939389,0.117375706,0.6692968591,0.131403433,-1.9080278452,-0.1475035103,-0.05005985,-0.1352290523,-0.4521910512,1.2707903688,0.1995188206,0.0962181585,-0.1000300256,-0.3144511287,-0.2484959638,1.1796066263,0.9777834933,0.0198235739,-0.5758113796,-0.1022790359,2.0081592461,-0.2028809716,-0.0598177319,0.6964763082,0.7105068967,0.7127666965,-0.049202302,1.9907708129,15.9448163422,-0.7534360734,-3.310468385,-5.0349590658,-4.409281743,-6.9469500283,0.5529357208,-5.5922576103,-6.353874884,-29.9118223782,4.3411756502,-6.0901399442,-12.5777360417,-18.4614040362,1.9180559156,-11.4029915004,15.8520117229,15.486464221,28.8358707064,-18.1498097015,-2.6875424491,-4.6624542741,7.964482371,-36.8254391117,11.2384840346,-16.1531498282,-0.621775728,-4.5186843223,0.0229146606,4.0730895705,-89.1923904585,-7.2343842218,-5.4394743217,-13.7199631956,-2.774040907,-0.8383682593,0.9543663512,0.7163875853,-0.6950680698,-1.4306283233,-0.9329426626,0.529091196,0.0923690442,-0.1512858475,0.1468679239,-0.2002338216,-0.4459822655,0.1290179937,0.6353498339,0.0987336062,0.1520265802,0.1479088893,-0.9737493802,-0.1128577986,-0.1363396526,-0.0858906117,0.7214831788,0.2253154135,0.0745105591,-0.0027292896,-0.1099919631,0.7434603206,0.3919989235,0.010726412,0.3860612253,0.1190844194,0.1820298252,-0.2655003704,0.2555672468,-0.147155715,-0.0618775395,0.3228597442,0.2212884465,0.1133673215,-0.4203368151,1.285383698,-0.1196301201,-0.8135523564,0.6457014258,-0.0027750199,-0.1061976074,0.866165413,-0.7044560689,0.6939075422,0.6145548524,0.0199825417,-0.8133366857,0.2151649104,-0.1902475003,-0.907354329,-0.7232860367,0.0120016961,2.9967213454,-1.1102001939,-0.9075402612,-0.1430596289,-0.4937788053,-0.3565622249,0.8565143128,0.9361471851,-2.3619338595,-0.0184914678,0.0777512069,-1.3635138211,4.1329218992,-0.86466111,-1.3047962448,0.6716890418,-1.0039015263,0.6056862321,1.5937213362,-0.9265699972,-2.9961566558,-0.5180018998,-0.0939254112,-0.7752975912,-0.8973818611,1.0697417808,0.8140475476,0.424979005,0.1873683635,-1.0070654247,0.1210786125,0.3477244633,0.2130159229,0.4222518913,-0.0041348464,0.4200910278,-0.4372502527,-0.4255942918,-0.2810060196,1.0186560047,-0.3203508686,-4.5229498383,0.799843972,0.993442586,0.3682422936,0.8724958964,-0.7042270399,-0.8846135456,-0.1631229113,-0.5586222397,1.3991805642,-3.3057389872,0.7876704116,0.3372842603,-0.0594964527,-0.8293174814,0.5396192939,0.8536917314,1.361570762,0.3850947711,0.1517639024,0.8275653738,-0.1658236776,-0.8894022123,0.0666171154,0.3753756279,-0.6670483173,0.3073941918,-0.3870979429,0.0122558539,0.67261847,0.4836798197,-0.2867734265,-0.5925626141,1.0150098122,1.0618693691,-0.8366687208,-1.1964433148,1.2065786742,-0.2682226195,0.7856812043,0.008824367,-0.6584719547,-0.4489501127,-0.1976037852,1.3317309978,-0.2525852882,-0.7021111934,0.6260295614,0.1003003166,1.3902457647,0.2528108026,0.6006249804,0.146213864,-0.5439495429,0.3892242453,0.0958870625,0.1720755058,14.9529306816,21.692104317,30.329059608,17.5419659235,-2.3395935395,15.9744557282,5.848336706,1.7712371861,11.7998645289,6.7539985898,-52.8155599216,13.5706142232,2.3229927931,-8.1949703323,-2.4569844143,0.0390258434,2.8541363977,7.6361365209,10.7231103051,18.763906193,0.6560527371,-27.9337185422,-0.3261594328,6.8810827318,-0.8485668455,0.1344062315,0.4961472392,0.4286156169,0.5364880046,0.1577246102,0.7990816867,-0.4414273858,-0.4177782149,-0.1466709075,-1.6923473981,2.1216655709,-0.5569395835,0.2074894655,0.6096121655,-0.0405972266,0.1148241827,0.4773235965,-0.6177200349,-0.2786737636,0.5874994607,1.5020559572,1.5655494127,-1.0084091632,0.8615216125,1.1654547021,2.3884599182,0.9999847843,0.3875195851,0.1874713681,-0.3573062163,-0.587962646,-1.0206883935,0.2365586851,-0.6679876003,0.1684200432,0.5830096997,0.6528088382,0.8534968928,3.4980444619,0.0582699545,0.1497127049,-0.2466230257,-0.6392070982,0.4117573646,0.8339494056,0.680018373,-2.5947359794,0.2842380246,0.2445166719,0.136045093,0.9629865877,-0.8456895786,-0.1820002888,-0.2244058981,1.1650890851,0.9001719932,-1.6063484625,0.0145883664,-0.5217691016,-0.0556584186,0.2301391364,-0.3428645166,-0.20302973,-0.8824552017,0.4726497411,1.0882188844,0.5084356481,-0.1030105375,0.8412834044,1.3108435083,2.4215421325,5.0560220079,-0.9491750548,0.9179200209,-0.3548788213,-0.1999305196,-0.9679312194,-0.6784486464,1.0692836674,1.4227371672,-0.3363580371,-0.1358257384,0.3953454914,-0.0846884815,2.2267547701,3.1070707742,-1.1767211257,-1.1080801149,-0.3836065359,-0.1478981859,1.1385708931,0.3163215858,1.1629501414,-0.6642606297,0.8585356089,1.3824031943,-0.4793962167,-0.7707281579,0.4497814588,0.0254240047,-0.4753637961,0.7358384025,0.0581459495,-0.1246023449,0.432933085,-0.6327745671,-0.5488272278,1.0188992867,-0.0430205391,-0.8547180825,0.2095618994,-0.0236545667,0.9104887768,0.6929905154,-1.1734196265,0.3782491056,0.2301504996,-0.5042442751,-0.129126914,0.7264389726,0.0735104274,-0.3388458056,0.0232433994,1.1435550574,0.6918580835,3.01989187,-1.8916824621,-0.6368027512,-2.7114490889,0.2654690087,1.2470265621,-0.3157738791,0.1409666598,-0.0322549093,0.3902625869,0.3496087211,4.9394735491,0.9541260178,0.1701303197,0.8194417514,0.5495742151,1.8559604273,25.1934412394,0.9936475557,0.1095431387,0.4431418274,-0.0220779614,0.1846393914,-2.8345727698,4.5576195196,-0.9751790849,0.7995172851,0.9790409184,0.5360874674,-1.750459257,-0.9705685239,0.5332798456,-1.5009061483,0.6307973242,-2.3771633355,-0.9419053958,1.4134848972,1.0973782136,-0.1745794647,0.7185631474,-0.4481510665,-1.1926352608,-1.9511998077,-10.7209598341,2.9419092728,10.0291561051,3.2542449872,1.2325683758,4.9956483007,-1.4838198554,-1.438203078,1.6132356908,-0.3925712384,-1.0330610002,-0.656061178,0.9947373818,4.5491420775,0.6970122551,-0.0071942934,0.2620808278,-1.288282673,-0.2272679874,0.0619630014,0.4941012805,0.010681538,1.0520153073,0.1587232402,0.4490753789,2.3628814693,-6.339256571,0.0237209318,-0.23117931,0.1295530718,0.6569598544,-1.2634105134,-0.0448880215,0.0667345214,0.8761445497,-0.567371291,-0.4968169809,-0.4050381417,-0.4287691168,0.4030832604,0.7907075729,-0.4554256735,0.8486105941,-0.5454704486,-0.8331267369,-0.6883727185,-1.2751106967,-0.8067939226,2.231666933,2.1426953062,0.0397115624,0.2175286301,-0.713456094,0.4227611077,1.1080848404,0.11377998,-0.719577418,0.2702565573,-0.617127832,0.9754852068,1.0089898154,0.2661966198,1.884013277,-0.0215930756,-0.3992192934,-0.0275911288,-0.439735272,0.6218878991,-0.7894675718,0.756685423,0.9462263941,0.1667528407,0.394154647,0.4091838213,-0.9748103905,0.9759371722,-1.0618674398,0.6846495338,-0.150963992,-0.297834029,-0.5484471281,-0.0313756247,0.2619984398,1.5099633308,-1.5805051653,1.9620521699,-2.6244873443,0.1597928085,-0.7898415829,-3.470755217,0.7156260219,-1.2009608469,-3.7495821312,-15.4638313471,21.0852271588,2.7990905513,-2.0900070425,-4.4135049382,1.1724592449,0.8930044471,2.6719483774,2.6803906109,-0.0290826494,-1.1115072927,-8.6127037378,-0.2010158673,-2.0908879088,0.5453987269,0.5616852699,-0.5976430895,-0.4252262192,0.9472892451,1.1694797558,-0.0957666801,0.0545007006,0.9671193846,-1.1964375315,-0.0011333474,-0.6726725648,0.3734966293,-0.494695975,0.992170195,0.2747535843,0.568579667,-0.9550956416,-1.0078480543,-0.9462772411,0.0673492098,-1.019434459,0.8190177542,-0.0024681376,0.5206699483,1.5401891204,-0.7108342438,0.8678636621,0.6411423155,-0.9019301806,-0.0386037356,0.3166713829,1.156114823,6.5108801421,0.1938719422,2.1426796255,-2.1419279297,-7.2398434469,-3.2585669986,1.0825305342,0.0235243549,-0.1428950945,1.5951144818,-0.1489967992,-0.6593415867,1.4366639071,0.6067571436,-0.1124320888,-0.1915083919,-0.0032077549,0.1194331605,1.0932664101,0.399166273,1.0413697422,0.5816593076,-0.2966327869,0.0434729006,-2.8948117328,0.5421939633,0.3316757008,-0.1819548186,0.117769578,-0.3408257309,0.6268163471,-0.2564389484,0.0679475853,0.0198914548,-0.0226605013,-0.4229064702,0.5202370547,1.6875789768,1.8662796942,1.0439420802,1.1895599232,-2.4709559884,0.4347774483,0.8970213018,0.5705647565,0.5662571083,1.0780007901,2.0362175661,-5.4990708845,1.6910853241,0.1344529499,1.0106720845,0.1860257416,-0.6693432815,-0.3058306218,0.4240880005,2.1141414085,0.4979009645,14.65482563,-1.1623354777,35.7393223136,0.6255647392,-0.510640913,1.0879107571,-15.9128427638,1.0346112288,-0.4650499848,-0.6847218643,-0.0176318975,-0.021490076,0.6634866671,-0.5331869304,-4.3547548844,-5.8485507356,-0.7532699483,0.6001728844,0.8548944243,1.1438235431,0.8838711183,-0.0999283658,-0.2948409668,0.3881239548,0.620214328,-1.0568638181,0.3690989079,1.4483428444,5.1753433154,1.5433184408,-0.232732984,-3.7298362067,1.8768111221,0.4806919031,0.8794105392,1.2957603923,-0.2565275895,-0.9380020204,-1.0946817142,-0.1683530913,1.2000538154,0.1632985708,-1.4559006303,0.1880933605,2.2783826056,-1.2868844271,-4.3463172862,-0.4248496304,-1.0404702555,0.5534881537,0.1421382916,-0.2535058408,4.0296449187,0.4274639434,0.4278872974,1.2710288085,1.1935239822,0.3415046224,-2.1477136659,-0.4370985369,-0.4760269907,0.3203713414,0.4482686447,0.98872734,-0.1121298303,1.0612839789,0.4579666257,-0.5371874496,0.5527400096,-3.6884339945,-1.1158889246,-2.6023018339,-0.381111834,0.3125167536,-0.700107949,-4.4162205175,0.74706586,-0.2542370052,0.8235777067,0.2113268067,0.7384805568,0.5751626605,0.846569062,-0.8118995458,0.8862780374,0.4546072894,0.7196933785,-0.9067206249,-1.6562316458,-1.6843533904,-0.5620881831,-2.3020352078,-1.2230975924,1.0585088441,0.0050057824,-0.7185029927,-0.5535887652,0.5710890197,-0.1754008689,-0.1174475152,-0.3808055765,0.3187117876,0.1796596301,0.2145421885,0.4427021222,0.539143066,0.2189901199,-0.635825566,0.6972183096,-0.9381081795,1.2275446254,-0.1746727845,-0.4549797912,-0.0831933107,1.0116014861,-0.2613107322,-2.5908486553,2.2517262788,9.9667463001,-1.1816347969,-1.5543090188,-0.4562823911,-0.3034695488,-1.3897025257,-0.0170256015,0.6291329805,1.2374025259,1.8087325248,-0.7850959704,0.5729968224,0.1599296997,-0.1707836789,4.7094548381,-2.9329379617,0.0057659517,1.0392259839,2.6109746672,0.6686285717,-1.9402690339,0.6634232723,3.3886745283,-1.3662518888,-1.0745327924,0.2517769554,1.047279654,-0.3409769418,-1.1082925727,-1.4728956866,-0.9366858696,-0.9307493598,0.6082065048,-0.5863207402,0.0648589977,-0.3306732869,0.1249909655,-0.7596559759,2.1126855688,0.3730322176,0.2155140006,1.4016275313,-0.0725352005,3.1502845164,0.2038678425,3.71430212,3.2002294285,-0.5294320357,-0.3039046105,1.7811862396,-0.8755034352,-1.9683544381,0.4363313023,-0.3722418034,-0.9430462305,0.0311315116,0.3191721141,-2.5438618758,-2.3463245793,0.8765837597,2.3584623788,0.5463812737,0.6299962929,-0.6868321769,1.0986190255,-2.9305532003,-5.1614333086,-0.6167387012,-9.7365717448,0.9448732682,-0.9056442458,1.9869147554,-3.2506845994,1.5779614391,1.7704324581,0.6631985429,-0.2171272701,-0.1163421323,2.1370566979,-1.9076640133,5.5433935873,-2.3183630352,0.0635172162,-0.2845656431,-0.7233883688,-0.6142104878,0.5388636363,-1.779453858,-2.5520189605,-4.1159504144,0.1364326255,-0.3883599789,0.4142940254,0.5762386554,-0.0379189944,-0.2628116529,-0.8654668402,-1.0708171065,-0.8535431817,0.0455508658,2.0747464553,9.5062208959,-0.3014610093,-0.6774853986,-0.2771881784,-0.3778038771,0.137439695,0.6952618426,-0.6151354236,-0.6538992485,0.7913960639,5.1700506221,-13.8915609124,0.602753226,-0.646903611,0.7405216985,-0.3847149016,-0.0647516822,15.4161767618,0.5184432886,-0.6074562117,1.4296677878,-0.2697027705,1.157402329,-2.1545224954,-0.1517601686,-0.9272760527,-0.3204756401,1.960297409,-0.7438882385,-0.4747164602,0.5503128821,-0.2675028102,-0.1802613739,-1.2560276974,-3.4416424701,0.6502924027,-1.3654599054,-0.615472197,0.8671680859,1.8737569057,-0.1066754735,0.5809649635,-1.0447653334,-0.5505584321,-0.185559452,0.7453600896,-0.9196568865,-1.1302152172,0.2254035411,-0.5895842565,-0.2556949346,0.8594883149,-0.3234969644,-0.0384669029,0.5156380333,0.5194673923,0.7607540536,-6.5962327284,0.7310036445,-0.4062400091,0.6603367854,-0.7950211993,-4.8237376083,-1.8539544257,-0.2839749746,-2.2789962628,1.1579117858,-4.4480098207,0.6101536298,7.3863104994,-0.7282884978,-0.0029983044,0.2763919662,-1.4450984341,-0.9552675602,-6.0155675762,-3.6048739732,0.3186125427,3.2878521462,3.64511134,-10.4290113128,-0.464556743,-1.0090127071,-0.3542018069,0.5432389706,0.3713255246,7.5971325956,1.1758834001,0.5591022488,3.5670512413,2.0256739865,-2.3977317682,-2.3974621723,-0.1296160028,-0.9288891419,-0.3597798152,1.6549574922,0.0994430252,-0.4008892361,0.0515175967,0.7241368305,-0.2787695361,0.0360146386,6.754086799,-0.5282234229,0.5190186555,0.3280632946,-0.5250544171,2.7195139477,-2.1502596134,-2.7175082115,4.2150870587,-2.0372275778,-3.1110619934,-0.784309363,2.7264680186,-0.9595068874,-1.9648001701,-0.5496608045,0.6932682102,3.9276368567,-0.6911963074,0.6982569147,-0.9596079023,0.0040363861,-1.3277221395
biasActivation=0,1,1
[BASIC:ACTIVATION]
"org.encog.engine.network.activation.ActivationTANH"
"org.encog.engine.network.activation.ActivationTANH"
"org.encog.engine.network.activation.ActivationLinear"
