encog,BasicNetwork,java,3.4.0,1,1592082855932
[BASIC]
[BASIC:PARAMS]
[BASIC:NETWORK]
beginTraining=0
connectionLimit=0
contextTargetOffset=0,0,0
contextTargetSize=0,0,0
endTraining=2
hasContext=f
inputCount=22
layerCounts=3,38,23
layerFeedCounts=3,37,22
layerContextCount=0,0,0
layerIndex=0,3,41
output=0.0733944855,-0.9999996517,-0.9380567537,0.5422322576,-0.3333619858,0.9999997865,0.3936444062,0.6092967916,-0.5876350685,-0.7883438605,0.9836326519,-0.7363015365,0.9998756595,-0.6781194252,-0.2332758477,0.6193754391,0.9988321736,-0.9009976746,-0.9993614372,0.9746729126,0.9934036176,-0.9988285209,0.9822402273,-0.9758320761,0.9992718029,0.3962020897,-0.9999149077,0.7340000263,-0.9690065572,-0.9280543325,0.1515838212,0.9160191408,0.7259671517,-0.9732895987,0.3294088275,-0.654287768,0.8787146152,-0.4658350131,-0.9078866875,0.9035351329,1,-0.4496050212,-0.9232240449,-0.2444555181,0.9358274252,0.9042604865,0.8217775159,-0.1486989643,-0.6507021385,-0.6440291596,-0.8987466759,-0.8948265945,-0.9123744155,-0.9201977811,-0.8718131334,-0.6858892168,-0.3985034297,-0.9780128671,-0.8832512695,-0.8936479174,-0.9066733509,-0.9151543067,-0.9207593211,1
outputCount=3
weightIndex=0,114,965
weights=0.0386734537,-0.1913815534,-0.0923432641,0.0250664947,0.0555457558,0.1318429144,0.079934273,0.1699068091,0.025323684,0.1041108424,0.15910021,-0.0988383385,-0.0322116698,0.023675686,0.0171204989,-0.2335926663,-0.1977971255,-0.1623298089,0.1268189713,-0.0379124278,-0.0656021602,0.0593773516,-0.007319439,0.0783968888,-0.370751467,0.0307473038,0.0392092142,-0.0274752012,-0.0004303264,-0.1927648419,-0.0440345126,-0.0765415028,0.1841522104,0.034414769,-0.0890911676,-0.2730885284,0.2438073256,0.1413034419,0.2307585587,0.0897028143,-0.0958994356,0.2068259219,0.0366410706,-0.0982927668,0.0208288332,-0.0568977754,0.0592934788,0.0410287145,0.018291196,0.0512189059,0.0003836449,0.0465488441,-0.0193456582,-0.020374043,0.0089127152,-0.0102299728,0.0147344651,0.0244901357,0.0103977966,-0.0377601955,-0.0637014645,-0.0935252491,-0.0709869298,-0.014407644,0.0658265049,0.0704491359,0.0542543417,0.0648221926,0.0061094519,0.0767528083,-0.0127479701,-0.0575149651,0.0788086638,0.0498893177,-0.0063824077,-0.0785091203,0.3419875139,-0.1134959701,0.0055750387,0.0222666029,0.2176134405,-0.015870305,-0.1043050784,-0.0459290469,-0.008103876,0.1059924534,0.0600486434,0.2879854254,0.0471325807,-0.2083015706,0.0029371322,-0.0600786319,-0.0892363924,0.4088514536,0.0052230532,0.7127808316,0.0421841424,-0.0714729497,0.0227316876,-0.0400345699,0.1221133106,-0.2925631355,-0.1327310012,0.0325593014,-0.0614070386,0.040323024,-0.0922431133,-0.4854553762,-0.0315841099,0.0048279411,-0.1428893713,-0.043256269,-0.0112037521,-0.4201830495,-0.1375729922,0.0855634736,-0.232654558,0.0215602406,0.027953987,0.0115224622,-0.023309296,-0.0387668343,0.0351310357,0.0235033003,0.0703689443,1.299129839,-0.1183522947,-0.1896830712,-0.1447842121,-0.0325428029,-0.0575854529,-0.1180673829,0.0369303448,0.1099401385,0.1127296546,0.081164585,-0.2515308591,0.5414141304,-0.0244767926,-0.1644412843,0.0642542365,0.0155997099,-0.038282981,0.011567577,0.0666591258,-0.0408660733,-0.0503383708,-0.1880262647,-0.6512409765,0.3285385383,0.537125091,0.0904639937,-0.0659297782,0.0209674005,-0.0913960725,0.0092804472,-0.0159687717,-0.1302703491,0.015214832,0.5860416349,-0.0318948484,-0.0513073161,0.0021839419,0.1329824709,0.0786139418,0.089471203,-0.0107847334,0.1139181404,-0.3114778888,0.0184684986,0.0793591587,-0.1021190516,-0.0412763973,0.0716926885,0.0501448128,0.134693302,0.0668517085,0.3129732959,0.1675226495,-0.0626145907,0.0039760817,-0.0017935367,-0.0234888798,0.1289533887,0.1415903314,-0.0803419026,-0.1749962343,-0.029543076,-0.1707769024,-0.121106505,-0.1211836238,-0.0885059753,-0.1124050726,-0.1400260349,-0.0776814005,0.113334182,0.0474589927,0.3483534931,0.2348126644,0.0041640928,0.1209672387,0.0414635727,0.1932717899,0.1674719375,0.1407988017,-0.0067657977,0.1947627926,-0.1446478073,-0.9339827522,0.0340607832,0.00053091,0.0782161662,0.1797718106,0.0648232282,0.0208947291,-0.1335989252,-0.2765651679,0.1428464044,-0.0886335147,0.0850895719,0.2771102582,0.1205604915,-0.0515505271,-0.0886162859,-0.1576017082,-0.0232982968,-0.0398507256,-0.0931974804,0.021876766,0.0421736302,0.0479162997,0.0900846624,-0.0744726299,-0.0537174665,0.0335062046,0.0389997645,-0.0486369193,-0.1473174112,-0.0821611581,0.075900117,-0.2484270877,0.1133512699,0.627069868,-0.0368827467,0.1059641446,0.112454536,0.1241192995,-0.046332021,0.0109073811,0.0280459523,0.0898834002,0.1844589619,0.2947231169,-0.0533563548,-0.2066568212,-0.0479070502,0.021130194,-0.0495105441,-0.1271891105,0.0399559755,0.0605717153,0.0649394001,-0.0096469213,-1.1089317974,0.1760228528,0.1903507985,0.1629164608,-0.0279576726,-0.0237457197,-0.05883483,0.0666580468,-0.0658743801,0.0783863726,0.0969018837,0.3100554374,0.0101430681,0.0212636699,-0.0005173017,-0.0105218611,-0.0259735954,-0.0104491365,-0.0199416203,-0.1581647256,-0.0080381713,0.0564791955,0.1095796718,-0.1196289427,0.0772284447,0.1552280769,-0.0030183913,0.081790274,0.0763931681,0.0714201254,0.1753246818,0.0844311029,0.0559684406,0.0126792709,-0.020973226,-0.0160226553,-0.0363948627,0.4445098962,0.1300487937,-0.0098561412,0.0917163297,0.0229767066,-0.0315566638,0.1230375401,0.0593744948,0.0710999529,0.0356573325,0.1219840704,-0.0303970366,-0.0104090542,-0.0348446592,-0.1270638143,0.0286877313,-0.0214840265,0.0390598089,0.0611745947,0.0392609551,0.019475607,-0.303027968,0.1182462935,0.2308393752,-0.0049588353,-0.0807123678,-0.0904433695,0.0199127649,-0.1241089466,0.0420609016,0.0144750164,0.2392380388,0.3850670502,-0.017309442,-0.1578137212,-0.1633237934,0.1073632338,0.0012173786,-0.0106036667,-0.0283517817,0.121846453,0.0000092586,0.0326832572,-0.2951020086,-0.1121413197,-0.2135631537,-0.0351848172,0.2976892537,0.3326344001,0.1712899042,0.2709841756,0.2727852595,0.0296527467,0.1043078775,0.328095005,0.1524218485,0.084952702,0.0435925984,-0.205990627,-0.0900469805,-0.0736980609,-0.3220054222,-0.171228457,-0.2471121668,-0.2795503902,-0.3135939054,-0.086182336,-0.3423952879,0.0935113067,0.0899545903,-0.1372859539,-0.1312095835,-0.0845041818,-0.1198639512,-0.0423710812,-0.0983211123,-0.0110369123,-0.2307180246,0.449601457,-0.0286382857,-0.1856385982,0.2499167925,0.0969128347,0.0157835887,-0.021347375,0.0911805168,0.1028882583,0.0714084603,0.0098249927,-0.2921633695,-0.1567774203,0.0077899251,0.0902831547,-0.0862325494,-0.1017897253,-0.0629481172,-0.1153717251,-0.0204444899,-0.0251776612,0.0562853456,-0.0269773978,0.1769358558,0.0624083488,0.0082117242,-0.052641333,0.0335565459,0.0878118699,0.1217755433,0.0701819234,0.0350700709,0.0054910603,-0.0498111247,-0.0022238019,0.261307072,-0.0423158157,-0.0823842577,-0.0382169319,0.0662807145,0.0763854534,-0.0214830508,-0.0340876539,-0.0348980984,-0.1891783463,-0.0514991461,-1.5181471102,0.1502370599,0.1680064402,0.0375148258,0.0138361444,0.063910437,-0.0885864801,0.0278893304,-0.0767560273,0.0391000978,0.0540699142,0.4377143934,0.1823437192,0.0278096027,0.3061547358,0.0736032313,-0.0565994447,-0.0143307748,0.0591976424,-0.0461744208,0.0486874648,-0.0729888183,-0.0352529627,-0.2804142155,-0.201358293,0.147691062,0.038911234,0.0697620951,0.1140136604,-0.0008016975,0.0991923972,0.0063600329,0.0433803963,-0.0583282869,-0.1633087888,0.309539794,-0.0931272476,-0.1601393633,0.0902831484,0.0542919113,0.0064912408,-0.0213675486,0.0290355416,-0.0647580441,-0.0171170714,-0.0882706713,-0.2239518023,-0.103522191,0.3410548025,0.0245918566,0.0247943966,-0.0413445636,0.0224287355,-0.0480664581,-0.0622490723,0.0508284784,0.0583839677,0.3295396185,0.2920681903,0.0506934205,-0.3402102918,0.0854245604,0.0815391072,0.0441360608,0.0286349979,0.104064425,0.0410006709,0.0259944638,-0.0952491135,-0.5618037073,0.0825914902,0.15628896,0.2349125985,-0.09242582,0.0513870332,-0.0172843693,-0.0445558781,0.0644879662,0.0345749201,0.0480266787,0.7810359449,-0.3267126849,0.0397994972,0.1072578176,-0.0913094293,-0.0736550612,-0.0731702544,-0.0947788557,0.0444012838,-0.0061026162,-0.0767925049,0.0839446485,2.0993541248,-0.0435938125,-0.4620032296,-0.1503187191,-0.0595881719,0.0122936579,0.0857490509,0.0243873307,-0.0424939415,0.0906598069,0.01361372,-0.5189214718,-0.0907261189,-0.1558057786,-0.507993129,0.1602473133,0.1454181244,0.1499458402,0.0168839157,0.1550199746,0.1031734349,0.0602138475,0.0980048144,0.0943126966,0.0718323053,-0.2175702257,0.0667254351,-0.0677982713,-0.1151881883,-0.1250241465,-0.0269916191,-0.0497352057,-0.1917106238,-0.1253260153,-0.1018548548,-0.2033363079,0.0198424434,-0.0171719977,0.0634959679,0.0289529605,0.0684209413,0.0203132716,-0.0925948149,-0.0130356904,-0.0962053831,-0.3300509596,1.0098698397,-0.0787583407,-0.3163788314,0.2624322775,0.0546145308,0.1026966823,0.0268404273,0.0678323817,-0.060776934,0.0956968311,0.0434215244,-0.3845168713,-0.2716536578,0.0453624967,0.3327969073,0.0581219125,0.0068089965,0.0639731037,0.0123871094,0.0685202041,0.0264706285,0.0010293745,0.096384063,0.3225240618,0.0385800033,-0.1719101634,-0.6474321953,-0.0587917436,-0.0696922462,-0.0337514077,-0.0688072883,-0.1176380602,0.0134601611,-0.0503733723,-0.3049139735,0.3071932293,-0.1180866869,-0.1032790109,-0.0023590482,-0.0012070746,0.0762667101,0.0020032382,0.1114316485,0.0456958508,0.127500924,-0.2704477147,-0.7712870287,-0.0399280061,0.2514615795,0.3423504204,-0.0618916583,-0.0650727494,-0.1003474036,-0.1412179969,-0.0224920853,-0.0377037056,-0.0505611744,0.3710418017,0.054297674,0.0043734821,-0.2623761783,-0.0831786631,-0.0377741808,0.0192878329,0.0561662258,0.0347527005,-0.095647506,0.0370020493,-0.4286918028,0.5934126816,-0.0323980329,0.0419402245,0.0926289454,-0.0512528103,0.0344654933,-0.0458913033,0.024596336,0.0235108578,0.0975867628,-0.0825665488,0.0422509335,-0.0435315173,0.0441876126,0.0931517903,-0.0754247725,-0.0584140142,-0.0520081808,-0.0846324971,-0.1394847708,-0.1353395849,0.2157758713,0.0823217875,0.0369214989,-0.032577587,0.071997378,-0.2162833543,0.008393232,0.1111697298,0.0258442645,0.0376432087,0.0879970007,0.0407686892,0.101261628,0.0794074209,-0.1998098919,0.0040019845,0.400530251,-0.0180006775,-0.0994576047,-0.0744828571,0.0698361852,0.0839108991,-0.1016943407,0.078779115,-0.0920996824,0.1456396,-0.0431642669,-0.11554266,0.0654382024,0.0038630842,-0.0696811364,-0.0202211561,-0.0376588507,0.0600211968,0.1081813795,0.0927054856,-0.4655542645,-0.1082795523,-0.0927752655,0.7020814343,0.1114019632,-0.0244040447,0.1004823329,-0.0466645266,-0.0121929499,0.0927926499,0.4310958057,0.3076071331,-0.924210118,1.652641675,-0.0753517038,-0.3770790605,-0.4449524066,-0.1223913014,-0.0566094804,-0.0276474946,-0.0034867354,0.0424069887,-0.0121894126,0.0565797083,0.1237359936,0.0788838043,-0.2378834527,-0.0681814431,-0.0634241866,-0.1167224459,-0.0644031591,-0.0485588245,-0.1360268477,0.0035776435,0.0158278904,-0.8573011417,0.3783827855,1.0771175865,0.2754386209,0.0848866656,0.1224873145,0.0228071726,0.068761672,-0.0259701083,-0.0063976971,0.0016613063,0.5352909286,-0.0598845792,-0.075022902,0.027989866,-0.0202723714,0.0297096774,-0.0328076399,-0.0301867903,0.0620093565,-0.1461397153,-0.2053105858,-0.0240266862,0.0005366397,-0.0308687716,-0.1307128328,-0.0238706973,0.1232892584,0.1205476454,0.1412589631,0.0499383171,-0.0564560407,0.0307457262,-0.0170858739,-0.1872828648,0.1761758383,0.0712048093,-0.2344677295,-0.0660316374,-0.234549373,-0.1934417245,-0.0843668305,-0.1405803418,-0.057470688,-0.0947837532,-0.2335492211,-0.2999700317,-0.1624447066,0.2282452269,0.1454751634,0.1869563109,0.083703069,0.1151985052,0.1273707955,0.1488331834,0.1167675892,0.1995043405,0.2993432551,0.0285402169,-0.0504142126,0.1364186627,0.0744184499,0.0378053572,0.0120634727,0.0020394268,0.1144022349,0.075787297,0.1212957656,-0.0714285142,0.0516126227,0.0750316966,-0.0894010669,0.0087922349,-0.0179689736,-0.1530730414,-0.023260471,-0.0479323383,-0.0895702782,-0.0738060247,-0.0952535942,-0.1024274384,0.074902288,0.0131734031,0.192578461,-0.0514264545,-0.0248289051,-0.1375443846,-0.0268438614,-0.1884551809,-0.1295460664,-0.0857406003,-0.0934369993,-0.4722578191,0.123217004,0.091777587,0.2242534496,0.0642557748,0.0259261091,-0.0073875983,0.1519140985,0.0873057405,0.0919289796,0.0270347388,0.047907189,0.0854296074,-0.1023039109,-0.0097001307,0.0979890656,-0.0149554008,0.0107120684,0.1415204769,0.1384849543,0.066578519,0.1002820929,0.0212983172,-0.9837809756,0.3821487548,0.065312441,-0.0109598352,-0.0572030911,-0.0805449239,-0.0546511127,-0.1208731153,-0.1133219656,-0.0173845262,-0.1210370676,0.2342859914,0.20841247,0.0323593152,-0.2849524934,-0.0390592205,-0.136445118,-0.1184591744,-0.0542701594,-0.0959484187,-0.1319490797,-0.188813945,0.0768531712,-0.271541656,0.0337854388,0.1936931611,0.062178354,0.1437576533,0.17823101,0.1698784739,0.1435839424,0.1525757548,0.172131968,0.0725006174,0.0596338742,0.0674520347,0.0747997612,-0.334541053,0.0223099093,-0.0516589186,0.0681883885,0.0854456783,-0.0249096683,0.0005829885,0.0769719031,-0.1258553331,-0.0305724981,0.0057025114,0.1272499888,0.4236959484,-0.0175487603,-0.0066911523,0.0695037686,-0.0249340561,0.0412750992,0.0605463209,-0.0364749962,-0.0080838877,0.0575899601,0.0321963326,0.2792293503,-0.0300789215,-0.0329549443,-0.0550866307,-0.0499185861,0.0060598759,-0.1395448475,-0.1677010819,0.0148245328,-1.5047482946,0.0850859806,-0.0977961393,0.267255236,0.114379265,0.1082980878,0.0136340776,0.1504604967,0.0572770618,0.1016713519,0.0327831625,0.0824270378,0.3141893458,0.0108218103,-0.3859465869,-0.0402817218,-0.0274365182,0.0051968393,0.0232265461,-0.0118960455,0.112513038,-0.0485050623,-0.3098884765,-0.2797699392,-0.0711526994,0.1608655176,0.1862667349,-0.0562837619,-0.0452111447,-0.0236315169,0.0071029221,0.0197685862,-0.0404546353,-0.0557098518,0.1571816753,-0.2070752276,0.1201987765,0.2023082245,-0.1676634,-0.2656318486,-0.1229012059,-0.2222712872,-0.2780847366,-0.208522776,-0.0913970653,0.064608904,-0.0211471981,0.1382893724,-0.0587309628,-0.0551949874,0.0104923152,0.1126572557,0.1043616875,0.1475302782,0.1463890305,0.2673225409,0.1351372768,0.0811410399
biasActivation=0,1,1
[BASIC:ACTIVATION]
"org.encog.engine.network.activation.ActivationTANH"
"org.encog.engine.network.activation.ActivationTANH"
"org.encog.engine.network.activation.ActivationLinear"
