encog,BasicNetwork,java,3.4.0,1,1591965990355
[BASIC]
[BASIC:PARAMS]
[BASIC:NETWORK]
beginTraining=0
connectionLimit=0
contextTargetOffset=0,0,0
contextTargetSize=0,0,0
endTraining=2
hasContext=f
inputCount=22
layerCounts=3,38,23
layerFeedCounts=3,37,22
layerContextCount=0,0,0
layerIndex=0,3,41
output=-0.1083152043,-0.9858474108,-0.9809852474,-0.1838784482,-0.2552884537,-0.9921665084,-0.1038743416,0.1001476814,0.9476450988,0.382087372,0.8104707233,0.9684336519,0.9992048481,-0.6794550841,-0.9549215726,-0.9997278298,0.9999745018,0.5526135908,-0.7060971453,-0.9999058951,0.6321847588,-0.1351600514,-0.9990161218,-0.1939400658,0.9999977135,-0.7224787533,0.999164641,0.5798078792,0.8949116169,-0.9973989717,0.999998565,0.9999154126,-0.7244805486,0.9953419067,0.9913175746,-0.5308135195,0.7982943679,0.5827251498,0.003192952,0.9997818008,1,-0.4496050212,-0.9232240449,-0.2444555181,0.9358274252,0.9042604865,0.8217775159,-0.1486989643,-0.6507021385,-0.6440291596,-0.8987466759,-0.8948265945,-0.9123744155,-0.9201977811,-0.8718131334,-0.6858892168,-0.3985034297,-0.9780128671,-0.8832512695,-0.8936479174,-0.9066733509,-0.9151543067,-0.9207593211,1
outputCount=3
weightIndex=0,114,965
weights=0.0016926168,0.0091818036,0.0016597304,0.0073202976,0.0026210646,-0.0012792327,-0.0006351726,0.0043248843,-0.0171052102,0.0009311785,0.0081850665,0.002743153,0.0033094515,-0.0042415834,0.0011359531,-0.9906662568,-0.0152615302,0.0003970148,0.0117636782,0.0083205985,-0.0022753547,-0.0019496951,-0.0039448393,-0.0036276609,0.0038257935,0.0024028591,-0.0125514406,1.0000563713,-0.0007852688,-0.0016716556,-0.0091753204,-0.0020792092,0.0024174895,-0.0080380796,-0.002347522,-0.0046840936,0.0061023922,-0.0043322185,0.3280380013,11.3741319842,3.7321935209,-3.4755096715,-3.7993075113,-1.8011011598,-7.174583751,-1.9347936982,-5.5446896127,-6.763438414,-30.7274386031,4.7172552661,-4.4143735091,-2.8054788982,-11.8774131325,0.3923030578,-8.9217232,7.1445408217,11.1443926616,9.2157550851,-17.4464502901,-2.2361714894,-4.045982955,4.365401856,-33.552389313,15.2326383773,-10.9265045352,-1.3600469479,-6.383395499,-1.2302579272,6.4148862009,-67.7483953562,-1.4818269255,-6.2048301523,-15.8960173297,-1.7473144198,-3.9902895743,-0.8877619054,0.0605978976,0.1342725353,-0.1766738662,-0.159265134,-0.0758930617,0.1940560672,-2.1225190679,0.0437329121,-0.3614261831,0.1251801061,-0.3168173315,0.0799193802,0.0639780721,-0.0242376972,2.279631532,0.0467751321,-0.3209495014,-0.0183371373,0.2153328928,-0.0306146776,0.0967811635,-0.2316824156,0.1785346079,-0.0074236735,0.5855859421,0.0702149907,-0.168584165,0.10406262,-0.2506866208,0.0656001166,-0.2761894287,-0.0676148043,-0.132896202,-0.0936903113,0.1708639144,-0.2359030796,0.4419505635,2.5482541507,-18.0710661249,5.9006667049,4.5619310037,-1.2207604519,0.0748646294,-0.1454249864,4.2071556742,0.7683587124,0.1890537938,2.7042629487,3.8055404043,5.6506706341,68.6880835578,-5.7238102992,16.2493077227,0.492141074,-2.8903279245,1.4473234427,-4.4125631865,-4.0096311627,-47.9177630788,-2.9788358714,26.8084810435,0.0546913302,0.8996994543,-0.9461567456,-0.0461414631,0.165634405,-1.4046185269,5.0813209463,-1.0383985016,-3.869912997,0.1710666342,-1.1850202268,0.4584274495,0.6096366067,-1.8321352313,-2.9676948816,-0.9032520856,-1.8217912793,-6.8882396915,-0.7897440336,1.5106604115,0.7722580073,0.5461519013,1.3670786863,-3.6555153676,-0.7690971727,1.2597944208,0.9310993139,0.8322397197,0.123627959,2.160775814,0.0535753058,-0.4044835513,-0.0913199851,0.6873276205,-5.4593241987,0.14248836,4.3492450979,0.5723640756,-0.4894150912,0.2639132572,-0.7785990878,-1.2437454205,-0.5629915915,-1.0153605067,0.0615245566,-2.9098160038,0.1987177367,0.4878038502,1.2161216036,-0.9851851825,0.3806677619,0.5585602981,1.1966618492,0.2495046,-0.0262456396,0.7797556412,-0.2151762004,-2.9138896936,-0.3964146196,1.1683882803,-0.5208485751,0.3461438943,-0.3303703754,0.231780438,0.5830937366,0.4657430891,-0.1554438785,-0.462807957,1.3687019255,-0.4470805632,-0.2080225979,-2.4981958633,-0.0609016792,-0.8097561808,0.2662598636,1.4096940084,-1.2300962743,-0.9517388143,-0.3252303566,0.7289242981,-2.5047389783,-6.007270449,-1.5401322695,-1.112523791,1.4825558818,2.7115460536,2.157100597,0.5877390543,0.0108849077,0.6822810124,0.4670791224,-0.5731217702,20.4098713361,-5.1951343064,24.8980206253,1.731932868,0.1027368542,1.9613710983,4.3828825081,2.1250521415,6.5313897524,1.6383991648,-74.8585500861,-4.2467227312,4.0281994775,2.2421418239,-45.3691019881,2.7331011451,6.0893058875,8.8020869515,7.0475017197,17.698583536,0.8927777074,-23.7717392877,0.3438198502,-2.6097352379,-0.1845146841,-2.9001245576,-0.0110954036,0.0668907217,0.1281178178,0.1394766595,0.7141185804,-0.5517210442,-0.5064808307,-0.9164020011,-3.3672286216,1.228543427,-0.8468217478,0.2458610457,0.8063948483,0.1715977202,0.3817364885,0.6792461303,-0.4253588924,0.1329370346,1.7723483931,6.0958697745,5.5275153715,-0.7694574692,10.3386474774,0.8039423294,0.4145324111,-0.011772628,0.1515357673,0.116812031,-0.2125482475,-0.725490879,-3.1753639336,0.9793873501,-0.2644111762,2.2783778924,3.2129875305,0.8200330312,0.7955038102,-0.4593503673,0.1868295974,0.1215662839,-0.3833693873,0.1999788939,0.3495805524,2.7466281484,1.023397579,-0.8641379574,-0.0462034238,-0.0211707357,0.1929837768,0.5464793192,-0.8035826874,-0.2130464671,-0.1849659315,1.0606688925,-0.1044468731,-1.3555868048,0.6587887488,0.8585356266,-0.13700872,0.1712701484,-0.3575756667,-0.4471035449,-0.7557818989,0.7262525728,0.3580169983,0.6318334853,-2.3611340691,1.1578203448,2.2626028482,2.0172232881,4.9651234793,1.3667036773,1.0397262316,0.1361950718,-0.9641843381,-0.0804869207,-1.0454335562,1.2866371962,3.6179700261,-0.3627848652,-0.2310551927,1.7745811732,0.6800080978,1.7473285756,4.1495207298,-0.4372384402,-1.1542925457,0.1149555136,-0.2273876023,5.0098029718,0.7224150473,-0.3805326504,-0.5636800626,0.4016902839,1.1322582956,1.8359360847,-0.1441240223,0.9601828695,-0.446180211,-0.4549373674,-0.313028568,-10.7820798189,0.3027456171,0.8511977845,-0.0099330093,1.9570452888,1.7136279097,3.3192437174,1.3760809116,1.1719126771,-0.5256209056,-5.9105626278,2.410233897,-1.2573584324,4.2505931531,0.3058428604,-0.4581717252,0.5755076762,0.8652149616,0.2046434969,-0.1495963983,-0.0285414079,-2.6299352297,-0.47054949,1.7283493169,-4.8141231602,-3.9049527455,-3.6892567322,-0.0478896937,1.1825438093,-0.4437636486,0.0460431813,-0.1126587526,0.2957403661,2.0648940768,2.5493775781,3.7619381859,-6.2413049161,-2.4753085908,-0.706073609,1.6974507783,19.2076081653,0.2602132695,-0.5058024848,0.1897943826,1.9416334376,1.6309805876,4.6227319101,-6.2180969191,-5.0401345185,1.1931384092,1.1912145045,0.5873180612,-1.9244337045,-1.158913465,0.6383091118,12.0428706948,-0.5474866374,-2.1869323262,-1.0582631995,-1.9367014754,1.1861910336,-0.0405946628,0.8480596974,-0.4786753039,-1.0976468122,-1.8638835773,-10.6310260344,3.7745282296,12.1354317145,3.0966495378,-3.2713664087,2.5596587347,-1.7777142851,-1.9640236408,-1.0634634366,-0.5507009282,-1.1923978991,-0.7104356663,0.7779930554,3.6445143591,-0.378922274,0.0979134454,-2.0646471112,-1.6592173475,-0.1792757541,0.2043496859,0.7257738515,0.0550735165,1.0624328875,0.2877200103,0.5889651371,3.4081316358,-1.0369267508,1.3184970067,-0.1916269605,0.1651389238,0.8087872507,-1.0863827163,0.4497226625,-0.0426749709,0.5714987172,-0.5363461109,-1.3328399658,-2.3385769801,-0.6302780853,3.3302287078,0.4275873824,-0.4614951522,1.7066628727,-0.2662113829,-0.578127478,-0.2673984754,-0.7951439956,1.4071997461,0.637924422,4.1526145562,2.7539690664,1.1155496104,-0.1657195798,0.4481295782,0.9987970533,-0.1147758108,-0.7360193513,0.4890405053,-0.4362863721,0.9922856463,1.2450296913,0.0600644271,0.812161262,0.7967907451,0.0095344859,0.2241458955,-0.1988801179,0.4037121818,-0.959450399,0.9386204099,1.1651585693,0.1037282098,-0.1640462953,0.411031117,-2.6017544623,0.0125450415,-1.2884707774,0.8287526911,0.0873723097,-0.5016804183,-0.6424703102,-0.3120767146,-0.1983575311,14.7842002199,-1.8267668675,11.7150658066,-1.1996897439,1.1531291429,-0.2696711529,-3.205464175,0.6795877372,-1.2847967765,-3.941636741,-16.0699930608,3.9837493856,-1.1764671707,-1.1097341295,0.3058946051,2.3289740969,0.8128690409,1.7504374379,2.5930631396,0.051722203,-0.9063512999,-7.6602522383,2.006686057,0.8424074165,0.8386479542,-1.1015622247,-0.9318944656,-0.7753964546,0.7309213319,-0.944218212,-0.075828136,0.0168854097,0.6197556562,-0.9188547571,-0.0652089036,-1.030560671,1.7435013402,-0.1586026705,0.5171890741,-0.1428358916,0.7248813799,-0.8639063887,-0.8399763692,-0.7766570438,0.3511227666,-0.7895946124,-0.1723225979,-0.0065848431,9.4408048687,1.6093052677,-0.7073394507,0.8594370681,0.5557889646,-0.3598782808,0.0027218968,0.1173339421,-4.1442876623,6.2271528655,-0.0848631307,1.6983150631,5.5303965314,-6.7440012517,-3.101284868,1.1745546313,-0.0568776192,-0.1437483775,1.6393256787,-0.0817218548,-0.6649678655,1.4193682276,0.7340784001,-0.0460913421,-0.3254569178,-0.0745723486,0.0242891712,0.97962707,0.3347785077,0.9861600496,0.5262724497,-1.2852409487,-0.5171566698,-2.9132542526,0.4269837633,0.3622366396,-0.1605255697,0.153379789,-0.368369235,0.6559066353,-0.2108950854,0.1599626944,0.0869776562,0.1570720536,0.2867496778,0.494800898,1.3896894366,1.9479514941,0.9933966021,0.9375382656,-2.58338246,0.5035515319,0.1532346723,-0.202393154,0.1677113736,-2.0874238504,1.3746981022,-1.8962555533,1.3380234503,0.1819653044,1.1189589835,-0.0498903487,-0.6812489709,-0.2426677057,0.4365029273,1.7652863203,0.3942934649,1.515623394,-0.4578952997,3.0866297601,0.2109716153,-0.877832302,0.9905989399,-11.1637713608,1.0945698425,-0.4479344305,-0.2254650687,13.4683145179,-1.4182031199,1.6283763974,0.3223349373,-2.5945079362,-1.480137228,-0.4814252845,-0.914698199,0.6914968812,0.9643608027,0.9150448891,0.2362605532,0.4214082961,-5.8414685862,0.6147727821,7.4862832468,-0.0854905379,0.6773526812,0.1261484047,0.6723958129,-0.0859316759,-3.5920795425,2.6935885776,-7.3439818521,0.1371008541,3.4580543198,-2.3521565409,-3.2592226353,-1.7050106528,-0.2567364785,-2.2954544661,0.0291923982,-1.215952113,0.3533478008,1.5209506814,1.6237867726,-5.180643274,-0.5286902183,-0.8984319069,0.2628291449,-0.1458919938,-0.7170300902,3.8459696981,0.5270669832,0.3892128711,1.3780627006,2.317032676,1.5077376292,-1.2661056319,-1.7184544479,-1.6111395333,0.0042213403,0.4148714004,0.8274525539,-0.248327183,1.1732254002,0.3494931908,-0.6375252878,-0.0616397188,-8.2271299287,-0.4665792003,-4.7050566304,-0.5966039468,0.359546138,-0.6399430785,0.5411502687,0.2014025067,-0.8481009873,0.4451862655,0.0487027854,1.5487200096,-0.8063930263,-4.5976243074,-5.732066796,0.7844571609,0.2165057326,0.5893058586,-0.5295615929,-1.0854635675,-1.0242053718,0.0877685661,2.4069211141,-0.5278737634,1.0464845632,-2.0744437442,-0.6741336662,-0.5018507371,0.6039261933,-0.1517035377,-0.093083742,-0.4740105472,0.2920344511,-0.3218805487,-0.0408069554,0.1956783295,0.5065881561,0.4110326887,-0.5485656563,0.9570886967,-0.8941501078,1.2432942021,-0.1660697979,-0.4480984406,-0.061272193,0.8993882906,-2.2913617689,-0.0697971685,3.3271120991,7.2294432779,-1.8522751878,1.8125597017,-0.367109363,-0.290298477,-1.1392183526,-0.5178701075,1.614541967,0.6120572467,4.1150031472,2.3100364105,1.9296358888,-0.3641328842,0.0087292184,2.2368915379,-2.6517042226,-1.0743295316,1.7876821732,4.7130395517,0.926818641,2.6470171266,1.1545485933,0.3025938349,-1.7136054028,-1.3174276067,0.0661519403,3.0489767437,-0.5519812845,-1.2095176016,-1.530993758,-1.354236157,-0.7355654406,0.2253887501,-4.5063986795,-0.7571454681,-0.2494339972,0.1862629767,-0.6248351163,1.2256662718,0.5508894628,0.517255796,2.563083671,1.7878329622,0.7103713392,-0.0077747127,-0.8489125129,2.9648850988,-0.5377553282,0.0607451086,-1.1072308741,-1.4341074292,-2.1852851402,0.3142044073,-2.1126028531,-0.964330794,0.3980078071,-9.4719532275,-1.3870909258,-0.4356126081,0.7971321014,0.2527970337,1.2702946855,1.5381563517,0.1876303391,1.064263603,3.4775158158,-16.3192555985,-0.730936198,1.6140165542,0.8084314012,-0.5433074403,2.3827333856,-4.585779202,1.1553274888,1.4638097107,0.1606654999,-0.2768485323,-0.0409476589,0.1025042963,-1.568325975,-0.2499907296,-3.5433261535,-0.3822318768,-1.0169193301,-0.8891941511,-0.5518883578,0.4351126618,-1.8967104771,-2.3301418601,-4.2981935985,-0.0767779469,0.0820631111,0.6715975538,0.8514398436,0.3150479197,-0.1091408926,-0.4962128479,0.3582486718,0.7772278985,0.6130022949,0.8313636702,9.0279439664,-0.602646554,-1.0301479933,-0.8219700741,-0.5928619812,-0.0993537624,0.3409242693,-0.9010714146,-0.9330364262,0.6583628092,5.0834297483,0.4603104497,1.0341747182,0.2249632357,0.3651514079,-0.7860761355,-0.6769576798,2.4315802413,0.4000227168,-0.8876036506,1.2786059762,-0.2824564874,1.624545621,-0.0903677012,0.1484286687,-1.7644535054,-0.4526661947,1.5758558014,-0.7229153133,-0.4755296858,1.024729481,0.137726752,-0.2084568973,-1.9763020785,-2.0278943307,0.6306104819,1.4768302705,-0.6194004584,0.7865468159,1.6954116798,-0.3252232196,0.136359786,-0.992080829,-0.3086991888,-0.0827367332,-0.7649619096,0.3898577673,-4.7802107261,0.4470643765,-0.5151830669,-0.1671542567,0.5267184394,-0.3519112775,-0.0590554378,0.3394777053,0.1982530588,-1.2364631146,4.8718505043,1.0623154239,-1.8715132193,-0.8132186664,-0.6223222676,-0.2682332287,-2.9485391313,-1.468450325,0.4072644307,3.4660016792,0.3816650908,-2.1032039114,-22.2830808512,-3.2110748401,-0.8688841313,7.0295515323,5.0996705289,0.254292941,0.2570306134,-0.3458493563,-0.1569195215,-0.0445343016,-2.8044201628,1.6825763215,-0.725490979,-0.6469422715,0.0531851017,0.6751023786,0.2554198981,0.1822648148,1.7113962455,0.3715343414,2.0502554717,-1.8657082593,0.6262244065,3.7004109579,-0.3248246725,3.0479226455,0.2394888554,1.6067283218,-0.7002215248,-0.4872612004,-0.203519404,0.5083503057,0.001321537,-4.6642350729,6.0944095351,-1.0435515201,-0.0559709755,0.4196054756,-0.4322641203,3.0565465919,-0.7897921393,-2.4710422859,2.0415431875,-5.2278184114,-2.0350210499,1.0197309556,1.9077947897,2.4310987647,5.0005131648,-2.6009018696,0.8919730669,4.2974448938,-0.2196580558,0.2347423068,-1.1391189699,-0.3250350538,0.1593365776
biasActivation=0,1,1
[BASIC:ACTIVATION]
"org.encog.engine.network.activation.ActivationTANH"
"org.encog.engine.network.activation.ActivationTANH"
"org.encog.engine.network.activation.ActivationLinear"
