encog,BasicNetwork,java,3.4.0,1,1591967928465
[BASIC]
[BASIC:PARAMS]
[BASIC:NETWORK]
beginTraining=0
connectionLimit=0
contextTargetOffset=0,0,0
contextTargetSize=0,0,0
endTraining=2
hasContext=f
inputCount=22
layerCounts=3,38,23
layerFeedCounts=3,37,22
layerContextCount=0,0,0
layerIndex=0,3,41
output=-0.1083152043,-0.9858474108,-0.9809852474,-0.1838784482,-0.2552884537,-0.9921665084,-0.1038743416,0.1001476814,0.9476450988,0.382087372,0.8104707233,0.9684336519,0.9992048481,-0.6794550841,-0.9549215726,-0.9997278298,0.9999745018,0.5526135908,-0.7060971453,-0.9999058951,0.6321847588,-0.1351600514,-0.9990161218,-0.1939400658,0.9999977135,-0.7224787533,0.999164641,0.5798078792,0.8949116169,-0.9973989717,0.999998565,0.9999154126,-0.7244805486,0.9953419067,0.9913175746,-0.5308135195,0.7982943679,0.5827251498,0.003192952,0.9997818008,1,-0.4496050212,-0.9232240449,-0.2444555181,0.9358274252,0.9042604865,0.8217775159,-0.1486989643,-0.6507021385,-0.6440291596,-0.8987466759,-0.8948265945,-0.9123744155,-0.9201977811,-0.8718131334,-0.6858892168,-0.3985034297,-0.9780128671,-0.8832512695,-0.8936479174,-0.9066733509,-0.9151543067,-0.9207593211,1
outputCount=3
weightIndex=0,114,965
weights=-0.2679481178,0.3322754927,0.6710608574,0.0475086288,0.3264586406,0.1279580491,0.1430194207,0.4755226404,-0.51592178,-0.9678051031,0.6466347642,0.2918315424,0.0699865822,0.1736572324,0.0013151389,-2.0545769872,-0.5004610317,0.0286482583,0.596893014,-0.2906280246,0.2177967874,0.0189798108,0.0737292856,-0.048876384,0.1979576573,-0.8406624068,-0.1232644353,0.9465878363,0.3455501129,0.3484287313,0.2138388828,1.7990906164,-0.0978665957,0.0610776786,0.4705808813,0.596869393,0.0114165464,0.0747470402,-0.2741172362,13.1047748438,2.6008758708,-7.8505647081,-15.444426659,-3.7154469694,-2.6942353053,4.388119585,-4.7454950946,-3.8894233481,-26.5016156072,-1.4062090813,-5.0577799538,-3.3830347256,-18.6280620346,-1.9115640189,2.4220128153,4.337366638,10.6765489781,15.0462097646,-7.1177487809,-2.5252481693,-9.3278009101,8.5247437623,-35.1676114465,8.8244311846,-13.2507679096,-2.2591881397,-4.2809000702,7.8994962631,4.792895219,-64.9476800709,5.336498165,-6.1114361199,-5.1260899123,-3.009818326,4.8261899348,0.0215944799,1.1752743248,0.1092988319,-1.1151428832,-1.1581530785,0.2728400216,-0.002375836,-0.3961831383,0.1451338528,-0.1275730547,-0.0937786087,0.0943323421,0.0825122785,0.0031739516,0.0288082756,0.0266209524,-0.213890904,-0.0581962362,0.0293056057,0.0848708063,0.0196689918,0.0126885168,0.0064394177,0.0167638742,-0.0058322675,0.0759414376,-0.0621534923,0.1328655741,0.1112600942,0.0508727504,0.1577907678,-0.0042730884,0.074107149,-0.0157270747,-0.0057997358,0.1854808206,0.1045948863,-0.0117370315,-0.4989627873,0.4606587021,0.3629555687,1.9001372959,-1.0365474388,-0.2949564403,0.5524181082,1.3726691169,0.3715255584,0.4378833406,0.6215525674,-0.2153882289,-0.9619675183,0.0149360181,0.5692258173,-0.8175805833,-0.6466696105,0.0189683022,2.3770999434,-0.9170946813,-0.5508409082,0.2412203068,0.0930927866,-0.2980373719,0.530604766,1.1146425907,-3.7063826759,0.035257284,0.1220458573,-1.3270475745,3.3187407233,-0.6881994332,-1.0162292111,0.8707097103,-0.7104596968,0.7542664693,1.8417389776,-1.3112427208,-2.8344605597,-0.3982211362,0.0179817125,-0.5577816869,-0.7212842714,1.2343121881,0.9754350613,0.7430545968,0.0334680093,-0.2427976391,0.4516933507,-0.3747766934,0.6766850451,0.6340945776,-0.00316772,-0.4725369807,0.0054429167,-0.5690509129,-0.1869661439,0.1871093267,-0.032000541,-1.469673391,-0.0876081429,-0.4369043741,-0.2116461111,0.4702778659,-0.4598736441,-0.8369127783,-0.1163265005,-0.5317886459,1.3519185935,-3.3920766513,0.1552043006,0.3444673988,1.0465611553,-1.2057749065,0.2553532088,0.4468222712,1.1865313044,0.4364281292,0.1634963333,0.8697497456,-0.1189942235,-0.7683238257,0.1521582091,0.7150018884,-0.6988233018,0.2801243505,-0.4300254125,0.3940383944,0.7591781531,0.6102173334,-0.0848123595,-0.3358110217,0.8047771965,-0.2466275231,-0.8592138149,-2.5812587901,1.1360258909,-0.2627829265,0.7100312013,-1.665777399,-0.6096708175,-0.404013575,-0.1503800758,1.3744455231,-0.4358469868,-0.9758909958,0.2737331002,0.0958906684,1.4075134519,0.2883935666,0.3603269509,-0.2333288861,-0.7614042995,0.0524551659,-0.1738803528,0.1207384682,45.4092518121,-5.0055459495,49.6813665738,-0.4360394874,-1.9521984108,-2.8526119563,-17.052195465,1.7761890112,5.2374502996,4.8866855602,-55.4257127254,1.9615863521,8.6693932589,-2.6088732364,-2.2089814834,0.5258426812,3.6558529684,5.7935209759,6.5942575417,17.6136963237,0.7448954181,-24.1249788711,-0.4579702177,0.3978722772,-5.6465744899,4.7739010403,-1.3282198732,-0.413543272,-0.890456722,-0.0367619132,0.7490517152,-0.5258136314,-0.5455225585,-0.294437704,-1.8025143263,0.2650572017,-0.7274121692,0.0940264341,0.5236435493,-0.5155377883,-0.3554693911,-0.5217502823,-1.5059140651,-1.328213865,-0.4086697795,1.411256674,0.8018144946,-0.9552696723,0.1101193065,1.6011480225,0.5881539604,0.5435573539,-0.3535834151,0.3123446295,-0.0296620693,-0.4911411437,-1.1025502882,1.608608695,-0.1771790732,0.7180649848,0.1236208527,0.6707119143,0.8747161759,-0.4789054465,0.1273739004,0.08143111,-0.4209583199,0.1572256808,0.2670024275,0.6303335212,1.7616228602,-7.3722782433,0.232213822,-0.7399647278,-0.5619102748,0.492501254,-0.7224621326,-0.3419569789,-0.4089291968,0.8851691455,0.3616456198,-1.1336363955,0.4258445865,-0.697724871,-0.2269970823,0.0792534995,0.1315495945,0.049503145,-0.339791464,0.943283946,0.5081053121,0.681063731,-3.5517704438,0.7632835387,9.1416590706,-1.4894761384,4.591288123,0.8963437971,0.8102745343,-0.0554484652,-0.3700058632,-0.7188625572,-0.4061263283,0.1995916549,3.5493427241,0.408973254,-0.0198186995,0.3311658841,-0.19654329,0.9628605073,3.3387064018,-1.2982544875,-1.1500194526,-0.3451723513,-0.1297051576,-0.1507376088,0.329481641,1.4600467639,-1.1663202671,0.2390950539,0.7648494621,-0.4948573375,-0.7254031702,0.5096078738,0.0070410398,-0.3580079843,0.8925244361,0.1199178863,0.1575730858,0.6369371107,-0.5533940097,-0.4367851651,0.0951770871,0.2367847656,-0.6546780043,0.3986284841,0.2357038851,0.7792806038,-0.1864835821,-2.9620837464,-0.0791199776,0.46095307,-0.485573781,-0.0513586365,0.716610733,0.2097488283,-0.185528629,0.192732347,1.3091179799,0.9559747369,3.3418772513,-1.6477622102,-0.5696872805,-2.7209261128,0.3271263315,1.2117956015,-0.2720596488,0.1595424528,-0.0507276628,-0.0340103424,0.0752600691,-4.6157295604,0.8271095006,-15.0684151497,-0.475304277,-4.3983618242,2.2581151603,20.7675223808,2.0784974685,1.66831652,0.9389686275,0.0672715554,0.265314155,-1.8462841497,1.5726992863,-0.8115065722,1.5810394006,1.355075639,0.8075027559,-1.4827823954,-0.6641562412,0.7880651096,-0.9742559566,-0.0992417846,-2.0603686751,2.7719047885,-0.6889150392,4.3721737771,0.198795418,1.3550000872,0.6292225717,-1.7231570118,-1.6670482471,-10.5637047241,-2.0147902988,10.3197769368,3.0008223345,0.854013431,5.2897406411,-1.2177215794,-1.1717699746,-0.8399018423,1.0944784261,0.4726411231,0.7871223167,1.4472389992,4.0654645063,2.1520628832,-1.2735344121,0.1982463639,-1.1790198235,-0.2601718897,0.0363106558,0.2780370606,-0.1105506343,0.9383493653,0.1423193082,0.3930429735,2.2651614949,-6.2189295876,0.0657812289,-0.2237286212,0.1707449456,0.6868348285,-0.9646182141,0.2224758832,0.3408233175,0.9649034919,-0.6389024936,-0.421403786,-1.3233749361,-0.1198890664,-0.0939482913,0.4223953502,-0.8191938986,1.4691236902,-0.4008017739,-0.6763573391,-0.5061176203,-1.0958003795,-0.7666670239,1.6950494094,3.8394795227,-0.1741817147,-0.18721927,-0.6247440306,0.3760239416,1.0590525826,-0.028742602,-0.5584336299,0.2451516858,-0.7063325129,0.9008162302,-0.238845502,0.3733831854,6.9031491421,0.0614297152,-0.2969246579,1.1900644681,-0.6386800442,0.6140057879,-0.9277885958,0.7532481203,0.9276766576,0.0028363834,0.4390997693,0.1458978379,-0.96612207,0.9585200611,-1.037702269,0.3165921773,-0.4190983852,-0.5465557938,-0.5951276315,-0.1103280784,0.0012914084,1.0190059714,3.8887044819,14.1615262781,-2.1211582079,1.1778465351,-0.5538742275,-0.8276156594,1.6017804077,-0.3806491968,-3.1338900085,-7.0998566749,4.850953709,2.2091437057,2.8147814308,-1.2276537452,1.6516790184,1.2946112169,2.5745680724,3.2509279883,0.7095447093,-0.2186482636,-6.9721645805,-0.817156481,0.1252678995,0.5922409279,1.9711795167,-0.7720982098,-0.6868450806,0.8169418186,-0.3184895657,0.0291925416,0.128413841,0.8796816494,-1.1411519797,-0.1772546636,-1.0904794446,1.2469020448,-0.5996681175,0.7829050021,0.0679264297,0.8812706379,-0.7029414206,-0.6768014593,-0.6184573875,0.4379443193,-0.8335895421,-1.1227127844,0.0910216986,-6.0927686767,1.3637285155,-0.7851916166,0.8777207678,-3.7691502906,-0.5445177219,-0.1770484116,0.2865420715,0.9833255425,6.0211780389,3.1900100532,1.7744609902,-1.8480495227,-7.1706052377,-3.1613439698,1.1790216696,0.004260162,-0.0635458608,1.6985446639,-0.0752279436,-0.6329711607,13.2259418479,0.5254801151,72.9818669986,-87.9987661171,-0.8495440769,27.2238726194,73.4023919986,0.3424631284,0.9765722629,0.4872149403,-0.3481451478,-3.835802251,-24.255771885,129.4605002265,0.1897014854,-0.3335341566,0.0558315726,0.0746406813,0.4597225211,-0.4151203056,-0.0730188249,-0.1492553424,0.3387790256,-4.3182527601,0.2606668559,17.9593284473,1.7518396005,1.7510432598,1.755655615,42.2258910471,3.2178199874,0.668197366,0.3878875815,0.655309833,-0.8638756061,1.6098280157,-1.2637140159,1.6248523769,0.3889524733,1.2396451093,-0.1117336733,-0.7482944123,-0.2898997925,0.3587976439,1.7498110113,0.0096938188,11.837987381,-2.833072763,33.7001315918,4.7805116024,-0.7634504908,0.9600109283,-36.2510615433,1.1017806243,-4.3651016335,-0.5496687718,-0.1016790292,2.6502405244,0.5449754184,0.3024789805,-2.6169507277,-1.0560569813,-0.3764459173,-2.1113942982,0.3169666213,0.6319850849,0.4467385792,-0.8657435052,-0.5193262691,3.7379653957,3.7478936496,9.2383805936,-1.2399996322,-0.1264413652,-0.5030193939,0.4113312654,0.1462213351,-3.3310583966,2.5199599361,0.8545100354,0.664207723,-0.0905689074,-0.7988228088,-0.5705144722,-0.6701502145,0.2891160764,-1.9147094101,0.4029767374,-1.372011506,0.379717841,1.7628755977,-1.5401298025,-4.831792548,-0.6981041178,-5.0170222755,2.088393784,-0.4506347697,-1.1257969139,4.0297829999,0.6420285884,0.4107175956,1.350148481,1.1894586936,0.4713644123,-2.2228793448,-0.1113722386,-0.4010214849,0.442039569,0.574343491,0.9815967783,-0.0942857005,1.0596088699,0.2355493023,-0.7521698599,0.3897891635,-0.4683889631,1.0604269056,-0.6654288432,-0.2174468402,0.9089929313,-0.168391381,0.4825986786,0.2525363785,-0.193749137,3.0190445637,-0.0945035123,-2.2820173764,2.5640674848,-0.8579578423,0.0258183577,0.7069221135,1.3933285341,-0.2975463068,-0.3459982312,-0.7741224936,-0.0959250568,1.3708485686,-1.1382497395,-1.2884746368,0.9480383904,-1.1411686878,-0.6708001982,-0.5050366822,0.5972002725,-0.1626695364,0.005513865,-0.3717356105,0.4381681893,0.189363066,0.2052348437,0.3581380224,0.5255677662,0.3018097339,-0.531947682,0.744466419,-0.8803742025,1.2584816023,-0.1287914285,-0.4036492534,-0.0202408066,0.8812542365,-3.6275863991,0.0566922973,8.2809053598,6.3576819608,-3.8718200175,1.7539222771,0.3935121824,0.0368034342,-0.8477837944,-0.4277651453,0.5948113893,0.1614730406,3.845852671,0.070221474,1.5843803192,-0.318638298,-0.3047256887,1.9457708158,-3.0262726018,-1.6856563963,1.3361094588,2.830434803,0.6427513867,1.3037543673,0.6463785938,-1.7983865491,1.1899574211,-1.3522476641,-0.7639989323,-1.9887813556,-1.1897199887,-1.7142530906,-1.4768121237,-0.9144450319,-0.6285678881,1.0134826558,2.841971008,-1.668826715,-0.6395161107,-0.5677480208,-0.920878325,0.9185113444,0.2106310313,0.1155411704,1.4557635648,-0.0267103899,1.2380144716,4.0642539839,1.0735920307,2.4156211503,0.2918103602,1.6066073248,0.2608102177,-1.6750739727,-2.4880097958,0.1632343578,-0.9615996604,0.18426408,1.3441215909,-0.1937354778,-3.6877401773,-1.4014848227,0.4481699819,-1.1340079149,0.9015385756,1.1522114787,-0.2593109034,0.4274093386,-2.42281243,-3.5437533977,-5.1923058922,-6.2765822526,0.6521577202,0.4335796398,2.137732157,-7.3420394882,-1.3059476631,2.4679402553,0.659044514,-0.2418672323,1.4157328656,-1.643713316,-5.5247370034,13.4565569548,-4.659945803,0.0570743625,0.9500798156,-0.6501039739,-0.5436695478,0.4094790031,-3.0031457735,-3.9080337503,-5.5296949243,0.527148073,-0.5156167837,0.4103336324,0.5391002343,-0.7050314373,0.2109830584,-0.7439550058,-1.0114566789,-0.7600649286,0.507495112,2.8188349359,9.560823445,-0.093132443,-0.7128800572,-0.1325716667,-0.2210156228,0.4104606473,0.6033374847,-0.694828733,-0.7308452857,0.7113602946,4.610742657,1.5491911848,0.5224891254,-0.4362405533,-1.1373285541,-0.6692938209,-0.4816724571,2.4322127423,0.4278782826,-0.854163622,1.3198715738,-0.4417032445,0.9767676812,-1.8355998347,-0.2152191602,-1.0451705094,-0.6018577437,1.4862121171,-0.8131475623,-0.566380628,0.4708579389,-0.3970722312,-0.7582718628,-1.1603308675,2.4002670239,12.5147642589,32.5216044415,0.3811436047,1.8430036552,2.9540738971,0.1480211103,0.1719758994,-1.1788503439,-0.5705075371,-0.262808944,-1.3256353306,-1.6070204588,-1.1521009769,0.2865666588,-0.3284901033,-0.2035897676,0.6889306111,-0.1971710569,0.0465580022,0.4801740462,0.2785175805,0.7130342865,-0.7715067812,1.9005798588,-3.5156617713,-8.6713612746,-0.8570086454,0.8523549073,8.4481738085,-1.4714562603,0.6459510199,0.7868629406,-1.1893086363,-1.8481403855,-0.2069385306,-0.4614274931,-0.1879834191,0.7566464403,0.2708583595,-0.1172995764,-0.2130380397,-0.6943186486,-0.5023801816,1.2356654769,1.0732213225,-2.6153178563,-0.684801398,0.4000022809,1.9295307389,0.6462367918,-0.2298247283,0.360332117,3.2408040308,-0.1456877234,2.1059552052,2.2810458035,-1.9889701701,-2.4667253483,0.0683178426,-0.6816558326,-0.1879216123,1.7506932528,-0.6834381937,-0.4692845007,-0.1781458597,0.5337672275,0.0980706128,-0.0168636366,-3.3390255451,-4.2972118665,2.2039295719,-1.8186347051,-1.9104489526,-0.1505062394,-1.4548934492,-2.4076109248,2.087461923,-5.153545688,-5.1678731027,2.3264125166,14.1720917115,-0.4526065446,0.864845538,-1.3000307304,1.4117023744,3.0252132796,-0.7631978164,-0.1148555542,-1.5119391622,-0.9058822583,-1.4197695975
biasActivation=0,1,1
[BASIC:ACTIVATION]
"org.encog.engine.network.activation.ActivationTANH"
"org.encog.engine.network.activation.ActivationTANH"
"org.encog.engine.network.activation.ActivationLinear"
