encog,BasicNetwork,java,3.4.0,1,1591968314623
[BASIC]
[BASIC:PARAMS]
[BASIC:NETWORK]
beginTraining=0
connectionLimit=0
contextTargetOffset=0,0,0
contextTargetSize=0,0,0
endTraining=2
hasContext=f
inputCount=22
layerCounts=3,38,23
layerFeedCounts=3,37,22
layerContextCount=0,0,0
layerIndex=0,3,41
output=-0.1083152043,-0.9858474108,-0.9809852474,-0.1838784482,-0.2552884537,-0.9921665084,-0.1038743416,0.1001476814,0.9476450988,0.382087372,0.8104707233,0.9684336519,0.9992048481,-0.6794550841,-0.9549215726,-0.9997278298,0.9999745018,0.5526135908,-0.7060971453,-0.9999058951,0.6321847588,-0.1351600514,-0.9990161218,-0.1939400658,0.9999977135,-0.7224787533,0.999164641,0.5798078792,0.8949116169,-0.9973989717,0.999998565,0.9999154126,-0.7244805486,0.9953419067,0.9913175746,-0.5308135195,0.7982943679,0.5827251498,0.003192952,0.9997818008,1,-0.4496050212,-0.9232240449,-0.2444555181,0.9358274252,0.9042604865,0.8217775159,-0.1486989643,-0.6507021385,-0.6440291596,-0.8987466759,-0.8948265945,-0.9123744155,-0.9201977811,-0.8718131334,-0.6858892168,-0.3985034297,-0.9780128671,-0.8832512695,-0.8936479174,-0.9066733509,-0.9151543067,-0.9207593211,1
outputCount=3
weightIndex=0,114,965
weights=-0.2581002228,0.276653795,0.6713647544,0.0899445339,0.2966505974,0.1249638048,0.1549794887,0.3473283239,-0.3617712031,-1.008583629,0.7070610515,0.2514609594,0.0833822478,0.1887192219,0.0699546387,-1.126492037,-0.2904301386,-0.0105928117,0.4734020423,-0.3878974213,0.2568560491,0.0251322647,0.0798983966,-0.0396309545,0.3570383744,-0.7850328317,-0.0588149121,0.9553889909,0.3556454798,0.0048054418,0.1114706619,1.4278961139,-0.3178465655,0.1091627116,0.3490511298,0.695897429,0.0105318441,-0.0286100195,-0.2782125308,13.0214846253,2.5920706918,-7.8525871571,-12.2594113619,-3.8091281994,-2.6877578221,4.3842691442,-4.7390121123,-3.8999106814,-26.4953531346,-1.0433246713,-5.4791735389,-4.4085418014,-15.8636785048,-2.783298262,3.2454408039,5.7367429879,8.4831933184,16.3658943715,-6.4069883857,-3.2500936229,-5.2512219606,6.8099436876,-35.170706851,8.817945505,-13.6973864817,-2.2672401101,-4.2759235745,4.6338118009,4.7850778926,-63.7415014264,5.2789834971,-6.1016859756,-5.1194500281,-3.0087661216,2.8627009239,0.0281052753,1.1940179378,0.149085913,-1.2591939724,-1.2197125049,0.2579509755,0.0011731617,-0.39081721,0.1881932104,-0.1503595827,-0.1558773475,0.1767838381,0.0808948935,0.0414031355,0.0394833396,0.0556677362,-0.2977339576,-0.1197113988,0.0184233878,0.1212793855,0.0354421592,0.0174397977,0.0055072707,0.0427779341,-0.0184911733,0.1124769822,-0.0352506365,0.0036698432,0.1402461675,0.0238083582,0.2565199579,0.0946553679,0.0890193603,-0.1642038896,-0.0515525378,0.1912852832,0.3406757268,0.0012342484,-0.5001442754,1.1107472724,0.3931655846,1.693713166,-0.8661443952,-0.2859536908,0.5012563759,1.658150109,-0.1991462084,0.664321399,0.6345830493,-0.1717469843,-0.8775573517,0.1696092274,0.6323617814,-0.8130667861,-0.6357352927,0.135646331,2.4058790505,-0.9142657509,-0.553728805,0.230407797,-0.0228914444,-0.31531565,0.405265568,1.1361034466,-5.43948723,-0.0044774178,0.060020348,-1.4118294127,3.3034488068,-0.6896689688,-1.0170508492,0.8687674928,-0.7088316526,0.7540113724,1.8368353307,-1.3098259746,-2.8309472095,-0.3946883305,0.0197208793,-0.5051962514,-0.7027853425,1.2536645534,1.0038675773,0.7757943959,0.0365003937,-0.5114022569,0.4505047267,-1.308997625,0.8179291563,0.6836063573,0.008452332,-0.2632895387,0.0102813533,-0.5686201054,-0.1873116888,0.186390131,-0.0167520806,-1.5025545059,-0.0969061028,-0.4336052111,-0.1835559186,0.4717133041,-0.4630041804,-0.8392982064,-0.1177021519,-0.5322832503,1.3526786354,-3.3923148955,0.821653912,0.3492364225,0.7490603063,-1.0051452726,0.3590255648,0.4652082906,1.1924146882,0.4393339705,0.1647516871,0.8789369164,-0.111955724,-0.7641289856,0.2947849994,0.7308742496,-0.6900422691,0.2855750514,-0.4224462789,0.3983316115,0.7639567107,0.6148154122,-0.0805627373,-0.3319049447,0.7932620702,-0.2598788315,-0.8674331242,-1.2189799821,1.1533768868,-0.243360325,0.7270601331,-1.6575512714,-0.6086147399,-0.4048319659,-0.150244598,1.3722546273,-0.438866995,-0.9755700257,0.2748514876,0.0936305989,1.40548774,0.2869836208,0.3530496089,-0.2400009095,-0.7682723333,0.0450721374,-0.1818198596,0.1192068181,45.4492992256,-4.8056214926,15.6538790646,-0.3198271686,-1.9269947478,-2.8422993045,-10.5225964501,1.9053591872,5.2439923777,4.9056231913,-55.4115237257,1.9725176452,8.673423028,-4.235867422,-1.9479176699,0.6287296329,3.7156979257,5.8528204299,6.6565213997,17.6857071068,0.8385525701,-23.9938564677,-0.5053930069,1.6252099615,-9.2159888957,3.0789032649,-0.8409436858,-0.3605803079,-0.8568311364,-0.2918760568,0.7303387767,-0.6026404354,-0.5611383658,-0.4423783613,-1.3592015394,-0.353837766,0.1964700136,-0.0428745157,0.4876016588,-0.679250324,-0.5791543998,-0.555125244,-1.5108537602,-1.3292912927,-0.4053500406,1.4226169628,1.2355366306,-0.9594348415,-0.5179952136,0.8400603481,0.5760922557,0.5425555848,1.4934967521,0.3091517534,-0.0297618656,-0.4963327576,-1.1074149673,1.5831219131,-0.3160377327,0.069860664,0.1217739819,0.6775876208,0.8707659334,-0.4875685057,0.1190360813,0.0741082814,-0.4265011132,0.1522727827,0.2741409513,0.3948219928,1.751515838,-8.1837342691,0.3328899972,0.218206308,0.0295422605,0.5077598717,-1.0284277563,-0.4273979296,-0.4097821951,0.8835147544,0.3595360975,-1.1361920125,0.3243269388,-0.7027700805,-0.2521320628,0.0759604152,0.1090131091,0.0342294206,-0.3550380985,0.9265679878,0.4309316872,0.6801277954,-3.5195515302,0.7653919469,4.95761015,1.7046434796,4.6028512667,0.8917056607,0.721829962,-0.0440929386,-0.3676162193,-0.6877556018,-0.3974603206,0.3748517176,3.4789931869,0.4328163242,-0.0102584233,0.3238796549,-0.1505050629,1.028021811,3.3629929776,-1.2876812112,-1.1514367563,-0.3923223911,-0.384826244,-0.1549072987,0.3319087088,0.5094034002,-1.0338245905,0.4131398448,0.85015358,-0.482128522,-0.7244605911,0.5099084826,0.0117476512,-0.3545130938,0.8950976352,0.1232863453,0.1653583577,0.6408164018,-0.554869659,-0.4325395752,0.0976277759,0.2397640054,-0.6517692487,0.4012084613,0.2378936148,0.7731129031,0.4933499908,-2.3418327692,-0.5284348695,0.3644048927,-0.5215402243,-0.0621025356,0.6592673621,0.177243486,-0.2355614451,0.1226074937,1.3109075821,0.8843737616,3.203574353,-1.5522233653,-0.5764900233,-2.7324963762,0.3191785491,1.2240915844,-0.2549359607,0.1893265542,0.0222144458,0.4367467168,0.2158774649,-0.5550544782,0.8081855464,-17.8217681253,1.0866545508,0.8329195428,2.3237888354,21.8934774428,2.0415319748,0.6968701937,0.9019663447,0.0371383414,0.2552917056,-1.8421557814,3.957858976,-0.8290223871,1.5635308139,1.3384647373,0.7852364941,-1.5050352443,-0.6850814833,0.7671614474,-0.9996996071,-0.0744472572,-1.8106382561,4.5016963817,-1.4009917104,4.2874378907,0.0555290149,1.0950354484,0.5699809968,-1.7293162842,-1.6811820712,-10.5691269917,-2.0549913723,10.3162929003,2.8656730367,0.9198375644,5.2914471732,-1.2407322262,-1.1711318763,-0.4011858778,1.1294429106,0.4775899922,0.7839678856,1.3820009069,4.0680836911,1.2686049274,-1.2709405887,0.7083759354,-1.1418866812,-0.2405815078,0.0484082372,0.2872540904,-0.103117003,0.9446494482,0.1499800639,0.4002249006,2.2721664129,-6.2187969667,0.0696912773,-0.2208465821,0.1726059329,0.6923121527,-0.9672385873,0.2212723478,0.3398201547,0.9636134096,-0.6405509891,-0.4308521729,-0.517915865,-0.4196917222,0.1842194831,0.6320871093,-0.8108444588,1.4496170766,-0.4535101689,-0.6741272939,-0.5079066374,-1.0918263945,-1.0322166646,1.852681453,2.8381515068,-0.1655053592,-0.0213894328,-0.6220963246,0.5299726644,1.190936021,0.1576549615,-0.499231105,0.2701203271,-0.695617182,0.8876422955,-0.2520999008,0.4727366358,6.2972779073,0.0158624037,-0.4037725627,-0.1702000467,-0.6765359466,0.61328961,-0.9261165361,0.7585132071,0.9302618566,0.0386481271,0.4415750983,0.3300822038,-0.9610510143,0.969790823,-1.0303602595,0.3182886982,-0.4174221736,-0.5443310591,-0.5924411558,-0.10752545,-0.0052743543,1.6145085945,0.3629721469,-0.4134734593,-2.0190447699,1.1834653933,-0.5607517936,-0.8323532826,1.5981842443,-0.3868784484,-3.1485117665,-7.1218889209,4.397542791,2.1793526059,2.8612186853,-1.2214108001,1.7900474724,1.2897345608,2.6914686669,3.2562570132,0.7100849347,-0.2206755187,-6.9750423158,-0.7999673162,0.1154308186,0.5927244095,1.9825794926,-0.7735553103,-0.6874131769,0.8178734106,-0.316624445,0.0341257792,0.1327201476,0.8769911891,-1.1414461402,-0.1791101769,-1.0962573319,1.2454566846,-0.6014026136,0.7848444756,0.0645283539,0.8814139303,-0.7035802384,-0.677168053,-0.618144491,0.4391471718,-0.8285379191,-0.7927067211,0.0414356874,-2.3236966265,1.4038157133,-0.7844671424,0.8348057415,-3.8365924031,-0.5442104487,-0.1771919705,0.2789745101,0.9782351637,6.0191258826,3.1858936138,1.7773085437,-1.8573853009,-7.1785979119,-3.1721615215,1.1601037334,-0.0140203773,-0.0761866107,1.6890361195,-0.0825489394,-0.6200838818,4.6773171398,0.530562096,28.9565743118,-21.3169513295,0.0008791112,-0.0655749501,28.7423733184,0.3464963249,0.981310595,0.4971599191,-0.32600455,-0.9762231149,-9.9453724804,45.8379794846,0.1986337327,-0.324290013,0.065590753,0.0955202681,0.4818243968,-0.3928584813,-0.0425380684,-0.1153943011,0.3281824431,-0.7666495102,0.2385450071,-28.6607207918,2.8140296914,1.7744407717,1.7658107405,45.3129789021,3.2098819368,0.6475254048,0.375699324,0.6614878724,-0.8479687895,1.6857958454,-2.337962117,1.8035966233,0.3575659534,1.2073353428,-0.1302771064,-0.7773975614,-0.3387428967,0.3079963475,1.6984334769,0.0716142136,8.3797374356,-0.3934097487,30.4396166932,3.164667839,-0.8244908817,0.9454874834,-34.6261519624,1.1053276441,-4.3682244135,-0.5488455314,-0.11256218,2.5881082401,0.5174217132,0.0252180537,-2.6349299962,-1.0838393945,-0.3683901521,-1.9343529494,0.5014389804,0.8172119728,0.6395827641,-0.5320180903,-0.5221463341,3.9703362522,3.7585662605,10.2452487716,-1.2359078807,-0.1219530291,-0.4969840862,0.4152768744,0.148527098,-3.3282627703,2.5219872627,0.8738204764,0.9486727533,-0.0891989076,-1.4116909461,-0.5702377875,-0.6683514298,0.2914098251,-1.9013395529,0.4179046648,-1.3442334677,0.4162731465,1.798177875,-1.5415078593,-4.7481541327,-0.6910570901,-3.1126885077,0.2351528179,-0.4630502138,-1.130420878,3.6682868427,0.5390844376,0.3996386914,1.3503523731,1.1898449487,0.473346039,-2.214580776,-0.4278451578,-0.4004549573,0.4320458469,0.576158246,0.9861845999,-0.0894012761,1.0646912717,0.2408174849,-0.7467121471,0.3880574789,-1.9166326752,-0.1366724266,-2.1514864267,-0.6127923888,0.5633021632,-0.3659170356,0.0519854607,0.2466095868,0.5806762571,1.1897967012,-0.094820095,-0.4629696344,1.3167932617,-0.4433745379,0.0058891805,1.1118020706,1.4109452362,0.2009115664,-0.3505631217,-0.8549888163,-0.0776086394,2.4287234124,-1.1379844998,-1.2840951803,0.9462315191,-0.4715509048,-0.6673708799,-0.501475749,0.6003578648,-0.1608583571,0.0029057054,-0.3748172812,0.4398241993,0.1891626368,0.2044889273,0.3612969548,0.52837895,0.3014925208,-0.5352376318,0.7457808515,-0.8824543535,1.2574768226,-0.1298477137,-0.4052850812,-0.0224786533,0.8778289692,-3.6067642437,0.6030134836,5.3192354206,7.6053810925,-1.7243206972,1.9179307903,0.3767416545,0.0334850522,-0.9198966245,-0.4332946109,0.5400229829,0.41124046,3.7990996091,0.4048846223,1.5110325013,-0.032005077,-0.3069607876,1.8329239523,-3.0538233668,-1.696027908,1.3343420363,2.8409266243,0.639855506,1.0984804392,0.7264727775,1.7386939479,1.1246120046,-1.3492556674,-0.7578631997,-0.2735933288,-1.2030026145,-1.368542529,-1.4173886516,-0.8797505646,-0.6500891125,0.2409180687,2.7999275292,-1.6567767539,-0.6214884106,-0.0044928916,-0.889305049,0.9501813218,0.2418767151,0.1468326063,1.4893240793,-0.1194584316,2.1589942139,2.6965896782,-2.1748147497,2.304141499,0.2094255965,1.5426778767,0.2328561182,-1.7020879837,-2.5029412545,0.1214107423,-0.9679018743,0.0708121771,1.3350231533,-0.1997391952,-3.6963579768,-1.4121252052,0.4322781279,-1.1299201311,0.9016894702,1.1565156063,-0.2381453986,0.4851258453,-2.2452076463,-6.9112866104,15.206206765,-30.8999687077,0.1541609961,-0.3102764793,1.4752426851,-7.3576009843,1.3238350982,2.1182594034,0.6598609546,-0.0387508605,0.6399228755,-0.3082586321,-4.4019350515,13.6010206071,-3.3791449238,0.0382296732,-4.5339918445,-1.0848515738,-0.6575800088,0.3721264092,-1.9486476842,-3.9068667165,-5.3013599368,0.526783456,-0.5703543188,0.3717024496,0.5002643289,-0.8036977349,0.1863760838,-0.7501063139,-1.0195992695,-0.7650475113,0.4983073662,2.8108475015,9.5624472109,-0.0970141929,-0.7175611993,-0.1384365577,-0.2248046998,0.4062271657,0.5995383466,-0.6991932304,-0.7361309484,0.7049533932,4.6135222745,1.7414032578,0.526776759,-0.9181549463,-0.884685444,-0.6193360526,-0.4413172202,2.9935409693,0.4402338591,-0.8318949805,1.3273303525,-0.4335869492,0.9869478334,-1.8236235895,-0.204988486,-1.0399028692,-0.5932047979,1.4942454889,-0.80539227,-0.5590864183,0.4779083237,-0.390238227,-0.7517387241,-1.1658634242,2.3631335726,13.1329895092,4.2336979498,0.3185934192,1.7334402172,2.644237806,0.1243159074,-0.0597491164,-1.2003128744,-0.5728489743,-0.2672667078,-1.3258336944,-1.6087034066,-1.131329256,0.2807205177,-0.5366517138,-0.2039760909,0.6936329381,-0.1924102886,0.0498472017,0.4816419743,0.2776841699,0.7129131551,-1.5818979465,1.9024610692,-2.9325089762,-3.7889557436,-0.6887438939,0.856272078,1.5372764518,-1.4632322536,0.6185351759,0.801150433,-1.185101493,-2.0158801261,-0.6954759245,-0.7340600516,0.325774014,0.7818020148,0.2870559651,-0.121550568,-0.2159912137,-0.6963881451,-0.5034621185,1.2359766779,0.9881414107,-0.2339754249,-0.6825091313,-2.0088845733,1.638499251,0.6467583067,-0.2190633955,0.4133105444,1.783190627,-0.4056995857,2.0562021959,2.274350819,-1.9994809214,-2.4601443137,-0.3089229818,-0.6891355025,-0.1935468844,1.620516312,-0.6849494077,-0.4701872854,-0.1784878698,0.5340263892,0.0991363933,0.0493770296,2.4138637673,-4.2825591269,-26.7371099846,-1.3819134625,-2.0886894089,-0.1615809268,-1.4552946813,-2.427097682,2.0814972416,-5.173119573,-5.1737267004,1.756545937,11.5741022311,-0.8030924897,0.4651403191,-1.3115587867,1.4021889111,4.0354868974,-0.5835711482,-0.042080504,-1.4463073073,-0.8502739619,-1.3151371966
biasActivation=0,1,1
[BASIC:ACTIVATION]
"org.encog.engine.network.activation.ActivationTANH"
"org.encog.engine.network.activation.ActivationTANH"
"org.encog.engine.network.activation.ActivationLinear"
