encog,BasicNetwork,java,3.4.0,1,1591965222015
[BASIC]
[BASIC:PARAMS]
[BASIC:NETWORK]
beginTraining=0
connectionLimit=0
contextTargetOffset=0,0,0
contextTargetSize=0,0,0
endTraining=2
hasContext=f
inputCount=22
layerCounts=3,38,23
layerFeedCounts=3,37,22
layerContextCount=0,0,0
layerIndex=0,3,41
output=-0.1083152043,-0.9858474108,-0.9809852474,-0.1838784482,-0.2552884537,-0.9921665084,-0.1038743416,0.1001476814,0.9476450988,0.382087372,0.8104707233,0.9684336519,0.9992048481,-0.6794550841,-0.9549215726,-0.9997278298,0.9999745018,0.5526135908,-0.7060971453,-0.9999058951,0.6321847588,-0.1351600514,-0.9990161218,-0.1939400658,0.9999977135,-0.7224787533,0.999164641,0.5798078792,0.8949116169,-0.9973989717,0.999998565,0.9999154126,-0.7244805486,0.9953419067,0.9913175746,-0.5308135195,0.7982943679,0.5827251498,0.003192952,0.9997818008,1,-0.4496050212,-0.9232240449,-0.2444555181,0.9358274252,0.9042604865,0.8217775159,-0.1486989643,-0.6507021385,-0.6440291596,-0.8987466759,-0.8948265945,-0.9123744155,-0.9201977811,-0.8718131334,-0.6858892168,-0.3985034297,-0.9780128671,-0.8832512695,-0.8936479174,-0.9066733509,-0.9151543067,-0.9207593211,1
outputCount=3
weightIndex=0,114,965
weights=-0.0038089291,0.0004263884,-0.0066872438,-0.0445804487,-0.0095723846,-0.0036553424,-0.0692882102,0.2886328861,-0.0912394869,-0.0395625282,0.0126777024,-0.0066095001,0.0027575201,-0.0053818963,-0.0401372755,-1.0347729451,-0.0074132549,0.0120080899,-0.0001015794,-0.0005028222,-0.0423734902,-0.0081465876,0.0057083271,0.0034994333,0.091767933,-0.0465410868,-0.0466208716,1.0314158327,-0.0216157981,0.0034114939,-0.0471506106,-0.0046992992,-0.3292774258,-0.0044140558,0.0004083701,-0.0020362989,-0.2015317941,-0.2228044133,1.4735648099,11.3595710473,3.8062963318,-3.4482652344,-3.7858949381,-4.678528719,-7.152105692,-0.8868887861,-5.466320193,-6.7530528164,-30.5621432655,4.7243735394,-4.6015978751,-5.2431330728,-11.894936949,0.3484159135,-8.9304914965,7.4801840252,11.155915938,11.5210935662,-17.5683046753,-2.2909180522,-4.7524939046,4.6194352972,-33.6829439252,15.1136887469,-10.8475491538,-1.3431309261,-6.3446939465,-1.3117383841,6.3109738325,-68.1234940886,-1.5018687056,-6.1552601493,-15.8839492258,-1.8676414351,-3.1520231442,-0.8883545477,0.0140115695,0.0160305632,-0.127097779,-0.3016903352,0.0715344299,0.1183042357,-3.5033625548,0.5169882649,-0.6871762074,0.1672927686,-0.3464659338,-0.0330506624,0.0478584233,-0.0726524499,2.0057191778,0.102131201,-0.198915962,0.0412007397,-0.1332788741,-0.153684732,0.2306237033,-0.4541425256,0.3720558562,0.0282181086,0.8980091429,-0.1330398212,0.0492532238,-0.0562359317,-0.1969645539,0.1350825504,-0.5658250198,-0.0405099114,-1.6952391636,0.0145686897,-0.030837037,-0.1875284161,0.0546684619,2.5283356694,-5.4336305359,6.0991184417,3.197128485,-1.3966393548,-0.128401882,-0.3759748479,3.9905617111,0.5294542798,0.0566876187,2.625851349,7.1223577735,4.183332925,69.7015834063,15.1222742375,-1.1169717301,-0.6558750208,-2.7574577779,1.5707194676,-4.1982783364,-3.6041721751,-43.8027160784,-2.3615940103,15.3789516448,0.2599224303,0.8864098759,-1.5913063554,-0.0391678092,0.1658474163,-1.4099059959,5.0846027502,-1.0287293858,-3.8445451937,0.2303853772,-0.9661751179,0.4620247437,1.332920144,-1.1966766402,-3.0204261263,-0.8856473154,-1.3909175038,-6.8074973145,-0.7714212091,1.5295269374,0.7744244349,0.5320892935,1.0753289009,-3.5379674321,-0.7421631768,1.0581733752,0.9166999408,0.8169300608,0.1060052416,2.1418910024,0.0375031715,-0.418719878,-0.1210887179,0.4066292295,-3.1886624998,-0.00712201,5.4985101609,0.6418949466,-0.4949693208,0.2676615613,-0.7718946165,-1.2336266151,-0.5478172488,-0.996429876,0.1186238834,-2.733223038,0.4847741705,0.4731623321,0.3584274946,-0.9724382623,0.3865777508,0.5555101242,1.1907811541,0.2393958212,-0.0388828221,0.7630278511,-0.244248192,-2.3222103231,0.0700999388,0.613028859,-0.6574486199,0.2805734351,-0.4116933352,0.1795711763,0.5601136784,0.4487708614,-0.172112908,-0.4804994741,1.2273388857,-0.582098282,-0.2309412237,-1.6212285638,-0.0400175685,-0.7869386564,0.2896456978,1.433925178,-1.2080485185,-0.9393622135,-0.3250554334,0.6825421744,-0.1416395855,-2.8431726007,0.1256895093,-1.0873349912,1.6121615865,2.2136025351,0.948515741,0.3594179412,-0.0844500051,0.6367108411,0.4347718696,-0.761118622,33.9023837003,-5.2151775082,45.5946714367,1.7524468276,0.1278175037,1.9913753275,4.4261924253,2.2037185463,6.7692711785,2.2846819936,-69.0522709704,-3.220329109,8.8776077425,2.5933331277,-38.3197210092,2.6175398353,5.9537200662,8.7036620428,7.0023661855,17.6592759668,0.8586349366,-23.7916959946,-0.7353159478,-2.156061342,-0.2643505543,-1.9420229066,0.0551911976,0.102702099,0.158290232,0.1653059288,0.7373747627,-0.5298666765,-0.4813226388,-0.7055454084,-3.5283280314,0.2101569332,-0.2776419572,0.2242646606,0.7787685985,0.1376347606,0.3362830617,0.6231522766,-0.4753564533,0.0860391161,1.6982437517,5.8545007961,4.6771334401,-0.7832582081,3.022936636,0.8236943587,0.4319070999,0.0032785317,0.1674897172,0.1291180157,-0.2020202746,-0.7108015567,-3.7388255246,0.2741662236,-0.2634296918,2.5445205193,3.4879718134,0.8374082714,0.7875260888,-0.4693350879,0.1763197107,0.1093004921,-0.3948836926,0.1869874708,0.4497773872,2.7600974492,1.0109032824,-0.875752466,-0.0335132112,-0.0087846604,0.2050090021,0.5582230714,-0.7920438858,-0.2016702104,-0.173764528,1.0742638332,-0.1155551673,-1.2496557185,0.7438742252,0.7770435773,-0.1517686658,0.1567094892,-0.3711886979,-0.4599762955,-0.7683588877,0.7138142108,0.3460089297,0.6741843167,-2.3718945501,1.1490689491,2.6446836066,2.0261433169,4.9745323768,1.376703532,1.0503844212,0.1478214889,-0.9517232663,-0.0669097091,-1.0054422802,1.3766228349,3.4047793543,-0.3436124932,0.1239964022,1.7806665786,0.6764770115,1.7414837265,4.1423392394,-0.4449665829,-1.1621793807,0.107188627,-0.1702222425,0.6667394334,0.7401241033,-1.7535924735,-0.5850532864,0.3704479527,1.0096281845,1.4439873781,-0.1561464989,0.9346780517,-0.4746787719,-0.4836425535,0.5767320874,-9.8262717038,1.0403708898,0.9227439224,0.223431149,1.2288395853,1.8550009477,3.3662280762,1.3568634959,1.3653225522,-0.3863150334,-3.351320339,2.5335968956,-1.2192558442,4.7874364135,0.2672484298,-0.4947269928,0.5410494782,0.8323167073,0.1731558778,-0.1808960137,-0.0660443337,-4.3142939729,-0.456366138,1.6294199075,-4.5702599831,-6.2822040546,-3.6751427963,-0.0245468117,1.2175130057,-0.3999713406,0.0980911488,-0.0731691246,0.3326323736,2.0153110919,3.1963195004,3.7557561964,-7.0478522564,-2.4697275757,-0.6999833276,1.7044720705,19.2164342989,0.2700754315,-0.4924636201,0.2857662557,0.3854533288,1.0914273607,4.3246946086,-6.4656043082,-6.7877919589,1.1777483586,1.1861955999,0.5818560807,-1.9296748425,-1.1646259761,0.6312556576,12.0350051948,-0.5413066671,-2.27089276,-1.0518352021,-1.7787866744,1.1797079316,-0.0465334502,0.8425037676,-0.4839229089,-1.1025297379,-1.8687527335,-10.6371031739,3.7547969571,12.3995456731,2.6152408772,-1.4248598355,2.6594462476,-1.7671272467,-1.9571515583,-1.0571076486,-0.5446890919,-1.1863931373,-0.7042871356,0.7842569616,3.7066887387,-0.3158894805,0.1602192241,-1.1908144395,-1.7660667714,-0.300742118,0.1367105999,0.6840989304,0.0217583335,1.0295496427,0.2513923045,0.3906987921,3.0021639842,-1.0171911218,1.6837686327,-0.3127873478,0.1318213785,0.7760808264,-1.0998536331,0.4487468188,-0.0301996148,0.5935100834,-0.4764285523,-1.4634883497,-2.7509480274,-0.688821989,2.7500657914,0.3539019031,-0.4639533481,1.7118710093,-0.2611858079,-0.545459919,-0.325170563,-0.9840786839,-0.4684627161,0.7606329553,5.8012172901,2.179468804,1.063506105,-0.5562535909,0.3968941127,0.9734533408,-0.1565926193,-0.7892358086,0.3852964095,-0.750926811,1.8114543093,0.5969771096,0.0349871047,0.3586322249,0.8209608456,0.0327146702,0.2507079511,-0.16830277,0.4778653962,-0.8296931892,1.0180482989,1.1361653024,0.034642887,0.3409518046,0.6152036961,-0.9358771807,0.6975492316,-1.3385963971,0.7451786129,0.0609408812,-0.5264855932,-0.6664432418,-0.3410340103,-0.1726082813,14.7442109569,-1.8233747731,9.5291638608,-1.2030983681,1.14954507,-0.273373311,-3.2092753164,0.6756195969,-1.2886915641,-3.9447564208,-16.0706214944,4.1655017353,-1.1353503335,-1.1135719138,-0.1365049385,2.3294633262,0.8154862875,1.7535745685,2.5965288126,0.0552689657,-0.9028806784,-7.6569162266,1.7394718112,0.4605414941,0.8504465483,-1.1121501152,-0.9438409769,-0.7880003603,0.7176940029,-0.9580678175,-0.0904470735,0.0008790474,0.5964898909,-1.1686152735,-0.0711291979,-0.9942872632,1.7374479216,-0.5951407853,0.5196615086,-0.1355860193,0.7337909422,-0.8539178352,-0.8290839194,-0.7652812525,0.362651131,-0.816529573,-0.117994393,-0.0053985184,7.9802484044,1.608116743,-0.7085682944,0.8581566769,0.554430549,-0.3613577362,0.0010035385,0.1148545511,-4.1694194597,6.2093450514,-0.0883338332,1.7144010642,5.5506265801,-6.7424337596,-3.0999550328,1.1757682642,-0.0557383045,-0.1426359847,1.6404344443,-0.0805914117,-0.6620724557,1.3589199226,0.7233251477,0.038229046,-0.3146894734,-0.0635062483,0.0356231045,0.9912369832,0.3467990211,0.9997572981,0.5475267586,-0.9469450465,-0.4549315376,-2.9543669108,0.3590654305,0.2871112044,-0.1656902095,0.1454388311,-0.3769001315,0.6469964881,-0.2203601802,0.150125504,0.076622175,0.1522415526,0.2092929757,0.5004210337,1.8268560439,1.9422836688,0.9876084505,0.9316268302,-2.589171605,0.4977087969,0.1470702675,-0.2095297594,0.1546665105,-2.0450536267,1.3334813289,-1.9407001291,1.293070095,0.1874691829,1.1233751417,-0.0451262267,-0.6760014198,-0.2370982505,0.4423559709,1.7711234092,0.2622923597,2.0411133808,-0.4530865763,2.658421873,0.2061596183,-0.8827318145,0.9856042534,-11.1688801891,1.0892886232,-0.4538490786,-0.2341824445,13.1864805281,-1.1390210949,1.6327126495,0.188227865,-2.7519470487,-1.4732832149,-0.4770722066,-0.9098986696,0.6964971146,0.9694305102,0.920124831,0.2413508985,0.4410623311,-5.8182607172,0.6211466753,6.95325126,-0.0920180876,0.6707863856,0.1195870051,0.6657840906,-0.092890608,-3.5999908202,2.681240299,-8.1361108769,-0.2974152612,3.5904771538,-2.6800714738,-3.0928370271,-1.6988599505,-0.251034466,-2.2894656724,0.0352122892,-1.2098308495,0.3595322972,1.5271423793,1.8251211674,-5.1883408364,-0.5262573869,-1.7197397163,0.2603996814,-0.1484136668,-0.7196393536,3.8432815923,0.5242727852,0.386444169,1.3754775908,2.3150522624,1.5851488607,-1.2665628949,-1.7696887984,-1.610814814,0.0063526595,0.4173699448,0.8300396827,-0.2456976333,1.1758345931,0.3520443963,-0.6350839203,-0.0729316822,-8.9821941552,-0.4697216089,-4.1475983297,-0.5934296433,0.3626641856,-0.6368102527,0.5442812782,0.2045942649,-0.8446930729,0.4498004907,0.0779748204,1.1713945583,-0.7959082494,-4.5278787084,-5.7012479641,0.780254225,0.2132283056,0.586242818,-0.532572453,-1.0884877635,-1.0272023357,0.0846904232,2.4189021778,-0.5122220881,1.0485045732,-1.4752648634,-0.6761088555,-0.5037541233,0.6020611389,-0.153433143,-0.0946613433,-0.4751605135,0.2918620775,-0.3145246652,-0.0354335121,0.1990246755,0.5015549354,0.0504899331,-0.5475959558,0.9579350078,-0.8930154823,1.2448827773,-0.1643154878,-0.4461186609,-0.0591420567,0.8853350712,-2.726356653,-0.1403616112,2.9458761957,7.3732936208,-1.8144407687,1.8291830972,-0.3854267656,-0.3836479764,-1.2660605759,-0.5872110877,0.1428156649,0.764281474,5.7201463365,2.0482925367,1.834563467,-0.3156184009,0.1337588966,2.1350839656,-2.7915211151,-1.2114850864,1.6777182881,4.6239054512,1.7168989023,2.5902572382,1.0777887926,0.3820774864,-1.638360884,-1.2656758185,0.1078302422,3.0846162992,-0.5203212232,-1.1791242008,-1.4865730264,-1.0552665244,-0.6758392721,0.4233863417,-4.2887843247,-1.1303560712,-0.2922127567,0.1449518368,-0.6638252832,1.1841272568,0.5025859089,0.4642708543,2.4806307142,1.2021317456,1.9781146637,0.0381801796,-0.0754085916,2.9094793402,-0.5574040057,0.047440847,-1.1157741024,-1.4388032336,-2.1869520588,0.3185975972,-1.4082440043,-1.8341900089,-0.13967044,-10.9430234307,-1.8741534217,-0.4215802816,0.8153367397,0.2695354266,1.2874243002,1.5555955511,0.2114681917,1.1149045503,2.503185139,-10.2917958638,-0.7527813069,1.312119764,0.8303091577,-0.5215973891,2.4042641768,-4.5644472814,1.1763452361,1.4842487016,0.1801579006,-0.2601047266,-0.0724767352,0.1241316513,-1.4701117328,2.1439952517,-3.5623667641,-0.4024842254,-1.0378115199,-0.9104429599,-0.573358437,0.4134731923,-1.9185302382,-2.3036110048,-4.4219026273,-0.0545362337,0.040915003,0.6513444683,0.8291195458,0.2886500273,-0.1389734102,-0.5301468438,0.309377399,0.7219492878,0.5617437204,0.8669136914,8.8705650218,-0.2831304813,-0.7454519259,-0.4824832208,-0.5435230621,-0.0516873254,0.3780411068,-0.8744548004,-0.9048692716,0.6855418721,5.0924599103,0.4180949801,1.0277128519,0.0259947958,0.3719030693,-0.7793141823,-0.67036225,2.4360766793,0.4041213454,-0.8832482518,1.2854872224,-0.1529849511,0.6528068782,-0.1057918338,0.6850632372,-1.654282691,-0.4537116368,1.573137548,-0.7260354611,-0.4789373775,1.019226966,0.1328727397,-0.2146960271,-1.9850177854,-2.4032710752,0.6501385271,1.4568821409,-0.6387725186,0.7685494781,1.6787902043,-0.3407720221,0.1223719805,-1.0046703146,-0.3207068521,-0.0966955447,-1.0391265989,0.1015795389,-5.1822134704,0.4649611983,-0.4989823007,-0.1505383738,0.5445274672,-0.3331613078,-0.0400997897,0.3581153318,0.217229628,-1.2161538253,3.9941591952,1.0874834344,-1.8745298525,-0.8365304456,-0.6488611841,-0.2986551217,-2.9849950639,-1.5207868591,0.2227607042,2.9039463427,0.2756399888,-2.1629382686,-28.373981371,-4.0416235849,0.68952263,7.5318097435,5.1115239494,0.2764910603,0.2855581724,-0.3190456432,-0.1311601398,-0.016122756,-2.0527786472,1.5763932357,-0.7126251082,-0.704161524,0.0293668032,0.6658274445,0.2492060622,0.1777230361,1.7101001134,0.3844736034,2.0480966946,-2.5749759604,-0.3843730177,3.7051603275,-0.6485288765,2.9946406635,0.2392803869,1.6078646544,-0.6967614733,-0.4807025039,-0.1956225904,0.5169534541,0.008344112,-4.5092065824,6.0931551344,-1.0514797808,1.2018469696,0.4275528532,-0.4245211003,3.0642626645,-0.782089202,-2.4632430769,2.0496708061,-5.2189335357,-2.0229176288,1.0282040288,1.920791624,2.6135599623,4.9849773957,-2.6102090797,0.88356123,4.2894234836,-0.2274849198,0.2269830951,-1.1470553823,-0.3329491465,0.1646312351
biasActivation=0,1,1
[BASIC:ACTIVATION]
"org.encog.engine.network.activation.ActivationTANH"
"org.encog.engine.network.activation.ActivationTANH"
"org.encog.engine.network.activation.ActivationLinear"
