encog,BasicNetwork,java,3.4.0,1,1592305703683
[BASIC]
[BASIC:PARAMS]
[BASIC:NETWORK]
beginTraining=0
connectionLimit=0
contextTargetOffset=0,0,0
contextTargetSize=0,0,0
endTraining=2
hasContext=f
inputCount=22
layerCounts=3,38,23
layerFeedCounts=3,37,22
layerContextCount=0,0,0
layerIndex=0,3,41
output=0.0733944855,-0.9999996517,-0.9380567537,0.5422322576,-0.3333619858,0.9999997865,0.3936444062,0.6092967916,-0.5876350685,-0.7883438605,0.9836326519,-0.7363015365,0.9998756595,-0.6781194252,-0.2332758477,0.6193754391,0.9988321736,-0.9009976746,-0.9993614372,0.9746729126,0.9934036176,-0.9988285209,0.9822402273,-0.9758320761,0.9992718029,0.3962020897,-0.9999149077,0.7340000263,-0.9690065572,-0.9280543325,0.1515838212,0.9160191408,0.7259671517,-0.9732895987,0.3294088275,-0.654287768,0.8787146152,-0.4658350131,-0.9078866875,0.9035351329,1,-0.4496050212,-0.9232240449,-0.2444555181,0.9358274252,0.9042604865,0.8217775159,-0.1486989643,-0.6507021385,-0.6440291596,-0.8987466759,-0.8948265945,-0.9123744155,-0.9201977811,-0.8718131334,-0.6858892168,-0.3985034297,-0.9780128671,-0.8832512695,-0.8936479174,-0.9066733509,-0.9151543067,-0.9207593211,1
outputCount=3
weightIndex=0,114,965
weights=-0.1223527375,1.4462703923,-0.1532388501,-0.0638907368,0.1397638623,0.9375704152,-0.3291967276,0.1177900741,-0.2549023326,0.1173830519,-0.2186799396,1.155528763,-3.2358659403,0.1425521906,-0.5492927963,0.0655108896,-0.202164967,-0.129429204,0.306722676,-1.0899051513,-0.0291302426,-0.0808834774,-0.5265133346,0.0091242611,-2.1786534429,-0.8583105298,1.1606258842,0.6232873019,3.9242112953,-0.190043024,-0.2555606687,0.2416455251,-2.594558991,-0.5794601325,0.4718066845,-0.328034876,-0.3295461382,0.7461392627,5.0491941247,0.0985541296,26.7569701284,-3.6615703046,-17.0642531344,0.5675771498,11.5763495602,-0.5573762095,-0.4131694535,-2.3650574155,-1.0573467882,-0.1131096067,5.8244048003,1.6343690882,1.2703390431,33.0567501646,-0.996752685,-24.8894239829,-1.8242863811,-0.1501230507,0.8161216974,5.3175944019,0.8313380432,-4.6550248732,-0.6228191979,-0.4783436489,-25.3292896234,-1.1746433116,-32.5251955473,7.1936875892,17.4745007388,-3.2141186152,-1.0363192886,2.0569239738,-10.5245944825,10.8774026354,18.4327545015,0.0399552149,-0.3531690602,0.1297430971,-0.3521875393,-0.2644495081,-0.4523434847,-0.1279551661,0.1145162949,-0.1555932184,-0.808477406,0.0316515208,0.7945426471,0.522875261,-0.0088355116,-0.6874205185,0.0186173965,-0.8780611923,-0.5948746368,-0.6344001258,0.5418713553,-1.5218265055,1.3459923854,-0.4971774574,0.3960596889,0.042265784,-0.9047774803,-0.1436350691,0.2139850675,0.1419700122,0.8789919283,0.0204397227,-0.1650636353,0.2836570976,-0.5347297198,0.0376609073,-0.9414441718,0.2337809393,0.1771849758,-0.0350276454,7.2088110706,0.3966590687,0.9399236638,-0.4730561941,0.4598915955,-1.3444172757,0.7426643668,-0.8485866698,0.8229846632,-0.3528001302,-4.8405650455,-1.7948748022,1.7479061274,0.8392885863,0.7542363902,-0.0270034933,-0.0017736161,0.262991996,-0.3246554467,-0.7977174938,-0.6347585523,-1.5205510834,-0.2657665167,1.206638532,-0.0052728806,1.3776264618,-0.0569116995,-0.4881112928,0.8490439343,1.0278341144,-0.8843482075,-0.649271344,1.5843882344,-0.1860985465,0.3370673029,-0.245950186,0.5452861538,-0.2676717909,-0.2089828576,1.5626446057,-0.1516353009,0.3958580716,-0.9176817536,0.5128586497,-0.0772677199,0.4181661873,1.1232574137,-0.1791409226,0.146360033,0.2858843311,-0.786207948,-0.1031747973,-0.4941151378,-0.4834960516,0.7012363365,-0.3279410663,0.7501780078,-0.9811113997,0.0390123763,-0.845733716,0.0103656438,1.1119755889,-0.610172621,-0.4450747593,-0.730855935,-0.0530737848,-0.3060211286,0.4992761031,-1.1501829231,-1.4932065482,-0.6326490747,-3.3049027619,-0.0868050446,-0.6196413017,0.7967195776,0.7101000731,0.0364697601,-0.0220856743,0.7286561167,-0.550721518,-0.9282715808,0.7710680522,-0.297896753,-0.9333075806,-0.7411627963,0.3257277093,-0.3071347889,0.361820609,0.1013787416,-0.5101538166,-1.1056304423,1.1513095273,-2.8563475748,-0.8228339863,0.3116154665,1.3775565466,0.084252625,-0.0163292473,-0.4899292008,0.3464324967,1.2454491226,-0.2600765723,-0.1170937031,-0.1948855329,-1.0185013709,1.0582037769,0.829699079,0.6202158831,0.0557877301,0.9972023329,1.1466092754,0.2500741075,-0.5273515868,-0.7530516192,0.3631754894,5.2708958457,0.5589430981,-0.1020887143,0.039813526,0.4672320627,0.2416780984,0.3515374792,0.3269737772,-0.3493139865,-0.5976569445,0.7673542962,0.9418632882,-6.1060133935,1.3997620065,0.3942327329,2.6900564931,1.7615558408,0.8081570724,-0.7568749814,-0.5339941237,0.9642325473,0.6162139888,-0.0254600208,-0.581995134,-0.1133695834,-2.0109142994,1.1413098209,-0.7482660624,0.0696074988,-0.5545831938,-0.2962059453,0.4418761791,-0.2329811627,-0.6681744823,0.5717585671,0.4934550917,-1.2869934978,0.8880499733,0.4040846778,0.9782593499,0.9081663497,0.7304083852,0.5661369437,0.9467570396,-0.0702663028,-1.2653143786,0.6421548582,1.2595921672,-8.0925634577,6.50089119,-44.7264341055,4.4734343119,7.1059454,-10.4786554404,5.8838585459,-0.9963015228,-0.9995107235,-4.8644565277,0.6865539758,-7.3366907439,-7.5369907897,-5.5868449251,5.8568062087,-26.5782141091,4.2001076889,-2.483550376,-1.04044991,1.6645116776,-3.4670588847,-0.2419554609,0.102880293,-2.1215711687,-0.7144252131,-0.526638131,0.3918880896,-0.1737853558,1.3019960529,0.1538646628,-0.3319140611,0.8337096225,2.2449286518,-0.5974542389,1.2242983745,-1.1933771632,-0.7295968109,-0.4674881017,-1.0081175965,0.0506126339,-0.4606111984,0.6011322668,0.7087948973,-0.4599118484,-2.5915011741,0.260247029,7.2546588049,-2.0411798917,2.0527235664,-2.0362647639,0.6716945137,-0.6313807179,-0.3101433737,-0.1807167294,0.6361852986,1.4614664551,-3.7808311541,2.599988983,-0.663327901,-0.7423652966,-0.7364159996,-8.6608760362,0.1259049637,-1.2508251216,0.7205927449,0.5297964523,-0.5380263077,-4.2763101578,0.7166433904,8.6654113359,6.6346607924,0.6266281107,0.7751143593,-0.1920616295,-0.2804125849,-0.6023764145,-0.7774465971,-0.2236171808,4.3295751713,-1.6495129065,-2.8491585781,1.0249498469,-1.1733093127,-2.3201292581,3.4873640126,-0.2583749378,0.4295862652,-0.6167136412,0.0468530596,4.3434750278,-2.4284816825,0.4892958446,1.0565760349,-0.1006764128,-0.3009441956,0.62930316,-0.4096926487,0.695379537,1.4287676418,0.6618139316,1.1635476775,-0.9404248584,-1.1385722693,0.4466866776,1.1246727404,-0.5172171162,0.2037480348,-0.3168478489,0.0619267406,-0.5563812513,-0.6154412255,0.6370132103,0.410132501,4.6196542077,1.0082879947,-0.9444466543,0.3134124947,-0.9257311925,-1.6134415077,0.6800294199,0.0773427736,0.7594315094,1.1430857327,-0.5419413625,-0.1626323337,-6.7051180842,0.409686275,-0.3175532624,1.3090504849,1.2864955409,-0.988835654,-0.2066585384,-0.0233173079,-0.9726009627,-0.1296067216,-2.6690541927,-0.2600148853,-0.5193551898,-2.0200286654,0.8872337244,-0.5132943293,-0.6359786379,0.9648277807,0.3435354996,-0.2050602095,0.4763463283,-1.0683089694,2.4793424216,-1.2601287987,-0.5383971278,-0.7482721723,-0.3348846063,-0.7368930663,-0.6563606924,0.91895372,-0.8755746883,0.8031664685,0.8381036332,-0.0029854309,13.4967242463,0.2479334117,-27.1642391762,-14.5366424876,-2.0105489481,-1.8282193638,-0.3491910752,2.6884141072,0.2650627665,0.2847257229,0.3593588531,-9.7925416373,8.8350723339,15.1953695158,5.8285427951,17.2412576157,3.5311063073,11.1056652815,-0.0408580115,-0.4815253621,0.15209283,1.1846690561,-0.4573783376,0.3330276025,0.4744667837,-0.623173464,0.4323039199,0.6789264246,0.2712704986,-0.4359654272,-0.3334368455,-0.3511742967,0.2648541361,-0.5713813828,-0.4761038774,-1.5803470595,1.1420408319,-0.5203895946,-0.1313598814,1.0859545748,-0.8951843077,0.3748855449,0.1476350132,0.809580183,0.051249803,-1.0108884107,-0.0356963019,-0.3894537762,3.0803880977,0.4977673775,0.7728792594,-0.7993739292,-0.729661527,-0.107740486,-0.0073295653,-0.7333050021,0.051387668,0.9359145148,0.4806679895,0.9045395788,0.8078510394,0.1766992416,-0.5186773658,-0.1090804679,0.3979781894,-0.6857915753,-0.2272098952,0.7342696193,-0.4381084288,0.6996664262,0.6487964986,1.0145104743,-0.3156896003,0.5602911015,0.4918799189,-0.7576033022,0.3055373415,-0.332112699,0.5027700789,0.8798847462,-0.7194794051,0.9983988514,0.8472005966,-1.0805101203,-0.1752582498,0.2716180068,-0.0436279555,0.2383882901,0.8394243844,-0.1656727288,-0.9595505403,0.2870629356,-1.3678110373,-0.3848766966,0.485772675,2.3103823526,0.3361454733,0.5934458375,-6.5229832881,0.8823920413,-0.0003955059,-0.1560413122,1.278250351,0.0022545166,-1.6503237586,0.5177023709,3.870919829,0.4903878067,-0.2323687542,1.0086694311,-0.0522393527,0.0445800634,-1.0814545133,-1.4540363275,-0.2663014643,-0.550256393,-0.3738049566,0.6651907934,-0.4448985403,0.0103558055,0.102901435,0.3564351561,-0.5518032965,-0.7412512807,-0.0838165314,0.1111094058,-0.2011910913,0.7501510589,-0.6749420482,-0.0482008603,0.6398288065,0.5884132995,-1.0478355277,0.0445734887,-0.0553419864,-0.321799264,0.9226324996,0.4965158936,0.6587560983,-0.3924395978,1.5139602669,-0.7006784074,-0.8609647469,-0.5682000499,2.2747507745,-0.8513852236,0.8906370594,2.6408122556,-0.7921718751,-0.5090875014,0.3406778356,-1.9144469737,0.9965337696,-0.2638084161,0.6219090099,-1.9982262838,0.3537843024,-0.1638670244,0.9594956608,0.1375732552,0.1193844838,1.6746653826,-0.7009267821,2.8870219536,0.1322617325,0.621347484,-0.8190868293,-0.6732366167,-0.3377145357,0.666702029,0.4764954109,0.1409630817,-0.6084917523,-0.7306614069,-0.4366723648,1.8697821291,0.6636493491,-0.4879067704,0.9287421962,-0.1404797388,0.7632744049,-0.8167752172,0.5980993535,-0.8887686629,0.819430491,0.1132296619,0.4278038833,-0.333342618,-0.4098941126,-0.42242216,0.8205190056,1.0272456411,-1.1086089779,-0.8904756016,0.0291221766,0.0524257964,-0.656673715,-0.0630705879,-1.1589153777,0.1620245971,0.8008648315,-1.1205965104,-0.0773519191,-0.9018328713,-0.1613941974,-0.3414842411,0.9063923459,7.3522138442,0.3331460455,1.4792261702,0.9013988879,1.1606382152,-0.7226081534,-11.4252524806,0.2661904634,1.8588911409,-0.7347175786,-0.9698689888,0.1812881927,0.5557611095,0.9787680101,-0.6334653843,0.1156099326,1.9543271928,0.7690269404,0.3852435365,0.7584298795,-0.1241912254,-1.0094184665,0.5168654312,-1.6775929198,-0.6925794709,0.5415734612,0.6123628383,0.8158968749,0.6976973242,0.1010308675,-0.4886371749,0.1601088981,-3.0537451805,-0.3015908537,2.2076383753,-1.4234761073,-0.79453536,-0.9648951952,0.0771663212,-0.8828567364,-1.7261306567,-0.1226344219,0.2180935677,-0.4045751182,0.9516099827,0.7037777729,0.7898290991,0.4718674691,-1.6538204868,-0.0869135884,-1.786223013,0.9149392159,-0.6831887532,-0.3832261572,-0.6956576253,-0.0707467437,-0.0872017971,0.1880617651,0.7745788061,0.5152180974,0.05935685,-0.7838392904,0.319710843,-1.720702833,0.309056616,0.5361932373,-0.8646757091,0.7419309988,-0.8977931254,0.4766603747,-0.5992004562,-0.0433742766,0.7648201461,-0.9630547121,0.1909749061,-0.7639413084,-0.1660222957,-0.5085887666,-0.9691538774,0.1028985966,0.6533016998,0.8799357141,0.5739208412,-0.0192325607,0.7241958979,-0.9076272635,0.0443322116,-0.6482378443,0.701169504,0.9794796437,-0.1105096058,-0.4246674432,-0.6829671336,-0.697925456,3.7327591411,-0.1909690679,-0.4556186288,1.0450078042,0.0606266897,0.0063081635,-0.3721692309,0.3152963131,0.387369896,0.2878134118,-1.2749177542,0.6167813847,-1.4524674159,-0.3653428722,-0.9487968304,-1.039076008,-0.3842657621,0.1499609182,-0.7559022548,0.2991161853,-0.1333957343,-0.6455097468,-0.3988814817,-0.4265999674,-0.6785635996,-0.5673194517,0.5321071474,1.1379170219,-1.039147975,-1.1772303282,-0.5166268442,-0.2737838779,0.5684722448,3.2738810295,-0.7450618077,-1.0516167762,0.0820481966,0.4502492991,-0.0975805916,-1.2023217527,-0.0521194252,0.6064801053,0.7292377296,-0.1814745159,-10.6656828786,0.5515892461,-2.6399520992,0.0363037832,0.4050137462,-2.0266068963,-2.0128965894,-0.5103632383,-2.3097755427,1.1328428205,0.5080079823,6.7553423303,-1.8339211274,1.6557666522,-0.0566692457,-1.2542710232,0.9027987484,-2.5127878036,-1.1145338617,-0.2307730609,0.0422275547,0.8013952782,-1.1247426424,1.5689312362,0.0910782903,1.620149955,0.1915569071,-0.678718708,0.1853651026,-0.4330059507,0.3128343017,-0.1033618686,-0.6170797506,-0.3351969147,-0.9873136575,-0.2685765411,0.459946041,0.8737358131,0.389684551,-0.0993562888,0.9215848683,-1.271701654,0.8510051283,0.268686811,-1.2149755358,-0.8143484483,4.4506511326,0.7242934931,1.5794526186,0.0962906917,0.8889306326,0.0816299942,-1.7488601516,-0.0319776356,0.1043547267,-1.0840833649,0.1926957654,0.3741730107,0.083024962,1.4784129788,-0.6678591072,0.1699167132,0.3888540396,0.8609115042,-0.2579844369,0.4598971659,-0.0597417331,0.4201965098,3.3360145974,-1.3820250593,0.7437429242,-0.0966446729,0.7951702117,0.9032271559,-1.3492394702,-0.5402654247,0.0036346225,-1.0562217752,-0.2981389068,-0.2068185917,0.9627361744,4.8925992153,-0.7169170583,-0.566297897,-0.8389553178,0.5229724144,-0.7385249981,0.5564949766,-0.0129590881,-0.5860295363,0.0670741476,0.5854459283,-1.230574151,-1.7130886944,4.195474157,0.2723956811,-0.9437075581,-1.1396978202,0.1407040318,-0.9062852895,-1.4282542414,-0.1012799344,-0.0251384359,0.4237176405,-1.194660449,-0.4670363495,0.8168661006,0.1645334035,0.4819360332,1.469900515,-1.4767895851,-1.4676043012,-0.4563379563,-1.8386156966,0.1161025289,-3.7185714064,0.3995535741,-0.1087351407,-0.8037848066,0.0192405415,0.8663405174,1.1740747111,-0.6806539315,0.7465411441,0.0020919961,0.1365159965,-0.0292540936,-2.0083881768,0.181417111,2.5660680998,1.8825468474,0.8563367111,0.4785263268,-0.1549075559,-0.7563094876,0.057419545,-0.322348646,0.9868076052,0.755097026,0.6777328198,1.7316749176,-0.2377648335,0.5650331884,-0.6827057213,0.8536531256,-0.2049662608,0.9387615334,0.1918613003,0.6522675107,-0.1167987768,-2.0677133401,0.5203274045,0.0773028151,-0.1987625504,0.3324253059,-0.0777870617,-0.7008441545,0.9100572913,0.6431482443,-0.9309527643,0.7762387546,3.2075187197,-0.5699154467,-1.1191344926,-0.7912755671,-0.596312898,-0.3719266252,-0.252735774,0.838944633,0.5503317565,1.0747244315,0.9371868568,0.4716162421,-2.3609669481,-0.4867611538,-0.2106584483,-0.1975396252,0.8907133929,-0.914082939,0.4377534669,-0.1070487367,0.6047866925,-0.5438268309,0.6616820435
biasActivation=0,1,1
[BASIC:ACTIVATION]
"org.encog.engine.network.activation.ActivationTANH"
"org.encog.engine.network.activation.ActivationTANH"
"org.encog.engine.network.activation.ActivationLinear"
