encog,BasicNetwork,java,3.4.0,1,1592142597548
[BASIC]
[BASIC:PARAMS]
[BASIC:NETWORK]
beginTraining=0
connectionLimit=0
contextTargetOffset=0,0,0
contextTargetSize=0,0,0
endTraining=2
hasContext=f
inputCount=22
layerCounts=3,38,23
layerFeedCounts=3,37,22
layerContextCount=0,0,0
layerIndex=0,3,41
output=0.0733944855,-0.9999996517,-0.9380567537,0.5422322576,-0.3333619858,0.9999997865,0.3936444062,0.6092967916,-0.5876350685,-0.7883438605,0.9836326519,-0.7363015365,0.9998756595,-0.6781194252,-0.2332758477,0.6193754391,0.9988321736,-0.9009976746,-0.9993614372,0.9746729126,0.9934036176,-0.9988285209,0.9822402273,-0.9758320761,0.9992718029,0.3962020897,-0.9999149077,0.7340000263,-0.9690065572,-0.9280543325,0.1515838212,0.9160191408,0.7259671517,-0.9732895987,0.3294088275,-0.654287768,0.8787146152,-0.4658350131,-0.9078866875,0.9035351329,1,-0.4496050212,-0.9232240449,-0.2444555181,0.9358274252,0.9042604865,0.8217775159,-0.1486989643,-0.6507021385,-0.6440291596,-0.8987466759,-0.8948265945,-0.9123744155,-0.9201977811,-0.8718131334,-0.6858892168,-0.3985034297,-0.9780128671,-0.8832512695,-0.8936479174,-0.9066733509,-0.9151543067,-0.9207593211,1
outputCount=3
weightIndex=0,114,965
weights=-0.1634065757,1.5095197297,-0.2622896092,-0.1539848055,0.1565283298,1.7132774604,-0.2635564796,0.1643604974,-0.4817994753,0.117981045,-0.2729831508,1.2846263544,-4.7027727092,-0.1575215288,-0.60743196,0.1118301479,-0.3196304514,-0.1277445752,0.3609635246,-1.3895508392,-0.0084740746,-0.171863049,-0.4585794605,0.0359981761,-2.7044932111,-1.6704776276,1.9467744,0.3784324196,4.4338834517,-0.1911128947,-0.2389245745,0.192661075,-2.6512311253,-0.27087504,0.3688277325,-0.2096971239,-0.1874884413,0.7095932344,5.4412799694,0.0985232355,33.4279825094,-3.7785499521,-20.6569864998,0.5786357734,12.2197117668,-0.7591711964,-0.4128302167,-2.7494218748,-1.0578568369,-3.1816235431,7.7131361742,3.2538759331,1.2730525558,38.8199985875,-0.9983401926,-28.8956223392,-1.6958302792,-0.1507611716,0.8171875296,5.3336891375,0.8311843293,-5.4464234627,-0.6239898023,-0.4831892569,-32.2632783904,-1.2291449422,-40.2212196565,8.1037238537,21.7366952528,-6.2050702564,-1.0422255829,2.4147885363,-10.8904413429,10.890377058,18.4909524803,0.0387606341,-0.3251243884,0.0599349344,-0.1458832031,-0.2836505711,-0.2788385952,-0.0640463957,0.1157640107,-0.0260723788,-0.9369646974,0.0108087311,0.7990561018,0.4438738701,-0.0411135194,-0.6436586351,0.0023819555,-0.7789227612,-0.4135095882,-0.4056612961,0.5048989419,-1.6440746527,1.4839726933,-0.4199375116,0.2335778021,0.0122236772,-0.9326851751,-0.8996656822,0.9913636541,0.2035106075,1.2356873751,-0.0795277097,-0.0917862881,0.190482707,-0.5985995557,-0.0132071795,-0.9962304831,0.2355042522,0.0491843913,-0.0464348744,8.9150176396,0.2829739531,1.2968753158,-0.3630613958,0.49469496,-1.3377112224,0.763091491,-0.8343651147,0.8250533241,-0.34962624,-5.0502405748,-2.6422553759,1.7748050648,1.216815587,0.7532162651,-0.0265919838,-0.0027829974,0.3556844111,-0.2517464515,-0.7917348424,-0.6598695755,-1.5743267341,-0.2987279755,1.3667641022,-0.1665991715,2.1126437738,-0.0614220984,-1.0419049336,-0.4583609111,1.4176272517,-0.8999020648,-0.4330588258,1.7255704489,-0.103905989,0.4560843179,-0.4077639662,0.6303257665,-0.2565400018,0.2031154834,1.6971490492,-1.9653692512,0.2068277961,-0.9554115164,0.5258347105,0.1497419481,0.705580635,1.3038966365,-0.1699649937,0.1254223183,0.2742399133,-0.7935060673,-0.1188823425,-0.4843669802,-0.4816847946,0.7013266565,-0.324863919,0.750182379,-0.9806552679,0.0411913553,-0.8459102403,0.0158066141,1.1123370008,-0.609249397,-0.4325056766,-0.7252902492,-0.0449283117,-0.2966984584,0.5084439732,-1.1706699767,-1.4402985382,-0.6353989035,-2.865230541,-0.0827406797,-0.6155700008,0.8007006559,0.7065137854,0.0339614198,-0.0249635976,0.7240698245,-0.5701279547,-0.9330911618,0.822378184,-0.2063070266,-0.9353682405,-0.7475047183,0.3184406813,-0.3375061893,0.3393938073,0.0855718744,-0.5179404578,-1.109630268,1.1576798305,-2.8141405147,-0.8319458821,0.2010289459,1.4014369928,0.0886870596,0.0006584035,-0.4611408712,0.3512874767,1.3145026624,-0.2611861933,-0.0971965308,-0.1898397313,-1.0204692976,1.0193063276,0.8205098936,0.6243384993,0.0597736656,1.0192967767,1.1668790827,0.2613189913,-0.5230865295,-0.7550347524,0.3855865808,5.9851394926,0.6077718906,-0.7358812778,-0.0439202181,0.279965145,-0.0961390384,0.3824308368,0.3915057874,-0.2474225442,1.4721925071,0.8306930894,0.4554974388,-7.9304495928,1.3758352433,-0.2551882289,2.4420718384,1.8745277116,0.3373841107,-0.7847720289,-0.5416906671,0.9737085718,0.6378712113,-0.1074461257,-0.6967607451,-0.1123136974,-2.0501075734,1.1425633636,-0.7491627333,0.0670373142,-0.5526433733,-0.2957863,0.4411818174,-0.2275000709,-0.6603789953,0.5774458522,0.4842288027,-1.341579851,0.8906607472,0.4065978263,0.9780812698,0.936086859,0.7422833041,0.5739361308,0.9518594752,-0.0664115597,-1.2764281486,1.2531843154,1.4414295162,-10.5374714058,6.5073545154,-44.6886403978,4.5946988894,12.7913447907,-10.6051541214,6.1323973668,-1.1245548562,-1.4108834217,-4.9224915984,0.4158735836,-7.4399294567,-9.2374690335,-4.891203155,5.7325949264,-26.5944762077,4.2804445044,-2.3490185412,-0.7470496331,4.1748598792,-1.595871873,0.0423935004,0.0442893014,-2.0315159351,-1.3835426385,-0.614883369,0.4271403595,-1.1714127353,1.9465488454,0.2371697861,-0.3768446134,1.1548966827,2.0815781483,-0.2537678457,0.9105154944,-1.0857907791,-0.7269774785,-0.5441777776,-0.9360918211,0.0062774808,-0.4400673983,0.5663086073,-0.268199549,-0.3678265074,-3.7435411952,0.2277311395,9.3034087271,-2.0469784314,2.0698641575,-1.9715984522,0.6675435177,-0.6394428667,-0.3149966944,-0.1813589302,0.6246682539,0.1115222096,-2.6331910994,2.6169656805,-0.7012506198,-0.7577005617,-0.749644296,-7.613124593,0.1459243955,-1.2620437009,0.5737702283,-0.9461352555,-0.523391698,-5.3372248648,0.6378419854,11.0685997941,6.6753933131,0.6704737307,0.8074960712,-0.2326943019,-0.3777537181,-0.7016913448,-1.016039874,-1.5071795418,4.1180034788,-2.5671636616,-0.0796060763,1.0110504909,-1.2377517683,-2.4288732347,6.8330449224,-0.2440995405,0.405112701,-0.7181844826,-2.1496306232,4.7975960742,-2.3731727913,0.4165650519,1.1828612023,-0.0186989198,-0.2768118082,0.6876534177,0.0071256938,0.6598243224,2.0163909034,1.0118848778,0.9219541757,-0.9550599944,-1.2803679436,0.4619212371,1.3998190138,-0.5108936071,1.6141949284,-0.1635195375,0.0502425127,-0.5905001008,-0.6653357813,0.5785998251,2.1433429306,5.2172551068,0.9991827575,-0.9681389447,0.3234516162,-0.9065230996,-1.5768952173,0.6767316132,0.0843856392,0.7667673,1.2204232188,-0.5022026787,-0.3259979626,-8.2768180927,0.5280364001,-0.3139724025,1.2817159147,1.2723152387,-0.9466026263,-0.1963464639,-0.0153387965,-0.9730374941,-0.1396801356,-3.6849006943,-0.1385929688,-0.5248328764,-1.4675718864,0.8869969647,-0.5093452706,-0.6331228416,1.039615886,0.3509307524,-0.203510567,0.481702551,-1.0713596638,2.480152866,-1.2573907644,-0.5425701882,-0.7488482768,-0.3348479793,-0.7331799693,-0.6890426781,0.8905346857,-0.8922339392,0.7925659819,0.831351585,-0.0249840438,27.9971244562,0.3240968986,-54.1591508745,-34.4041141361,-2.3256988252,-1.9220631262,-0.336743857,2.7297685406,0.308144478,0.3527703539,0.4327269027,-11.5492121356,14.1767511747,29.1118308582,12.2815344224,27.96502123,7.1209118011,16.9100625375,-0.0124707176,-0.467832709,0.1667581722,1.2175325712,-0.5334782728,0.3884881106,0.4815200686,-0.6186715753,0.424457799,0.6759770413,0.2654909943,-0.4358699184,-0.3334485719,-0.3516351262,0.2648779841,-0.572028776,-0.47652714,-1.5812055914,1.1406167493,-0.5201872372,-0.1315453172,1.0862103082,-0.8878369096,0.3810364366,0.1554819656,0.8173737309,0.0586141171,-1.0119551183,0.0319367543,-0.4569823455,3.0766943798,0.5290363312,0.7469028449,-0.9364191903,-1.298877964,-0.1066371385,0.0199844683,-0.6909786413,0.359894079,0.9407860425,0.2512845134,1.0469377897,0.8002752467,0.138163262,-0.5256507833,-0.1510961042,0.3543470226,-0.7380944734,-0.2916477612,0.655739089,-0.431308209,0.8903091116,0.6613368053,1.020346083,-0.326282361,0.536945851,0.4708532109,-0.763393881,0.3053681624,-0.3319009767,0.5026786322,0.8803936798,-0.7192278566,0.9989518561,0.8475685604,-1.0807007878,-0.1753642994,0.2715772287,-0.039275366,0.2487545657,0.8490837398,-0.1553367965,-0.9478240577,0.2881561258,-1.0802451464,-0.3538900104,0.6382720669,2.3021744818,0.3004720458,0.5811654611,-6.6416854905,0.8706914646,-0.0011636595,-0.2014243172,1.2687046263,0.0767421025,-1.6804141497,0.50321836,3.8356789379,0.4791835915,-0.2522885801,1.0117240279,-0.0434608045,0.0552273514,-1.0605550105,-1.4080979557,-0.1987992916,-0.3532876822,-0.3780628035,0.6716657208,-0.4668942109,0.008441853,0.367395046,0.3546205141,-0.5400156066,-0.7277785706,-0.0539500885,0.0006403325,-0.2102103591,1.0425533849,-0.5210080572,-0.210184001,0.6695984477,0.5782347438,-1.0792278921,0.066175709,0.0415040061,-0.2683132709,0.9465689342,0.4644025584,0.6314964683,1.9766690108,0.9737254686,-1.7067639287,-0.9071348035,-0.5805953566,2.6461670724,-0.8362201129,0.0677828365,2.7156887751,-0.6895882771,-0.9369813996,-0.2636190579,-1.9739163371,0.9952566114,-0.2053220509,0.6142406255,-5.4874894334,0.0047041305,-0.1941710571,0.9851387849,0.1766733368,-1.0499896501,1.4878759113,-0.6840201433,3.3706430577,0.0429416578,0.4401948847,-1.1140697521,-0.6727584758,-0.3369368574,0.6669127186,0.4788129777,0.1404710789,-0.5934849135,-0.7511477747,-0.4381049824,1.8689021684,0.6644613939,-0.4856394612,0.8412299407,-0.1530481106,0.7601090382,-0.8149244099,0.606026929,-0.8937100445,1.3082417103,0.0914432134,-0.0248982691,-0.3101041287,-0.3788136135,-0.3777353249,0.8275381708,1.0237378839,-1.1068711078,-0.9240826383,0.2194210681,0.3621221191,-0.5694035882,-1.1367624701,-1.2750674793,0.1017401314,0.7528666367,-1.6023528677,-0.1155127943,-0.9149039588,-0.1664753744,-0.3508886483,0.9127938685,7.6536185634,0.3132483111,1.5785737424,0.90716066,1.1756435365,-0.6942122316,-11.4105858269,0.2259609029,1.8871039965,-0.7675529791,-0.9837798574,0.178647957,0.5811338452,0.7448913365,-0.6364641157,0.3557091394,1.9669780693,0.7784756775,0.3860435889,0.7429527173,-0.1677003132,-1.1015514882,0.5557467956,-3.027975945,-0.7099647045,-0.1018273625,0.636205194,0.8533776735,0.7443938001,0.0879742704,-0.5129498609,0.1369251531,-4.2750708078,-0.3452538156,1.3163867162,-2.7759771206,0.7678758966,-0.9676274442,0.0469854004,-0.9162966968,-1.141864768,-0.1090921329,0.2200315946,-0.4019675489,0.9697088457,0.7379773004,-0.0168221711,0.3508971994,-0.8361139479,-0.0569200755,-1.7262982444,1.7260839395,-0.6487578111,-0.3541017516,-0.8101189878,-0.1200936516,-0.5123868672,0.1094788953,1.2292681549,0.5078126239,0.187879078,-0.7943398518,0.3357111109,-0.8463036347,0.3288057499,0.5767973926,-0.8361854336,0.7317514171,-0.904769977,0.3218108648,-0.6036922837,-0.0424476554,0.7717690818,-0.9622009155,0.1934725225,-0.7942081895,-0.177348323,-0.5112638065,-0.9818329406,0.1020298645,0.651590246,0.8772183924,0.5747334202,-0.0229174553,0.723017662,-0.9128992063,0.0227778989,-0.6608725247,0.6878323584,0.9696768457,-0.1144061491,-0.3799260671,0.0486137652,-0.6282509665,3.6604402065,-0.2870217635,-0.5288418775,0.9990127401,0.0677640823,0.0318969138,-0.3400892258,0.363783042,0.51363371,0.1225384836,-1.2150187193,0.7027910857,-1.4410317913,-0.3282800464,-0.9191480813,-0.9412541385,-0.3293209662,0.2050353395,-0.706804774,0.3398826039,-0.1766690202,-0.6370842869,-0.401705691,-0.4170945978,-0.6739903145,-0.5660527408,0.535369284,1.1329042836,-1.0405561066,-1.1774185122,-0.5178039789,-0.2738529,0.5685754707,3.274513892,-0.7441460268,-1.0520178495,0.081839779,0.4502881391,-0.1053394548,-1.205960852,-0.0576177146,0.6016115457,0.7264168489,-0.1779697601,-10.6326300585,0.5558016765,-2.6411713761,0.0230223033,0.3910523846,-2.0638269526,-2.0103744367,-0.5052673575,-2.3070573548,1.1419930719,0.5110407355,6.8048250407,-1.8770876876,1.6110431421,-0.0127245837,-1.2589238561,0.8754952492,-2.4623574067,-1.0859739025,-0.2186237623,0.0422194639,0.7917589525,-1.1369699316,1.669355211,0.0871402005,1.5961335327,0.1952092897,-0.6686322276,0.1939587291,-0.4336287373,0.3121723054,-0.1052715977,-0.617686056,-0.3392503346,-0.9892815535,-0.2705124559,0.4503438111,0.8721041776,0.384314303,-0.1028937931,0.9198866097,-1.2727478849,0.8498985441,0.2665929187,-1.2179863747,-0.8141142084,4.4619833235,0.6967252978,1.013393231,0.1239171138,0.9087803009,0.1352921398,0.1894693685,-0.0464872074,0.1420065207,-1.1134891978,0.1815868879,0.3676393668,0.1957858439,1.4962803068,-0.6795132987,0.2203794219,0.3972696987,0.8814614279,-0.2518961732,0.4519135252,-0.0779485138,0.3946718456,3.4909599481,-1.3078917718,0.6466074106,-0.0832337222,0.8320515831,0.9070292053,-1.4384755569,-0.706162763,-0.1137754601,-1.8845373534,-0.3641730966,0.0855437181,1.2571268275,5.1125090738,-0.7707215308,-0.547981262,-0.5505307899,0.5372110364,-0.6985177116,0.4383151513,-0.0688937187,-0.628763199,0.0045202536,0.6592129076,-1.115935485,-1.8726338588,5.3370575072,0.581443841,-0.7168930881,-0.939697122,0.1397039491,-0.9110781848,-1.447950379,-0.1001380525,-0.0114800827,0.6085380792,-2.3344231777,0.288685929,0.8219979931,0.1719508253,0.489482098,1.434789823,-1.5332066776,-1.568169838,-0.5848342585,-1.9422318561,0.108325998,-3.6547391501,0.364469731,-0.1654574452,-0.7797539655,0.0332763933,0.8933024897,1.1652264345,-0.7232644583,0.7350233022,-0.0430285175,0.106235912,-0.1213247054,-2.0572212307,0.0937870898,2.5724741972,2.327924063,0.9103318584,0.5427549847,-0.1189433838,-0.7516860113,0.0444957299,-0.353333832,1.0911979652,0.7897788029,0.6785217048,1.7617780664,-0.237267709,0.5689476242,-0.6819329285,0.8556058125,-0.2047916512,0.9386000454,0.1920091402,0.6521848927,-0.1168288651,-2.0682380194,0.5184500648,0.0769833128,-0.1994559308,0.3318832647,-0.077843153,-0.6993576937,0.9135313077,0.6466590511,-0.9287300809,0.775628785,3.1547118633,-0.5665239516,-1.1023186358,-0.7989984725,-0.6075814467,-0.3928260333,-0.2485042596,0.8418131413,0.5517787444,1.0829120384,0.9395238284,0.4779509558,-2.3608667216,-0.5356616757,-0.2053116199,-0.1925698471,0.8938067653,-0.8930683098,0.4479156339,-0.0963820671,0.6098760766,-0.5443226778,0.6379117423
biasActivation=0,1,1
[BASIC:ACTIVATION]
"org.encog.engine.network.activation.ActivationTANH"
"org.encog.engine.network.activation.ActivationTANH"
"org.encog.engine.network.activation.ActivationLinear"
