encog,BasicNetwork,java,3.4.0,1,1592130379356
[BASIC]
[BASIC:PARAMS]
[BASIC:NETWORK]
beginTraining=0
connectionLimit=0
contextTargetOffset=0,0,0
contextTargetSize=0,0,0
endTraining=2
hasContext=f
inputCount=22
layerCounts=3,38,23
layerFeedCounts=3,37,22
layerContextCount=0,0,0
layerIndex=0,3,41
output=0.0733944855,-0.9999996517,-0.9380567537,0.5422322576,-0.3333619858,0.9999997865,0.3936444062,0.6092967916,-0.5876350685,-0.7883438605,0.9836326519,-0.7363015365,0.9998756595,-0.6781194252,-0.2332758477,0.6193754391,0.9988321736,-0.9009976746,-0.9993614372,0.9746729126,0.9934036176,-0.9988285209,0.9822402273,-0.9758320761,0.9992718029,0.3962020897,-0.9999149077,0.7340000263,-0.9690065572,-0.9280543325,0.1515838212,0.9160191408,0.7259671517,-0.9732895987,0.3294088275,-0.654287768,0.8787146152,-0.4658350131,-0.9078866875,0.9035351329,1,-0.4496050212,-0.9232240449,-0.2444555181,0.9358274252,0.9042604865,0.8217775159,-0.1486989643,-0.6507021385,-0.6440291596,-0.8987466759,-0.8948265945,-0.9123744155,-0.9201977811,-0.8718131334,-0.6858892168,-0.3985034297,-0.9780128671,-0.8832512695,-0.8936479174,-0.9066733509,-0.9151543067,-0.9207593211,1
outputCount=3
weightIndex=0,114,965
weights=-0.0030247317,-0.6259625261,-2.4719130853,-0.0457353199,-0.1166982836,0.1527980673,-0.6478147606,-0.4102094137,0.1653271831,-0.0912746919,-0.1132318047,-1.2796349977,0.06600109,-0.0752776885,-2.3137188425,-0.0472908517,-3.3803081517,-0.0935279944,-0.3206816895,-1.3682582016,3.2573133827,-0.1375971071,0.0110999375,0.4075139287,-1.6744160522,-1.9786817154,0.009778267,0.3807446556,-0.1614768092,-0.3246330405,1.1097186227,-2.0638851271,0.1646919355,-0.4004335327,-0.8356357583,-0.4197622977,1.8009429404,0.0621052565,-0.3240935506,-1.0727722777,15.8926474065,0.3268680313,3.3542490006,-4.5303588686,46.3414939205,5.1192049483,-19.2153998545,-0.2353921164,6.6597822083,0.7000107239,-1.9774921357,0.5071017317,11.1649051691,-0.2986661523,-1.7919936779,-0.3130220822,3.8454752168,-0.2425859691,0.2380781621,6.3229459938,-10.5237270222,-15.8007266109,-0.1813940528,-30.9683056416,3.0616960179,4.1920750431,4.9496465457,17.1408439629,-58.4792182237,1.4193972117,-3.4915090416,49.8287007611,26.1995862842,7.6303387447,-29.6380375231,-0.2150512297,0.0704611405,-0.1934880104,0.9226740689,-0.0417798237,0.1180675144,0.1297948331,7.4164623334,0.0102073629,2.9114967553,0.10178888,0.8554076904,-2.0050830154,-0.0174140782,0.0218636077,-0.2296035422,-0.0408344129,0.2477899577,0.1159603726,-0.2046408076,-1.2726439843,-0.5422374617,-0.1590578663,0.0119095839,-0.1539224622,4.6540439571,0.5311911558,0.0277795058,-0.4367890457,-0.2252469766,0.3622566506,0.2798386039,-1.2229543782,0.064405254,-5.579212453,-0.1232442036,-0.3688139542,-0.6524713709,-0.0485525305,-0.0486723363,0.0367237794,-0.0945719552,0.0682185597,0.0744893322,0.0580578075,0.0265609906,-0.0025132172,-0.0661600384,-0.8645891056,-0.0298328256,-0.0642250619,-0.0975778081,0.0072332755,-0.0461653028,-0.0275578017,-0.7456778589,-0.0164558469,-0.0125100941,0.0604996996,0.0638899605,0.0323248909,22.5549897624,-1.2050728305,-0.0507923272,1.5164461321,0.1639841,0.0512025059,1.3108833683,-0.02356036,-0.8073568561,-0.275899176,-0.1045964545,0.3247560891,0.6445531371,1.0655356366,-1.8750395268,0.1034165666,-0.0107797208,0.0692285092,-0.1397227439,-0.0225409436,-0.1184014371,-0.464628283,-0.0543541503,0.1878633369,-0.1719213887,-0.0265943609,0.3527302224,0.0941558467,0.0255466269,-0.246334816,-0.095740895,0.0544309275,-0.1180975547,0.0108586409,0.0091784111,-0.120482993,0.0259150511,0.0044470186,0.0467008409,0.1054662343,0.0136219856,0.528997638,-0.0518999186,-0.0525067055,-0.3859410974,-0.0023042247,-0.0779467871,0.0532107836,-0.0919338451,-1.1378448323,-0.0588981227,0.0865550356,0.0404932447,0.440353049,1.5818705949,1.6145482434,1.9013599899,1.9892390276,4.5908547494,0.524793736,3.7994891177,0.538104958,0.2095424414,4.4972002428,0.0121556528,-0.4513360556,0.0771736784,-0.066052239,-0.0927253748,-12.2078812334,0.093144753,-0.0557447247,-0.2513182442,-0.0555949262,-0.0919859491,-0.0264944406,0.1014840208,-0.0060125305,0.0502336445,0.0688486292,0.0904593663,-0.0037389451,-0.1355901261,-0.0170015548,-0.0801969464,-0.0507510956,0.0559159644,-0.0011457248,-0.0740768697,0.0625108098,0.0481900167,-0.0063326204,-0.1260452243,-4.8629863339,-0.0893603355,-1.1217601472,0.0698922121,0.0332248495,0.1300778206,0.0093183105,0.0281969276,-0.1058370982,-0.0170285957,1.4404747659,-0.7226607622,1.0533481578,-0.5521917161,0.1728576879,0.081444842,0.0654375472,0.1598799411,-0.7757551321,-0.1053293782,-0.0896938839,-0.037066431,0.0741091799,0.0317897094,-0.07053009,-0.0260528531,-0.0351519627,0.0360712769,-0.035418468,-0.074120379,0.0918941889,0.1190541186,0.1144278958,0.063287034,-0.0826343868,-0.0061133481,-0.0416204727,-0.0399071635,-0.0710999849,-0.0542204388,-0.1116167216,0.0335589512,-0.0981211056,0.0544240878,0.0739216716,0.0173704107,-4.3188072931,-0.1173037408,-1.3358676628,0.1356125547,-0.9644426977,-1.6111001715,-1.7840390918,-0.8873820954,-0.6097938535,0.0190877958,-1.223451964,2.2597525016,6.2585290859,-0.4467695086,-0.6729030692,-0.9488757262,-0.1589728841,-3.7539187806,0.0522778729,-0.0177677099,-0.016286079,-0.0342713781,-0.1483675547,0.0456701382,0.0350251808,0.3094762143,0.086007376,-0.0493727719,0.0858497946,0.0073777856,-0.0483492201,0.1127013288,0.0618065138,0.0369750607,0.1141131242,-0.1409302305,0.0431225775,0.0811795744,-0.021961695,-0.0919857135,0.0548456572,0.0179262345,0.0836412581,0.1159817493,0.1231298606,0.0823501058,0.133210051,0.0741137363,-0.0767157732,0.0391002333,-0.036365469,-0.0460964707,0.0611366072,-0.0828851043,0.0832847439,0.0084991835,0.0204618811,0.0281396925,-0.2806325648,0.0550530502,0.0494460752,-0.8525814787,-0.1536516309,0.3863723714,-0.0338486334,0.0890664425,-0.0404213006,-0.0101211425,21.7884241077,1.9923476751,-0.0132739571,0.1399996967,0.0895912039,0.087213566,-0.1185943391,-4.7595331133,-0.2770258092,-0.1346988924,0.0230267563,0.3208123736,0.0572539209,4.5655684329,0.3731976213,-3.1076599877,-3.6738404323,-1.022203133,-0.3354670146,-0.337133238,-0.0568677192,-0.1343092795,0.8022839326,-2.054910893,0.4035622724,0.0497882292,0.4501458452,0.0358625673,-0.0480138295,0.0836308106,0.0829684191,0.037168053,0.5157656274,0.0227523219,0.0198718167,-0.6918433984,-0.0586849915,0.0493325717,-0.4115463456,0.0611271413,0.0072925571,-0.683100032,0.0566260295,0.1272977874,0.2101271398,1.4247275318,-0.0329163637,-1.6961093125,-0.1550384931,13.3262226574,0.0227274469,-0.0015175336,1.7734024301,-0.1152040309,-0.0602648421,-0.1051682815,0.6029525655,0.0719485471,1.6474127159,-0.6541247401,0.3437478516,-0.8799782849,-0.0051379009,0.1048858167,0.0489773959,0.0567190259,-0.0074097964,-0.0803600621,-0.1689619587,0.2989692124,-3.0733216564,0.2561248176,30.0612934871,-1.1166063294,-2.2878583773,-3.4972595558,0.7481376995,0.5898672316,0.3513569484,0.3714733688,2.343117703,-1.1794660207,-6.7452956091,3.4286044998,-2.9114706076,-2.7263377611,-0.7682210736,-2.1218889659,0.2888409641,1.6619500684,5.2212360574,0.404427668,-1.2228001687,0.0559384905,-0.0193961288,0.0341885663,0.1088756927,-0.0541840441,0.0023399796,0.0678119001,-0.0374660653,0.0515911621,-0.0648733215,-0.028563743,-0.0828090086,-0.0554325904,0.0390802886,0.0372264201,0.0246654369,0.0700506783,-0.0386215934,0.0687503599,-0.021278568,-0.0034003504,-0.1063084606,-0.0748603698,0.0543588335,-0.0681975332,-0.0264954037,0.065353434,0.029376254,-0.0184244165,-0.0464724845,0.0037338175,-0.0898592553,-0.2120644695,-0.0758921249,-0.0280530136,-0.0910924766,0.0849535912,0.0119704031,0.0496729431,-1.2322699742,0.0473584499,-0.0231367437,-0.0373193579,0.0757581928,0.0833136821,34.8810643024,0.2065036517,0.045041323,0.0725352309,0.0848539921,0.0690057844,0.0355168773,-0.0344748834,0.0473686819,-0.0383585869,-0.0341392901,0.0372649318,0.0167794228,0.1055417524,-0.0581225969,0.1003165065,-0.0736378246,0.0634530747,0.0186997877,-0.0206015671,0.0788316843,0.0439555287,0.0470578291,0.0370435274,0.0718312364,0.0354378338,0.0735779549,-0.1681952486,-0.1505408805,-0.0615377324,-0.0802472989,-0.36572913,0.0086514887,-0.0616654524,-0.0505742394,0.019445061,0.0724135715,-0.0706581361,-0.015837607,-0.1264035671,-0.0035792896,0.1035620796,0.0422003594,-0.0387155684,0.09443818,0.0195997088,18.8659145975,1.3943612196,0.1422020332,1.931554695,-0.1583134485,-0.5747135839,-2.9764348299,-0.1072068517,0.0964646716,0.1333017911,0.0637704897,-0.285246243,0.0167674616,0.0962385948,-0.1338113816,0.1838284452,0.0320846972,0.0958740984,-1.0834975801,0.0656707052,0.47563924,0.1124240446,0.1674786077,-2.653469369,-0.8527884582,-0.0498451322,-0.2555875616,0.0817118869,-0.1404396146,0.0556843504,-0.0120809539,0.2662159444,0.3913580621,-0.3224401422,-0.0762977751,1.1073967386,0.5265730342,-0.2017449964,-0.3495223276,0.1648766883,-0.0150122948,-0.7437664218,0.0362271089,-0.0873758282,0.062721031,0.0775714404,0.0679220587,0.0504468282,0.1485169952,0.5535600329,-0.2597432473,-0.030355396,-0.0121030201,-0.0477237835,0.1001224773,0.0451566697,0.0353585526,-0.162728805,-0.023118404,0.3835728903,0.0758607982,0.0772844462,0.0712039641,0.0675376907,-0.2781993943,-0.0172924044,-0.0594593122,0.0946365178,0.0502420932,-0.1247055742,0.0136739284,-0.1000425419,-0.080077377,-0.0230775805,-0.0410340998,0.0108477567,-0.0502344094,0.0548679468,-0.014026441,0.0716257894,0.0011367744,-0.1015651647,-0.1000245565,-0.0417308746,0.1026002036,0.001561362,-0.0208946269,-0.0533828215,-0.1046007664,0.0044433674,-0.0244099847,-0.0383580244,-0.0258004515,-3.2960839071,-0.0179994008,-0.3201566778,-0.0358035062,0.0005582868,0.0541315449,-0.1124605803,-0.1007314514,-0.2886690912,-0.0844968385,-0.2628025509,0.1173373831,0.025363538,0.97464473,-0.2261927433,-0.1694966479,-0.0304004078,0.7508484936,0.1518438745,0.0322547621,0.0863401478,-0.1007938435,1.1160659454,0.4434884771,-0.0568697566,-0.3854559588,0.0323047952,0.0467535585,0.4773612097,0.0168554616,-0.0407229779,-0.0368056411,0.0692312481,-0.0541905857,0.1709627525,0.2828439153,0.0420483045,-0.0720976425,0.0217237193,0.0110078047,-0.0609358644,-0.0596465161,-0.0127356501,-0.0601340767,0.008669237,0.4028004238,-0.0868560114,0.0148147318,0.0103313321,0.0086209772,-0.0858171478,-0.063622231,0.2108838686,0.0850125007,-0.1502745084,0.0657313949,-0.029287889,-0.0250170412,0.2274640435,0.0164096309,0.0898759184,-0.0174968152,-0.1167840619,-0.0362375566,-0.098869394,-0.0092986012,0.19038761,0.1355716073,0.0729156264,-0.2434619602,-0.0371506487,0.094661538,0.0584910791,-0.0721251003,0.0624474709,-0.0956585268,-0.0621035284,0.0446853483,0.0671531361,-0.0475474067,0.0214765418,0.3462859637,0.0064245314,-0.013341879,-0.0795187358,-0.0704646298,-0.000847443,0.0283328521,0.0521872593,0.0986338079,0.046303899,0.0581771305,-9.8825996741,-0.1909509031,0.1282884163,0.3100732486,0.0644298931,1.4161525422,-0.1159572685,-0.0391348231,0.5989911952,0.2430811975,1.0553314641,0.0729730649,-0.8767006546,-0.6354345754,0.1422016644,0.271505862,-0.9319884073,-0.1364346451,-1.4956765706,-0.4984422592,-0.2861238628,-0.0405264501,-3.835433767,-0.1772610504,0.2852200849,-0.2206152799,-0.0636915546,-0.029955485,0.0061651393,-0.0495844839,0.044160309,0.0214290676,0.0066444673,0.0208380357,-0.0672933068,0.0621266621,-0.1011987921,-0.0194745842,-0.0558541574,-0.0254636371,-0.0976762121,-0.0965780303,-0.0172302999,0.1788090955,0.0321261227,-0.121011355,0.41230478,-0.0760424289,4.2156509405,0.0832038443,-0.0752226785,-0.052702596,0.3758167619,0.2474151796,0.5419776207,0.0168621554,-0.0391862039,-0.1877090908,-0.0750810157,-0.3854183525,0.0673580628,0.1375036951,-0.0580312886,-0.4478551664,-0.3205226088,-0.2186294176,-0.035668954,0.0594146493,-0.1235660338,0.9939021647,0.0174406673,0.6006799911,-0.0059450639,-0.0464832932,-0.2474348294,-0.0358524585,-0.0051171125,-0.0410548115,0.0070201522,-0.0651408052,-0.0457323731,0.7848397874,-0.700627712,0.0491488736,0.0669403753,-0.0658982637,-0.3632181801,0.0241243366,-0.0082517899,0.0032356615,-0.069585775,-0.0453523735,0.1650262945,-0.0649953941,0.0822030533,0.0235330459,0.0508635961,-0.0590252482,0.0638554743,-0.0987435482,-0.0484701359,0.0073841241,-0.0090542707,-0.0088891534,0.0528462239,0.3093485362,0.0134414117,-0.0101195315,-0.0310442737,-0.0673454418,0.0791360022,0.0100609238,0.0094422702,-0.0536390752,0.04562228,0.2461518767,-0.0504969098,-0.1982825283,0.0532051993,-0.0660048833,-0.1499230127,0.0289958125,0.0920520069,0.0132600223,0.0481851792,-0.20819958,-0.1079905513,-0.1075886904,0.0586606688,0.0372150768,-0.0084541229,-0.0272260216,-0.0021190854,-0.0646229477,-0.0563258818,0.038540652,-0.0658360358,-0.0297184881,6.671750584,-0.0268590569,-0.6100451241,0.2851363013,0.0349868976,-1.9216961537,0.1315984497,0.400081905,1.3062643661,0.074780087,0.7963012409,-0.4973939507,-0.8269040618,-1.9327647708,-0.1002072703,-0.0654197613,0.0279007772,1.6559926405,-0.0505843796,-0.4122848345,-0.157408859,0.0422165337,0.0148622158,-0.0478445395,0.0406875689,-0.0006789427,0.0389275612,-0.0537822536,0.0575176359,0.0515250829,-0.0856580286,-0.201062991,0.0158964008,-0.1491953568,-0.0139880105,0.0436341226,0.055639413,0.1059768895,0.0183169221,-0.0028725274,0.0786574062,-0.0207817817,0.0369030214,0.0094097401,-0.0873794908,-0.0978245802,1.2249604187,-0.0915894491,0.1401809139,0.0878263334,0.0829515047,0.4251999886,0.4870064033,0.136514536,1.0347786199,-0.058174359,0.8819961677,0.0338436127,-6.1297558463,1.4895488297,1.1223502784,0.0545791167,0.0399860568,1.0887490172,0.0623371802,0.0598343648,0.0209420504,-0.028336424,0.0221347993,1.4636453228,0.0458907352,0.9073039961,0.0499800841,0.0180783471,-0.5318522089,0.0460251953,-0.4283033254,0.2006085408,0.0099077452,-0.7845564515,-3.0225618625,3.2894468678,0.5503431888,-0.0797889106,-0.0583295303,-0.0465397533,-0.2330701144,-0.0040772904,0.031900448,-0.0186855102,-0.9341291499,-0.118373825,-0.7631749574,-0.0444056151,0.6499333402,0.0174634292,-0.0535869497,0.225754758,-0.0447521894,-0.0983982069,-0.0306304999,-0.0693444981,0.056371049,0.01374578,0.8603079676,-0.0865768536,0.0945293845,-0.0101207406,-0.064735643,0.1472786278,-0.0162339782,-0.0219885448,0.0993847592,0.0044069474,0.7049931416
biasActivation=0,1,1
[BASIC:ACTIVATION]
"org.encog.engine.network.activation.ActivationTANH"
"org.encog.engine.network.activation.ActivationTANH"
"org.encog.engine.network.activation.ActivationLinear"
