encog,BasicNetwork,java,3.4.0,1,1591964859105
[BASIC]
[BASIC:PARAMS]
[BASIC:NETWORK]
beginTraining=0
connectionLimit=0
contextTargetOffset=0,0,0
contextTargetSize=0,0,0
endTraining=2
hasContext=f
inputCount=22
layerCounts=3,38,23
layerFeedCounts=3,37,22
layerContextCount=0,0,0
layerIndex=0,3,41
output=-0.1083152043,-0.9858474108,-0.9809852474,-0.1838784482,-0.2552884537,-0.9921665084,-0.1038743416,0.1001476814,0.9476450988,0.382087372,0.8104707233,0.9684336519,0.9992048481,-0.6794550841,-0.9549215726,-0.9997278298,0.9999745018,0.5526135908,-0.7060971453,-0.9999058951,0.6321847588,-0.1351600514,-0.9990161218,-0.1939400658,0.9999977135,-0.7224787533,0.999164641,0.5798078792,0.8949116169,-0.9973989717,0.999998565,0.9999154126,-0.7244805486,0.9953419067,0.9913175746,-0.5308135195,0.7982943679,0.5827251498,0.003192952,0.9997818008,1,-0.4496050212,-0.9232240449,-0.2444555181,0.9358274252,0.9042604865,0.8217775159,-0.1486989643,-0.6507021385,-0.6440291596,-0.8987466759,-0.8948265945,-0.9123744155,-0.9201977811,-0.8718131334,-0.6858892168,-0.3985034297,-0.9780128671,-0.8832512695,-0.8936479174,-0.9066733509,-0.9151543067,-0.9207593211,1
outputCount=3
weightIndex=0,114,965
weights=0.1935037361,0.0180530003,0.4892600417,0.0983207342,0.8493223078,0.1910509089,0.0659578902,0.8279233149,-0.3653918607,-1.1397452302,0.4846741759,0.5256583873,0.3031757073,0.5095869178,0.091905523,-1.3680697769,-0.2896763345,-0.1274570888,0.4214955089,-0.4626770701,1.2655959724,0.2215885815,0.1667742912,-0.0299513914,0.7234747732,-0.4418155155,0.7857196537,1.2481938369,0.4336976537,-0.300657628,-0.0833144728,1.7800432505,-1.2577004228,-0.3478699721,0.1331610522,0.7550928532,0.7124279591,-0.0957562922,1.0474849793,11.3282325769,3.0185065995,-3.7184130098,-3.8019812826,-5.5753629687,-7.0398868427,-0.4724546385,-5.3372050151,-6.2723407697,-30.4128776692,4.7158010583,-4.7444151942,-6.590356902,-11.9873953756,0.6709425482,-8.9112668762,8.0573763051,11.2667407895,12.7820073697,-18.037374665,-2.1685646103,-5.2071074697,5.7577954275,-34.5466902598,14.6680313327,-14.9002481662,-0.9176121308,-6.4585294043,-0.6145304078,5.7145107222,-68.1364580968,-1.5057136431,-6.8319054126,-15.830193157,-1.305290601,-2.1878783129,-0.3939833716,1.0998203133,-0.363724656,-1.2732887557,-1.4432887853,0.3431126139,0.1076629027,-0.3787721793,-0.0620278567,-0.3284600869,-0.1720674649,0.2564021736,0.9584175165,0.1755535429,0.1137222393,0.1262080246,-0.8452188702,-0.3197444036,-0.0111309798,0.0922624978,0.5172004825,-0.1949370581,-0.0755380611,0.0201584407,-0.6339238805,0.745072056,-0.1518462034,-0.582425101,0.164853016,-0.0785012423,0.7437770146,0.1927269271,0.1335890058,-0.8409511,-0.1584880121,0.1219488883,0.6717713167,-0.5565534979,-0.4942236107,1.2742548039,0.1017094645,-0.1710000844,0.448321792,-0.2549736959,0.422783889,0.8624547403,-0.7425635279,0.675504808,0.5762020182,0.0250304807,-0.9011333873,0.3201890217,-0.1654508658,-0.971454241,-0.7817862893,-0.0217895546,2.2637657506,-1.0541294145,-0.6929865426,0.0888698211,-0.1677732231,-0.3090820177,0.1915938429,0.9694499964,-2.3795574292,-0.0547239735,0.0325591856,-1.435315697,5.2157702861,-0.8392927183,-1.1828023692,0.6855494793,-0.8897939416,0.5762574311,1.5174912955,-0.9892321572,-3.0113849986,-0.5752432597,-0.161173415,-0.7085567394,-0.8588563997,1.0971875022,0.8400225951,0.6117160312,0.2203079128,-2.3758371741,0.0322085579,0.5446501453,0.3183929891,0.4907220578,-0.1703598007,1.8935427637,-0.1166550252,-0.6024936628,-0.3241079391,-0.0440425274,-0.5202993649,-1.1770270171,0.1775053262,0.2229956296,0.3296584036,0.8152981243,-0.5663923126,-0.9453145647,-0.234177467,-0.6486316258,1.2374718598,-3.3105517234,0.5981463341,0.3606530677,-0.0863703226,-0.8600895709,0.5016655579,0.6668680074,1.3174679419,0.3535903027,0.0670056213,0.78123014,-0.2119552137,-0.933812309,0.1752733874,0.4435769964,-0.6769504841,0.2872164617,-0.4189147905,0.1734620482,0.5488191195,0.3997363599,-0.2910489313,-0.5955651964,0.8846534556,-0.04683731,-0.8792269347,-1.2020448433,1.2036164663,-0.2117369985,0.8387549816,2.0055898911,-0.6165195714,-0.4123375516,-0.1582954663,1.3615765004,-0.3864779478,-0.6686679952,0.3267868278,0.0830723869,1.3953018222,0.2767724816,0.4023955316,-0.1902356986,-0.718371972,0.095061631,-0.1318082047,0.1276026063,45.3489660145,-4.9516665736,38.342416359,1.4881290653,-0.1381543093,1.7293155004,4.1915021269,1.818000843,7.253882474,4.8306423083,-55.4947317642,1.7450845113,8.4247146789,-5.7737939823,-1.9553084952,0.35398584,3.4719426352,6.0475585118,6.8631538244,17.8914331954,1.1193498313,-23.5268059091,-0.416081766,2.8879675688,-0.688501577,0.695921286,0.4055860573,0.3497639186,0.3063938612,0.3050186598,0.8818067772,-0.4141108003,-0.3823110068,-0.2647468177,-1.544226261,2.0945130807,-0.7660907861,0.1363936324,0.6412465825,-0.0102769181,0.1764709328,0.4737836875,-0.608193184,-0.2523039537,0.7188446156,1.2290040426,1.1884243274,-0.799820831,-0.7931627999,0.8403978785,0.4475674145,0.0162181243,0.1801013245,0.1420802912,-0.1924853835,-0.6597759396,-1.2459088562,0.7228346444,-0.517160796,0.142978227,0.1996580051,0.6003179237,0.7768907508,-0.4694299641,0.1369799185,0.0920037326,-0.408830817,0.1701098303,0.4717586912,1.0598219805,0.7427750846,-2.2569881729,0.3088549823,0.2316459976,0.1148865848,0.4718760304,-0.878275517,-0.2884995648,-0.2592339939,1.0333162194,0.6733616479,-1.1472414231,0.3453971321,-0.5716270625,-0.1146015087,0.2084466534,-0.3351475709,-0.4005131568,-0.7071738769,0.5739890945,0.1067692415,0.5291632566,-2.4239528983,0.7618930308,3.1205385379,2.2928456653,4.9849082437,1.2933517366,0.9773216462,-0.0317189894,-0.3322294126,-0.7418680404,-0.4011845661,0.3535589797,3.2937302584,0.4851877944,-0.1727111872,0.3234867856,-0.1438816685,0.8551449879,3.2012563286,-1.4471240138,-1.2968035246,-0.5662210879,-0.3026666089,-0.0701664248,0.6828102501,0.5621694092,-1.0077543702,0.4473741197,0.9639717841,-0.4889856885,-0.6713776157,0.5633290079,0.0655068305,-0.302098906,0.9362306236,-0.0852465036,0.2146619368,0.6930506252,-0.5026366768,-0.3800081752,0.0819165744,0.2245020912,-0.6668165724,0.3862446401,0.2233867548,0.719469151,0.5245037819,-1.0902817168,0.6936254517,0.1381971902,-0.5688831412,0.4786759349,0.789421923,0.0953424401,-0.3146618502,0.0005273278,1.2349676802,0.7545610883,2.8349383802,-1.863054277,-0.7018319425,-2.8612889089,0.1878957195,1.3468833173,-0.2396325856,0.2016845347,0.0239956241,0.4660261774,0.343097578,2.9632428098,0.7706224172,-8.4161628128,1.0196490366,0.7689100567,2.2709641632,19.9643192139,0.6533487193,0.0379944736,0.5066545941,0.0113760294,0.2604004512,-1.8961180597,3.9395215698,-0.9318883049,1.1434920823,1.0480140302,0.3609867902,-1.9292849482,-1.1093072545,0.3429451678,-1.4239693112,0.5611634421,-2.3876561765,-0.9981113367,1.9450020421,1.1255827084,-0.1050080774,0.784926903,-0.5444365294,-1.162479303,-1.9263099016,-10.6904805245,2.6761439444,9.8928397493,2.4227998789,0.7417189918,4.8839975052,-1.7129950759,-1.8976794972,-0.9980829257,-0.4848533508,-1.1296128788,-0.6460656593,0.8379950654,4.5057587409,0.6405082799,-0.1021075833,0.3470654001,-1.1769933843,-0.2779787415,-0.0052922956,0.4297813592,-0.0056317562,1.0249836132,0.1766287865,0.4115770926,2.2559636194,-6.2833002866,0.054677094,-0.2458967536,0.1515709299,0.6844758799,-1.1711060319,0.0308924716,0.1500572043,0.77411289,-0.8299309424,-0.5294952126,-0.732652897,-0.4627638157,1.4226290127,0.8136807334,-0.6072178045,1.5639207573,-0.4983682341,-0.7198617816,-0.5642771324,-1.1343482243,-1.0864849391,2.2886782868,2.4376833244,-0.2434437062,-0.0686220427,-0.666549821,0.5047863429,1.149927143,0.1277776041,-0.4978533966,0.510656023,-0.6746627008,0.8940864343,0.3138011009,0.484988995,1.5330976385,0.0578426628,-0.3217022776,-0.080306242,-0.5653273478,0.6154472388,-0.8034308698,0.7663341966,0.9398755416,0.161313624,0.1122854221,0.4728242834,-0.9509390906,0.9790875268,-1.0209652818,0.4598872684,-0.2763684205,-0.4034911897,-0.4516677654,0.0331211985,-0.013105101,14.6295976322,-1.890156499,5.5715117688,-1.1363255791,1.2429322324,-0.1813449267,-3.119325936,0.7334251664,-1.2332852479,-3.7842966253,-7.7528116936,3.801144654,2.1021495975,-0.5567692924,-1.8649465741,1.1476445576,0.6425862558,1.6941157736,2.5375808651,-0.0353298901,-0.9959690515,-7.7237057336,-0.1498646413,-0.6842720233,0.7815293198,-0.0816981528,-0.8748933045,-0.7781574256,0.7311219272,-0.9449643151,-0.1069782975,-0.0147229323,0.7344873743,-1.2810702976,-0.3324688639,-0.8210080586,1.062963112,-0.7541791673,0.6319048285,-0.0894693935,0.772170213,-0.8207532286,-0.7953475286,-0.7370196615,0.3201108242,-0.685182354,0.1387989809,0.0088985483,0.3922086141,1.5938026338,-0.6915594322,0.8751186183,0.5713353898,-0.3440592911,0.0197717988,0.3416530599,1.0675924475,6.114292013,0.241120287,1.9085287644,-1.8572654477,-7.1819089263,-3.1900289383,1.1583873208,-0.0722931643,-0.1594498572,1.6235044912,-0.0663735299,-0.6879366087,1.1162410479,0.6663636948,0.2933476785,-0.2577164882,0.0064235117,0.0977942869,1.0695799712,0.4036891751,1.0419450072,0.576130995,-0.2989779857,0.0506896638,-2.8997775757,0.5359035963,0.3414528012,-0.178558879,0.1254886917,-0.3995542391,0.5915681496,-0.2752088011,0.0806872778,0.0118777454,-0.0358802334,0.0413499641,0.4737818808,1.8711152484,1.986379973,1.020431928,1.0134057808,-2.5732994852,0.5343591784,0.1791371817,-0.1922035769,0.4319843375,-0.9368152623,1.764513964,-1.9528358838,1.78454686,0.2017116456,1.0913828098,-0.0810228016,-0.7282234877,-0.2897180058,0.3562299165,1.7466592779,0.4066312187,5.2373924079,-0.4057822578,17.3484185197,0.1589260879,-0.9304952406,0.9375808864,-11.2171027246,1.0412476215,-0.5017407031,-0.6239879911,-0.1861338181,-0.1430439764,0.4859847512,-0.5690384216,-4.4691673602,-1.1351242027,-0.4127415096,-0.8614999307,0.7447260663,1.0175734256,0.9681775781,0.2892463734,-0.448489067,0.3008837315,0.8655671499,-1.3436314729,-0.3365047558,0.5325710559,-0.0176150537,0.5295806979,-0.2322662029,-3.7082678677,2.1524214179,0.4986648238,1.5787798599,-0.227723361,-2.0105939331,-0.9259110289,-1.0237849535,-0.0641083837,-2.1376193883,0.1851140935,-1.0709082051,0.4977437652,1.7695824974,-1.1712810273,-4.8325309563,-0.7210948468,-1.1307419163,0.4552437123,0.0464142873,-0.52456015,4.0384152923,0.4524935046,0.3151155157,1.2643935759,1.1044552772,0.3911053674,-2.0986977049,-0.5518322455,-0.4780305968,0.3540828288,0.4892457788,0.9018128938,-0.1734932294,0.9808181922,0.1571925258,-0.8301124505,0.4748605634,-2.3101012301,-0.4589611272,0.5359763249,-0.5985641004,0.3837383457,-0.614639744,0.5682306529,0.2287785893,-0.8122966166,0.4948087757,-0.3430030484,-0.0140119611,-0.8507530235,0.2480793503,-0.2824260328,0.9172110519,0.2134509206,0.5544490579,-0.5674427222,-1.0889237438,-1.0303222699,0.0972773136,-0.8424409811,-1.0641524487,1.0495587311,0.2996326966,-0.6770258663,-0.5051718908,0.5966703573,-0.1514207277,-0.0904735306,-0.4683402833,0.3479527561,0.0959512962,0.245940068,0.2747746299,0.6029095567,0.3446651783,-0.6178900993,0.7887764061,-0.9346748722,1.2060502648,-0.1805014758,-0.455331079,-0.0735751343,0.9727684696,-1.9373330135,-0.9560128262,2.4871426884,8.0358560312,-1.6192369306,1.9632060456,-0.3276038793,-0.1001147672,-1.0576993678,-0.450732101,0.5445566864,-0.0022043849,2.9471904766,-0.4550158773,2.0997809929,0.1496636623,-0.1807768307,2.1111904338,-2.9478751053,-1.6059612863,1.4374036737,2.9505677568,0.6122173381,0.9790099405,0.7909229805,5.1034492159,-1.4552260145,-1.130919937,0.2130781717,3.1779540786,-0.4360586161,-1.1021795695,-1.3793227128,-0.8419818133,-0.8465215367,0.5559894833,-1.645609989,-1.4723259086,-0.5177354459,0.0404051786,-0.7667836893,1.0729083066,0.3716243501,0.2779663404,1.6226379873,-0.1623423986,3.5756392083,-0.0624955521,4.0563933398,1.9226077979,-0.3949529165,0.213986487,-0.9389976583,-1.3839183485,-2.1493416676,0.447545592,-0.5622701595,-0.3634406727,0.5073767454,0.1502042662,-3.3966153007,-0.656437798,0.7262654422,0.0994335891,1.0542157646,1.2919907847,-0.0727768574,0.6152847221,-2.5684667455,-8.9657277629,-0.888847329,-0.8909308413,0.9663788346,-0.3862871347,2.5371754471,-4.4514044776,1.2807125154,1.53018706,0.2221292121,-0.6534970683,-0.6126794359,0.3631346587,0.510039141,11.1873026356,-3.4708901254,-0.4442213811,-1.0856398942,-0.9841071309,-0.6864496736,0.2804991957,-2.0545790761,-2.1121492525,-4.2033412231,0.1005421981,-0.3772460491,0.4583568078,0.6224771912,-0.0042110188,-0.3947619564,-0.8573865024,-1.0705418537,-0.8387000582,0.0535852723,2.0794670418,9.5234576601,-0.2961437611,-0.662983565,-0.2629762397,-0.3597347871,0.3052705309,0.649230974,-0.6535218706,-0.6907706814,0.7547641045,5.147548687,1.2633802579,0.5368566017,0.8078982742,0.8620314868,-0.2886169393,-0.172287221,2.4752611974,0.4539958319,-0.8274835901,1.3407414099,-0.4225708893,1.0944733427,-1.7969314387,-0.2533655441,-1.0323508683,-0.5789436405,1.509114881,-0.7787230877,-0.532632909,0.5040451095,-0.3643090872,-0.726001317,-1.1799967077,-2.3098359652,0.6358838651,-2.276552978,-0.6242585552,0.7860703797,1.6975409405,-0.3150415173,0.1663476739,-0.9718711447,-0.4051813579,-0.0404354108,0.8770242587,-0.4576539998,-1.130749328,0.3761826203,-0.4411111443,-0.1075504215,0.5309041242,-0.3410098831,-0.0449775799,0.3968890715,0.2029128953,0.611010506,-0.7431848545,1.0992078115,-2.8420450537,-0.8558912569,-0.6719149908,-0.3215842859,-2.9917512512,-1.5035172329,0.4069425519,0.8081772014,-1.2650261581,0.3624489723,0.871830458,-0.4957655456,0.3548712051,0.8521010151,-0.4463493595,0.0374491244,0.0990347786,-0.3173928612,-0.1111346942,-0.0010824466,0.7503064783,2.1208733629,-0.617769093,1.5403964835,-0.0633299216,0.5912707545,0.2265582915,0.1623276128,1.6944150154,0.3526989019,2.0266782677,2.3105523882,-2.0350262031,-1.1994096456,-1.5251769448,-0.7184302595,-0.2397024063,1.5709843658,-0.681261221,-0.4648580396,-0.1724770534,0.5483378722,0.1168288742,0.0910204466,5.740327199,-1.0348238167,2.4627806221,0.4075573233,-0.4402989451,3.0032889482,-0.8544829073,-2.5347279413,1.9787386911,-5.278338332,-1.5061631138,1.4851249592,1.8695729056,-0.805331851,-0.2599433174,-1.4127719058,1.3008091199,4.4190289361,-0.1260311387,0.2980479781,-1.0778357926,-0.319232548,-1.1975756886
biasActivation=0,1,1
[BASIC:ACTIVATION]
"org.encog.engine.network.activation.ActivationTANH"
"org.encog.engine.network.activation.ActivationTANH"
"org.encog.engine.network.activation.ActivationLinear"
