encog,BasicNetwork,java,3.4.0,1,1591348329097
[BASIC]
[BASIC:PARAMS]
[BASIC:NETWORK]
beginTraining=0
connectionLimit=0
contextTargetOffset=0,0,0
contextTargetSize=0,0,0
endTraining=2
hasContext=f
inputCount=22
layerCounts=3,38,23
layerFeedCounts=3,37,22
layerContextCount=0,0,0
layerIndex=0,3,41
output=-0.1083152043,-0.9858474108,-0.9809852474,-0.1838784482,-0.2552884537,-0.9921665084,-0.1038743416,0.1001476814,0.9476450988,0.382087372,0.8104707233,0.9684336519,0.9992048481,-0.6794550841,-0.9549215726,-0.9997278298,0.9999745018,0.5526135908,-0.7060971453,-0.9999058951,0.6321847588,-0.1351600514,-0.9990161218,-0.1939400658,0.9999977135,-0.7224787533,0.999164641,0.5798078792,0.8949116169,-0.9973989717,0.999998565,0.9999154126,-0.7244805486,0.9953419067,0.9913175746,-0.5308135195,0.7982943679,0.5827251498,0.003192952,0.9997818008,1,-0.4496050212,-0.9232240449,-0.2444555181,0.9358274252,0.9042604865,0.8217775159,-0.1486989643,-0.6507021385,-0.6440291596,-0.8987466759,-0.8948265945,-0.9123744155,-0.9201977811,-0.8718131334,-0.6858892168,-0.3985034297,-0.9780128671,-0.8832512695,-0.8936479174,-0.9066733509,-0.9151543067,-0.9207593211,1
outputCount=3
weightIndex=0,114,965
weights=0.741464453,-0.0391282896,0.5197363802,-0.3015123691,0.777604822,0.014183412,0.908714788,1.6051537891,-0.2043636302,-1.196123441,0.7264755297,0.5717923302,0.7601335278,0.2404349178,0.1633254618,-1.1271710462,-0.0548803103,-0.5595882129,0.7030132235,0.0116201708,0.6731506864,0.2465650589,0.7075408883,-0.0144707595,0.8930255909,-1.3294469658,0.6759126128,0.8308496029,0.4267741102,-0.6573247869,-0.0862970923,0.3934626654,-0.4555511651,0.0641869194,0.8106567421,0.5354091658,0.1191853318,0.0655430813,0.2275631413,0.9242418702,0.4532364854,-2.4525798746,-0.8311442016,-5.516117744,-2.3903142301,0.379521176,-0.2258016558,-0.5955521048,-3.439198003,-0.0830236427,0.6520180959,-1.3779934634,3.5348505333,-20.2868177978,0.7897378893,-0.7866232309,0.3606610311,-1.3413233494,5.8267961981,-1.0645857026,-2.8496651147,-2.4113778049,-4.6770508478,12.9263544523,-0.6250155741,-0.8416234528,0.0741338451,-0.9269940627,2.5136041535,-9.5818902633,-0.360472688,-4.9551304187,-9.4596429277,0.5219429391,-1.868735331,-0.6359613245,0.8069474103,-0.5820570179,-0.6326190889,-0.8394389002,0.7185494577,0.1209592168,-0.6006886109,-0.4452439556,-0.7892240706,0.3038890783,0.1049949963,1.0541741943,-0.0252840468,-0.0355378949,-0.094393745,-0.3632475586,0.7742264252,-0.1537894927,0.32669213,0.0532987477,0.1154736452,0.0248056455,-0.2925834396,-0.0016759422,0.5394199907,0.6699601796,-0.3916073298,0.3369996136,-0.4360121696,1.2268548995,-0.091777233,-0.0221186097,-0.6999247742,0.1114353739,0.1125913101,-0.0482123529,-0.6398797692,-0.6211268036,2.4232733519,0.4155894362,1.0870749529,0.2391618838,-0.4576065163,0.8750395496,0.9766641282,-0.9569773193,0.5520727566,0.4924554151,-0.2631027011,-1.3970281805,0.1124088554,0.0523754443,-0.9957870772,-0.9356987069,-0.1719646524,1.8731695383,-0.7888517345,-0.5294496698,0.2417321024,0.3590024276,-0.2192393595,1.5672864253,0.871665833,-1.0142204577,0.0624577606,0.3533742193,-1.2761197146,0.2794919668,-0.8285774516,-0.7978237319,0.7306200778,-0.7714203797,0.7821826246,-1.0246824022,-0.9234221072,-0.2767848098,-0.5895902835,-0.0784074443,0.0352413868,-0.313289235,0.6410760003,0.6340764656,0.2872223368,0.2673838833,-0.1248026566,0.0982671897,2.9869407811,0.576411118,0.5178065275,-0.3713097619,-0.5243779646,-0.2094716555,0.2290637354,0.2487236461,-0.094119253,0.895877138,0.9922525245,0.6584065931,0.2037700429,0.3622202394,-0.4287391522,-0.27823071,-0.7701832696,-0.150643193,-0.5662332419,1.1494712453,-0.9956146653,0.5633537613,0.3123382639,0.0449293103,-0.8523057567,0.504644206,0.549098122,0.8801866216,0.2686278203,-0.0303823439,0.8738597378,-0.1406940002,-0.9183258323,0.0267540023,0.6360077867,-0.561700716,0.296253108,-0.330832134,0.3349117918,0.6292784331,0.4293481927,-0.2945180897,-0.7116605015,0.7571396397,0.6260750917,-0.6772410402,-0.1342822149,1.0710132759,-0.3490905614,0.6422968703,-0.9606638716,-0.7809415984,-0.6329976759,-0.2987571854,0.9661254569,-0.0077703002,0.1338082642,0.728599039,0.2523848311,0.4164421705,0.4202906713,0.6390545043,0.051114014,-0.4929090156,0.3482680525,0.2041801596,0.2180787046,-5.018066487,0.7625968515,0.9643304929,0.1895191012,-0.1152502512,1.4648262881,-0.5405410422,-0.8300800579,-0.6479232056,-0.4168966032,-0.5928791443,-0.5908204119,2.2987912208,1.1766777876,0.4420375003,-0.3398871125,-0.0621132432,0.5973018783,0.256973537,-0.5768499879,0.6502224767,0.325733272,1.1102004074,-0.7626452048,-0.5035669282,0.6826012651,0.3480619244,0.1573737516,0.0559250889,-0.0861252196,0.8823146414,-0.4919268204,-0.1919810384,-0.3061697323,-0.9148006772,2.3049903248,-0.9420664899,0.1246917335,0.5976660151,0.0141875988,-0.0503842472,0.8177607676,-0.3070194145,-0.0418222574,0.8974897697,1.0442660351,-0.2765120684,-0.479586203,-0.8228321516,0.3503309559,0.406758216,0.0034861073,0.1035794463,0.1092987949,0.0657589358,-0.6243737768,-0.8107461678,0.7771057983,-0.3172480796,0.4011477263,0.1461777095,0.4173522653,0.6369220303,0.3501360111,0.1887681238,0.2927347489,-0.4744557046,0.0868831984,0.5493456698,-0.2668888615,0.8300132017,-1.9492525865,0.2918273979,-0.2675628179,0.1032472452,0.4130448776,-0.8619944493,-0.1557388227,-0.6633690004,0.9912871163,0.3900199793,-1.0335020948,0.0445994398,-0.6582774294,-0.1747570569,0.156805958,-0.3184541229,-0.2643115451,-0.5981662472,0.6190011634,0.1898075777,0.5686284857,-0.4937767105,0.6502191245,0.2436129679,0.6035183726,-0.4264477655,1.1053747821,0.8117817462,0.6522607049,-0.4386487082,-0.8358458017,-0.3869572388,-0.6625876101,-0.0799406864,-0.4896529851,0.1240846168,0.2766804708,-0.4673626229,0.6443323382,-0.632380033,-0.8424379328,0.3578623531,-0.9427947656,-0.2367861193,-0.3257265638,0.6922740532,1.6865323849,-0.9507281592,0.3964765343,0.873506028,-0.5812912674,-0.6454717457,0.5876516996,0.0970223054,-0.277653462,0.5884207345,0.2948401129,0.3418168011,0.6816077977,-0.514101548,-0.3826941828,0.1778394422,0.1887187216,-0.6573396701,0.2353008874,0.1488716365,0.6776651322,-0.5052091928,-0.9497511555,-0.1625249244,0.0101402622,-0.5966296438,0.5856979725,0.1099693198,0.0941813814,-0.2959113722,0.0863396036,0.7466756343,0.7919074019,2.8690293683,-1.4864521289,-0.1672994148,-2.8654227737,0.30835385,1.0554919488,-0.2686346328,0.2759212631,0.1026109082,0.5885457969,0.3427610246,-1.0222693429,0.9170601885,-4.4465286822,0.9056151873,0.573718243,-0.1846856619,5.5391949553,0.5871449516,-0.0541037854,0.4737395951,-0.0799138878,0.0649862732,0.7765750677,1.1542195128,0.770876837,-2.3877226128,2.6396467731,0.8847119064,-0.1301927596,-0.6475456958,0.7100077953,-1.0507569611,-1.1411395708,2.8925363067,-0.9979059613,-1.6664346086,1.3929677265,0.1222938842,0.7918579195,0.0863167291,-0.1021558737,-1.2963418971,-0.9432120832,0.2592076634,-0.2228135605,1.4997309372,0.4325261217,0.3058319499,-0.8617400211,-0.0423591512,-0.5015851886,-0.5321537599,-1.2444947514,-0.8843196089,-1.1956250071,-0.5406510499,0.2292875882,-0.3229210279,1.0648427612,-0.4734739513,1.0364686896,0.8621151362,0.525737654,-0.330655488,0.9204605362,-0.6550519379,0.4926193428,-0.7170965251,-0.2662498118,-0.9007920687,-0.1496102342,-0.4799289334,0.6337575848,1.1234261473,0.1044712524,0.1188284659,0.6838481316,-0.9393481378,-0.6116583623,0.0973460222,-0.9639595291,-0.0622940164,0.7679712042,-0.8444497054,0.3941853378,-0.5540362971,-0.1225548173,0.5197475158,-0.7220706179,-0.1922445078,1.0280341252,1.4144998927,-0.4200049669,0.0930286665,-0.4970027596,0.7557923796,0.791487268,0.1931308188,-0.4144500348,0.6797737264,-0.3241039448,0.6297388499,0.2397123401,0.8718294968,-0.6079590348,-0.4023840659,-0.7901808381,-0.9433775508,-0.6365705867,0.5725217776,-0.8575975347,0.7173117976,0.8833489023,0.7400475442,0.3129622708,0.4253440825,-0.6960418468,0.978956431,-0.8212218089,0.6495916367,-0.1847003614,-0.2524920252,-0.1952619778,0.7222684178,-0.0813590398,0.1250054013,-0.6669805429,4.9091419484,-0.2586810606,-0.2952112358,-0.4429177132,-3.6656760307,0.8054013573,0.1753404289,-0.4271132546,-0.9402681419,-0.649748334,0.5678233426,-0.8195686928,-1.5686634936,1.2081480695,-0.5171368976,0.257774947,0.4060870193,0.5482483776,-0.45087773,0.1919306802,0.0919287032,0.6269233656,0.8570396117,1.2442683288,-0.9285207368,-0.9066779061,0.6564371568,-1.3757119203,-0.1176125149,-0.018017928,0.5851263952,-1.4231504944,-0.3277675053,-0.9204225277,0.4486256411,-0.5671432512,0.4566524175,-0.0934566973,0.6732366205,-0.5099823897,-0.750912909,-0.7117194053,0.3944671707,-0.5330334064,2.1320703885,0.2532737133,1.1418173694,-0.0560409538,-1.0390499865,0.215249405,0.8781522115,-0.1381287729,0.1828452914,0.4473110653,-0.9248483046,0.686591671,1.0944735064,-1.1925414606,-0.2787427766,-0.8641127041,0.5972566601,0.0902232389,-0.411871941,-0.4700226707,0.9680708142,0.206223318,-0.7850089954,0.7030715088,0.6506308031,0.0096811162,-0.2276663462,0.0531340726,-0.3663444744,1.0643520373,0.3901403052,1.0205448024,0.5902177627,-0.5457809536,0.8448948427,-1.1915947826,-0.7740004482,-0.3111761302,-0.5323485369,-0.2119128113,-0.3455501848,0.5254248739,-0.41698593,0.0327458384,-0.151584975,0.343661507,-1.5548821566,-0.250515535,-6.3173248308,2.8705197896,1.2127693387,1.0904374236,-2.6277567842,0.6479733945,0.2239813882,-0.2428048937,0.2396415693,-0.7824265644,0.8062867769,-0.7975691687,1.7521384317,0.1383162352,1.0512097429,0.9554040086,-0.8817860787,-0.4727043769,0.0244226138,-0.7506884772,0.434598078,2.4917949559,-0.4049009277,5.6475814347,0.0749304012,-1.0156958613,0.2372881086,-5.9744322495,0.9858812097,-0.5615038073,-0.7599286808,-0.3215774561,-0.2530770143,0.6250957757,-0.4361049454,-2.9327961388,0.5000617392,-0.5325846068,-0.4482777431,0.6552577907,0.6627051645,0.8336141321,0.2229707305,-0.3220167148,-2.6895758098,0.3702885537,5.2568041491,0.1867293416,1.188693121,0.3897601403,0.2604265236,-0.3418177468,-3.7982853171,1.9600687788,0.5593595722,1.1410341038,-0.3966319526,-0.626308555,-0.1217009775,-0.7018309133,-0.127705266,-2.4929151233,-0.3348849538,-1.6581274189,-0.056411927,1.2419845865,-0.9004247498,-3.7672828486,-0.7404287077,-0.3229103164,0.4546985653,0.0317043594,-0.5681089155,1.7257062878,0.4240332393,0.024108719,0.7693071514,0.9528738593,0.4477218189,-0.9512600226,0.1630450764,-0.7478258421,0.3371390731,0.3356153408,0.5354750172,-0.2094030658,1.0158972817,0.1320931716,-0.8984957606,0.4361113992,0.1484527165,-0.4565772658,-0.7958097324,-0.6078766288,0.2241248209,-0.7644197013,0.5386020596,0.2254040521,-0.8110193541,0.3319628621,-0.5246852985,-0.1869954782,-0.7236251826,-0.1413114977,-0.3788817113,0.7082368438,0.0067890084,0.9182785634,-0.4421444669,-0.9783743762,-0.9040789146,0.3532538103,-0.4794918486,-0.8693683756,1.0639269291,0.2730063704,-0.6609733849,-0.4604962677,-0.1409013336,-0.1524474721,-0.068499844,-0.4849040186,0.4387721347,0.1714264487,0.5342773477,0.0934483542,0.7210273772,0.4447466173,-0.533492929,0.8713026187,-0.4711341992,1.125878285,-0.2391220554,-0.3919334995,-0.0150942033,0.8024962724,-0.9479998858,-0.4274804428,0.4275078613,0.1218925368,0.707924741,1.0034849813,0.1186639547,0.2423347961,-0.6362100056,-0.4088162926,-0.2589009501,-0.8277404699,-0.479387991,0.5275402643,-0.0080175609,-0.0977334446,-1.065023489,-0.1602849901,-0.7785728904,-1.1615782682,0.2868714471,-0.4848293108,0.0481520438,1.5108122077,-0.4617730309,-0.592740793,0.2687814078,0.0913775481,0.3292368238,-0.6790703093,-0.4554156493,-0.9915385247,-1.0591033416,-0.5410900985,-0.3938908673,-0.2702395957,-1.3360678792,-0.0425401655,0.3699242606,0.5930799488,-0.6920330834,-0.133610719,-0.8392515005,-0.9378503703,0.4030032067,-0.9865497764,1.1482028708,-0.0562881991,1.8064510658,-0.5308088094,-0.4582221472,0.149956406,1.2685768394,-1.2231815825,-0.1705664599,0.4946568638,-1.0152036176,-0.2435578602,0.3683527106,-0.3998024606,-1.8101422273,-0.8034660535,0.1560817721,-0.3709163744,0.851507458,1.0937085801,-0.1233919587,0.9287396067,0.1220150989,1.2915692431,-0.253309535,0.0127108167,0.719271348,-0.5315046331,-0.3137098876,-0.5662747224,0.5156592571,0.6646288859,0.2090620187,0.3824888011,-0.642480729,-1.3963372141,-1.0982980075,0.7227844776,0.7944731854,-0.625865023,-0.6374476307,-0.8494858032,-0.4483942068,0.4751011242,-0.7951357167,0.0003538061,-3.1706331205,-0.0182218505,1.1275697856,0.4917595229,0.6810932172,-0.2658972506,-0.3423596881,-0.8157657731,-1.0607434675,-0.5709807765,-0.3758063266,0.5535481065,2.8082216433,-0.4458664504,-0.6970987663,-0.0354195287,-0.0492384321,0.2983548526,0.5531367388,-0.7800790252,-0.8176892784,0.4725916047,0.476437239,-2.338969732,0.5169134184,0.7640987157,0.8326290627,-0.2555522165,-0.0355211757,1.549357044,0.6878150187,-0.610804256,1.4097488917,-0.173443754,0.5589063725,-0.5645215888,0.1860254918,-0.9350594907,-0.6404487217,0.9867873187,-0.2457793637,-0.5792397524,0.452559253,-0.391176338,-0.6089545399,-1.1233385921,-3.2672500973,0.6590176714,-0.3152697108,-0.4571008587,0.5366248651,0.5998211307,-0.6308401485,0.5860591502,-0.4790720516,-0.4877107663,0.3959707157,0.9341945307,-0.4026844584,0.0739115372,0.5140106386,-0.0175341313,-0.0126187938,-0.0603080592,-0.4678018691,-0.1640464976,0.322987439,0.1415113012,0.1861518628,0.7068864149,1.0495007328,-2.2189476241,-0.7794912987,-0.4235407332,0.1932911081,0.5636716046,-1.0227811812,0.5581129688,0.9673598091,-0.802819789,-0.1829421962,1.415840534,-0.4765970455,0.204633939,0.7085945381,-0.6309047619,-0.9428547859,-0.480361086,-0.6614918917,-0.2801690446,-0.133465988,0.5783089383,1.1221254473,-0.446081385,-2.6162771198,-0.2075175011,0.474051804,0.1016596538,1.4672282449,0.9886923614,-0.5419415183,0.8166171641,0.8202875447,-0.3574240441,-0.9003807411,-0.1962829226,-0.6255604347,-0.5049398441,1.7196437384,-0.6345875873,-0.2568671555,0.0092064314,0.689761724,-0.4788468256,0.2531700937,-0.064858637,-0.8429085239,-2.9414865107,0.0845322105,-0.703212839,-0.3304137378,-2.4939329632,-1.0024409972,-2.5342745755,-0.0415356519,0.5306676239,-0.6651534896,0.4407980623,0.9215625945,0.0200441161,0.3970930875,-0.4647981612,0.7556361023,0.054988616,0.3561754304,-1.0731140744,-1.848379311,0.3208124861
biasActivation=0,1,1
[BASIC:ACTIVATION]
"org.encog.engine.network.activation.ActivationTANH"
"org.encog.engine.network.activation.ActivationTANH"
"org.encog.engine.network.activation.ActivationLinear"
