encog,BasicNetwork,java,3.4.0,1,1591963875689
[BASIC]
[BASIC:PARAMS]
[BASIC:NETWORK]
beginTraining=0
connectionLimit=0
contextTargetOffset=0,0,0
contextTargetSize=0,0,0
endTraining=2
hasContext=f
inputCount=22
layerCounts=3,38,23
layerFeedCounts=3,37,22
layerContextCount=0,0,0
layerIndex=0,3,41
output=-0.1083152043,-0.9858474108,-0.9809852474,-0.1838784482,-0.2552884537,-0.9921665084,-0.1038743416,0.1001476814,0.9476450988,0.382087372,0.8104707233,0.9684336519,0.9992048481,-0.6794550841,-0.9549215726,-0.9997278298,0.9999745018,0.5526135908,-0.7060971453,-0.9999058951,0.6321847588,-0.1351600514,-0.9990161218,-0.1939400658,0.9999977135,-0.7224787533,0.999164641,0.5798078792,0.8949116169,-0.9973989717,0.999998565,0.9999154126,-0.7244805486,0.9953419067,0.9913175746,-0.5308135195,0.7982943679,0.5827251498,0.003192952,0.9997818008,1,-0.4496050212,-0.9232240449,-0.2444555181,0.9358274252,0.9042604865,0.8217775159,-0.1486989643,-0.6507021385,-0.6440291596,-0.8987466759,-0.8948265945,-0.9123744155,-0.9201977811,-0.8718131334,-0.6858892168,-0.3985034297,-0.9780128671,-0.8832512695,-0.8936479174,-0.9066733509,-0.9151543067,-0.9207593211,1
outputCount=3
weightIndex=0,114,965
weights=0.4641076963,-0.0749675773,0.4400455535,-0.157580258,0.7537089402,0.2323886027,0.3620047939,1.1176549259,-0.2234282844,-1.0667147012,0.4189880987,0.2498042387,0.7663576707,0.3410755421,0.1803015159,-1.3572063439,-0.0754941916,-0.3080203019,0.5850738856,-0.237748579,1.2223604096,0.4311800415,0.5452271085,0.2915148577,0.7813767471,-0.9579160345,0.8680183971,1.1267500164,0.7572341675,-0.6492097349,-0.0222077535,1.5943533638,-0.7708649087,-0.3574062019,0.372449635,0.4416757261,0.4832836316,0.0759766931,1.047966922,5.2341953162,0.5030178608,-3.7180532258,-1.5498351414,-5.2134524773,-7.0107280915,-0.4808901411,-5.2531549609,-2.3650463659,-12.2307764586,4.6966180859,-1.3882346673,-2.7088748012,-4.1561399867,0.6638719351,-8.9009606641,7.7017553676,3.5656430706,7.2386621578,-8.6237720788,-4.2905657791,-4.3585359092,1.6411765205,-18.0639621837,13.103954371,-11.3090259172,-0.4443908207,0.3743071218,-0.613939758,3.1779298151,-35.1487543285,-1.5227385828,-6.7096433186,-9.1438355457,0.2300624403,-2.1920020215,-0.3531812413,0.6657679649,-0.343361661,-0.9050643337,-1.3734688651,0.3952271192,0.1065581274,-0.2923636666,-0.3328336928,-0.4463968,-0.1373980021,0.3710253373,0.9443404508,0.3603230437,0.1262456386,-0.0539464319,-0.6923735416,0.0671702182,0.024155377,-0.0658994834,0.5880381582,0.0624759536,-0.061016417,-0.3358479322,-0.7442083977,0.7240628791,0.4225370905,-0.9990655331,0.1283604478,-0.4501692309,1.3284451414,-0.2609223197,0.1048459953,-0.8898984078,-0.0932719545,0.4395765104,0.3746962568,-0.3350485684,-0.0973579446,1.0340952106,0.1935659136,-0.3569485242,0.1311486827,-0.3402162296,0.553873324,1.3255797618,-0.7433637078,0.6857341236,0.5618303927,0.0269472993,-1.0576696457,0.0267752841,0.0094785211,-0.9588163594,-0.798047865,0.0021659257,2.0024142561,-1.039347509,-0.6902700037,0.1168926427,0.296849532,-0.294724801,-0.2193473832,0.9714404489,-2.1897383196,-0.0604998645,0.0219564605,-1.443367523,5.216775662,-0.8389136786,-1.171545079,0.6891080798,-0.8776338787,0.5838652571,1.5113535374,-0.9739794865,-2.9952627017,-0.5592380219,-0.1494988383,-0.6880629286,-0.8456865976,1.1052638962,0.8463221317,0.617698145,0.2234183181,-2.4734474078,-0.011920364,0.2551847713,0.3331450664,0.4941330685,-0.1814141788,1.504979349,-0.1263856782,-0.608276313,-0.3229822458,0.1483078242,-0.2262160673,-1.1192097764,0.4900121364,0.2612902792,0.3626134185,0.1587925437,-0.5938916634,-0.9945666074,-0.2901268264,-0.6963652209,1.1981495626,-3.2846796484,0.6332187658,0.3781750369,0.316851194,-0.8750102112,0.4871832745,0.5928000931,1.2790953731,0.3438674944,0.0444628454,0.7803918704,-0.2149445142,-0.9179816032,0.1890110279,0.4572650102,-0.6788280092,0.2872020396,-0.4272732004,0.2125966812,0.6129234079,0.4353324647,-0.2730413096,-0.5832273789,0.8617026886,0.5568422614,-0.8492323911,-0.4131072053,1.2122679568,-0.1738557574,0.856828762,2.4145355343,-0.6077702963,-0.4056690201,-0.1216799348,1.368697909,-0.6072307352,-0.6337196324,0.3743086087,0.3265939393,0.9270835277,0.4995591696,0.4703761514,-0.1253180849,-0.6787946251,0.1384734609,-0.0394139286,0.0801664807,15.8914250506,-4.8972829726,15.9998228852,2.1769423885,-0.1554735204,-1.7949302608,3.4453660697,1.6957702922,3.5623775383,3.2473875485,-22.3957435256,-1.4617413737,1.9468878052,-2.986767502,-1.19352612,-1.7273766514,4.0948514338,7.8401870971,-1.2224864133,0.0847945191,1.1266690133,-1.2194585875,0.3591543233,2.5098517103,-0.643840195,1.6237129832,0.3767270896,0.3303609036,0.2629830228,0.254138055,0.86689781,-0.4287214007,-0.3854797553,-0.2667596016,-1.4011505822,2.0813181651,-0.7711260691,0.1086891403,0.6268869162,-0.0242643806,0.2231187947,0.6034681131,-0.5218758702,-0.2004414548,0.7699611362,1.2187151514,0.7165539674,-0.5971614707,-0.4755457946,0.3640634113,0.4346727682,0.2231212199,0.1534551411,0.0937302331,0.0416670314,-0.6286879519,-0.7856446485,0.4273904246,-0.3473212799,0.1341568754,0.1666449576,0.5506266007,0.7275097184,0.2077465192,0.1868182258,0.0815646267,-0.6215915938,0.0515937642,0.5373152641,0.9991491062,0.8207662303,-1.885682573,0.3065107861,0.2488338047,0.1265597396,0.4626477327,-0.8717855769,-0.28640402,-0.2897513326,1.0338580863,0.6775445278,-1.0806482214,0.0940312948,-0.5850362916,-0.1203716468,0.2123561946,-0.3688496486,-0.4047528508,-0.693145402,0.6000652346,0.1510234561,0.5159507903,-3.117139818,0.7402380064,2.5751070608,-1.133928257,1.5277685949,1.1939829866,1.190178689,0.5449396121,-0.1835476945,-0.73993763,-1.1580821052,0.2850756123,2.9725704998,0.5743151474,-0.2906636982,0.3585153713,-0.3646410071,0.0823377106,-0.5835164101,-2.6357939906,-1.6596084565,-2.4143668409,-0.3279552978,-0.453808209,0.6714785798,0.6905193016,-0.9896793232,0.4779316171,0.9871924633,-0.4800760676,-0.6687496762,0.5658959258,0.0655640837,-0.3026853061,0.9265285499,-0.080740228,0.2297283926,0.6900972414,-0.5121573564,-0.3801177832,0.0521143771,0.1960891179,-0.6853005024,0.3707835876,0.2096868275,0.71221389,0.400380078,-1.092040723,1.2821061008,0.1424024576,-0.5643146905,0.5029796509,0.7622606099,0.0741233894,-0.3296033153,-0.0065025518,1.1927516497,0.7098262121,2.766536856,-1.8570734298,-0.7037413962,-2.937688571,0.186854745,1.3461557314,-0.2492047857,0.1917229144,0.020471376,0.4670479787,0.4185478959,0.1547845847,0.8783072661,-4.0786332941,0.933216366,0.6690977007,1.1377183984,8.802923021,0.6601258617,0.0329245602,0.5308530211,0.0233637622,0.2664928623,-1.9047526537,3.8618846222,-0.7103879534,1.1411641878,1.0638754606,0.4469410331,-1.5873641273,-0.9119497057,0.4979366783,-1.2695340537,0.4117434328,-2.0526561365,-1.080246668,2.2894172901,1.1165914603,-0.1011979266,0.7904650322,-0.508886136,-1.0917838914,-1.8871658399,-10.6333445078,2.5447518555,8.6515165409,1.5533473663,0.6966783305,4.5619070059,-1.6787196239,-2.2452478126,-1.6410761221,-0.5467949094,-1.1769748722,-0.7868564558,-0.5321661202,4.0523601883,-0.3916715174,-0.1322989677,2.6706073494,-1.1096025201,-0.1349519392,0.5339784615,0.4912537716,0.0505575946,1.0688249547,0.1770227483,0.4258704894,1.9668059694,-6.2790150172,-0.4474842381,-0.230505709,0.1628139262,0.7146102628,-2.2978000482,-0.0030075557,0.1352667959,0.7538654844,-0.8478445027,-0.6098534171,-0.1858776665,-1.049994002,1.3369922146,0.8714202148,-0.6403263263,0.5114151626,-0.5022857379,-0.6118452176,-0.2571898816,-0.8448259575,-1.1451302435,1.5179484747,1.6096012138,-0.1326339384,0.0088410291,-0.6096860368,0.6347826324,0.542479782,0.1085095611,-0.4976921465,0.515263453,-0.6892251149,0.7477469451,-0.1392880052,0.4902946921,1.433589674,0.0617555949,-0.3067965006,-0.0744635977,-0.5644809935,0.6211828632,-0.8020353862,0.7668302022,0.9417501736,0.1609303337,0.1279356072,0.4708284083,-0.9385051859,0.9779687502,-0.9973633669,0.4513919653,-0.2828349071,-0.4050556136,-0.4523385095,0.0327823276,-0.0532672677,6.7345437727,-1.8351987513,2.5870267272,-1.1019938586,1.2786648413,0.2700521889,-3.1231043553,0.3636075331,-0.4781052389,-0.8301413104,-1.2606818408,-1.824513235,1.5947894303,0.0450588986,-2.1298928509,1.2136531195,0.6572944685,0.3825891777,0.3550289046,-0.0368267497,-0.7270636525,-1.4169615448,-0.1042941749,-0.7251704798,0.7775401799,-0.067565585,-0.8776325033,-0.7857851132,0.725553132,-0.8964455677,-0.109147101,-0.0159297093,0.7301772122,-1.2777058421,-0.3205656923,-0.8323711501,1.0448310402,-0.747340115,0.6317714764,-0.0913484433,0.7856328959,-0.8144214817,-0.7949324861,-0.7389748654,0.3174435572,-0.6752328209,2.348488758,0.0586061753,0.6884431588,1.5272345017,-0.7897983905,0.591764549,0.5207724611,-0.3020614211,0.0258178123,0.319303503,1.0432310179,4.6048243348,0.2468143522,2.2344680877,-1.3113065701,-7.1201726838,-3.2175096647,0.4686724109,-0.1477871795,-0.16695423,1.6528600764,-0.0127645972,-0.6614419674,1.2043628032,0.6707828018,0.310754964,-0.2549692309,0.0161027957,0.101576424,1.0344663782,0.3977945101,1.0292747813,0.5574331203,-0.317496928,0.0419425506,-2.8928179297,0.5308807019,0.32522938,-0.1967591603,0.1154332734,-0.4446463384,0.5863614419,-0.2760873383,0.0801161545,0.0120950438,-0.0355410466,0.5929266598,0.4665950074,1.2342293863,1.9924717241,1.0270852906,1.0043549141,-2.8386013411,0.5123797855,0.1267829872,-0.1965129758,0.423072436,-0.9699138128,1.7530556253,-1.4510694518,1.782718751,0.1926907432,1.0924980515,-0.0885031996,-0.748122244,-0.3274039431,0.3290894214,1.7339705828,0.4033983533,4.463105287,-0.4215481359,7.7325306776,0.1691198132,-0.924733856,0.9413728171,-6.3573937072,1.0564143453,-0.4840211039,-0.6110433235,-0.1716748428,-0.1535722321,0.5104857462,-0.210791286,-3.000755261,-1.0423388114,-0.403361173,-0.7888651615,0.6197226002,0.7268265657,0.8507735412,0.2248694456,-0.4596746807,0.0170055627,0.841262119,-0.6076875082,-0.3296314272,0.5233632887,-0.0533206857,0.2266238369,-0.2674514995,-3.7882123752,2.0962725043,0.4812114266,1.5690089769,-0.3113248162,-2.0905957236,-0.8989334512,-0.6360493927,-0.1121655455,-2.1042491175,0.1906573007,-1.0788681744,0.4805211919,1.7356576377,-1.0366025629,-4.3293601296,-0.7177477777,-0.890788872,0.45948887,0.0521629087,-0.5273096267,4.0008258839,0.4749332456,0.319531358,1.0916983037,1.1054009758,0.4034401606,-2.0267236812,-0.5584874003,-0.4716018166,0.3433673415,0.4967982363,0.8983611302,-0.1764378612,0.9802768171,0.158177014,-0.8280952047,0.4401056274,-0.0202055187,-0.4266047088,0.9089960617,-0.6371381503,0.2627794246,-0.6720136881,0.2833733748,0.212733828,-0.8233260848,0.5109507389,-0.3373607186,0.0001870516,-0.8498771217,-0.0330437042,-0.2973515941,0.916091148,0.2057110599,0.5694234848,-0.5321604009,-1.050375626,-0.9811610067,0.2016424868,-0.6965321434,-0.9503207826,1.032475824,0.2791460228,-0.6521454458,-0.4483067535,0.61344279,-0.1680201988,-0.0994223132,-0.4801179073,0.3429055042,0.0873521636,0.2264747626,0.2742484362,0.6144748845,0.3359058855,-0.6301096773,0.7767567346,-1.2578020217,1.1380814937,-0.2235034224,-0.4978783333,-0.1150477364,0.9711544463,-2.7817230277,-0.9556057102,2.3126504836,2.0467837858,-1.918318198,0.187303222,0.5680735822,0.3567467116,-0.8380771257,-0.2187261562,0.4823372491,-0.1189582349,2.8605966282,-0.3058112294,0.5141040606,0.1127687586,-0.8316079513,-0.6097040995,-3.4641088011,-1.8089556796,0.1172113769,-1.2165394139,-0.1402176916,1.4514388971,0.7681904948,1.0328087841,-1.3466148133,-1.1105224134,0.2205457489,3.9364190775,-0.4327318353,-1.172499341,-1.3759227214,-0.8449829011,-0.9419310145,0.396306464,-1.8763741382,-1.4900397427,-0.5225317218,0.0394015412,-0.7195037069,1.0558142825,0.3545462515,0.2607444716,1.6046866091,-0.4945261869,0.6116627108,-0.040818742,2.995117634,-0.5538191843,-0.4561509761,0.2412450866,3.1346306763,-1.2889332686,-0.2463728093,0.429953266,-0.8440005364,-0.1960918489,0.8134838527,0.0852707609,-2.0622987296,-2.4883005469,1.0571365108,-0.0471934643,1.0077351563,1.0901017995,-0.1619419945,0.6110589739,0.1420416791,-6.6456076557,-0.9071430914,-0.95785651,0.9762151598,-0.3749375924,2.5765173592,2.1488766378,1.270283063,1.5423429024,0.2046359522,-0.6599117464,-0.6138735174,0.3755476807,0.5105167182,11.1759342007,-3.4907738195,-0.5088918714,-1.084764056,-0.9911588544,-0.7004122109,0.2635867159,-2.0728994243,-1.6456917378,-4.2244725895,0.1098451368,-0.4263347885,0.4581110866,0.6274693927,-0.0054147449,-0.3833572674,-0.8451646981,-1.0619916115,-0.8297614583,0.0560026217,2.0722997364,9.5290549409,-0.2899687365,-0.6586402133,-0.2609693638,-0.3509823973,0.3093975587,0.6579416434,-0.6425762153,-0.6808534462,0.7636919275,5.1289401302,0.4444322082,0.5077940117,0.7989728365,0.8862475017,-0.2585965231,-0.0843670892,3.6596125271,0.4605128985,-0.8915508951,1.3137519834,-0.4366923747,0.8947742763,-1.6958077183,0.7439232702,-1.3287882383,-0.6034303192,1.347091268,-0.8000043326,-0.5625871137,0.4770504623,-0.3925308757,-0.764647282,-1.172768113,-1.5302255889,0.6262239805,-1.280704078,-0.6362665801,0.7760152912,1.680167102,-0.351379276,0.1587657041,-0.9646424834,-0.3995807913,-0.0054576739,0.8759737132,-0.1937533386,-0.9206595355,0.4492996716,-0.402759752,-0.0692811706,0.121824626,-0.4408358024,-0.1243652273,0.342299721,0.1752368384,0.5709104311,-0.1981916741,1.0848563227,-1.9877991483,-0.8534828582,-0.6620414776,-0.3134756685,-2.1941601952,-0.9218125121,0.4950392011,0.8290976004,-1.2747127314,0.3489381926,0.9498970755,-0.7394463979,0.3533650625,0.8362827563,-0.6566774957,-0.0524247334,-0.1557405093,-0.3603281248,-0.147012266,-0.0404962757,0.7263963679,1.3739774214,-0.5903095132,2.6343829649,-0.0683003954,0.6049522135,0.2430941641,2.0142137367,1.6768909567,-0.0821950446,0.8393277802,2.3228061059,-2.0539750731,-0.7698531875,-1.1750960094,-0.6883304843,-0.029266949,1.7300175987,-0.6540517071,-0.4320920221,-0.1555940081,0.5628921032,0.1497610799,0.0692513596,5.2178917688,-1.0014788387,3.5871842634,0.4095046002,-0.3921696035,3.6152886126,-0.682529066,-2.1245700068,1.4147473455,-4.1769757292,-1.5891662139,1.7781245758,1.1556989263,0.7361186184,0.0888398157,0.2892306283,-0.1373412894,5.1208488348,0.0382154805,0.3462718046,-1.0461661779,-0.2895722596,0.4288002526
biasActivation=0,1,1
[BASIC:ACTIVATION]
"org.encog.engine.network.activation.ActivationTANH"
"org.encog.engine.network.activation.ActivationTANH"
"org.encog.engine.network.activation.ActivationLinear"
