encog,BasicNetwork,java,3.4.0,1,1592072637396
[BASIC]
[BASIC:PARAMS]
[BASIC:NETWORK]
beginTraining=0
connectionLimit=0
contextTargetOffset=0,0,0
contextTargetSize=0,0,0
endTraining=2
hasContext=f
inputCount=22
layerCounts=3,38,23
layerFeedCounts=3,37,22
layerContextCount=0,0,0
layerIndex=0,3,41
output=0.0733944855,-0.9999996517,-0.9380567537,0.5422322576,-0.3333619858,0.9999997865,0.3936444062,0.6092967916,-0.5876350685,-0.7883438605,0.9836326519,-0.7363015365,0.9998756595,-0.6781194252,-0.2332758477,0.6193754391,0.9988321736,-0.9009976746,-0.9993614372,0.9746729126,0.9934036176,-0.9988285209,0.9822402273,-0.9758320761,0.9992718029,0.3962020897,-0.9999149077,0.7340000263,-0.9690065572,-0.9280543325,0.1515838212,0.9160191408,0.7259671517,-0.9732895987,0.3294088275,-0.654287768,0.8787146152,-0.4658350131,-0.9078866875,0.9035351329,1,-0.4496050212,-0.9232240449,-0.2444555181,0.9358274252,0.9042604865,0.8217775159,-0.1486989643,-0.6507021385,-0.6440291596,-0.8987466759,-0.8948265945,-0.9123744155,-0.9201977811,-0.8718131334,-0.6858892168,-0.3985034297,-0.9780128671,-0.8832512695,-0.8936479174,-0.9066733509,-0.9151543067,-0.9207593211,1
outputCount=3
weightIndex=0,114,965
weights=-0.1843129184,1.5291279382,-0.3603770279,-0.2871678753,0.2775938656,2.0708885348,-0.2027462805,0.1978512763,-0.7719108815,0.1369636601,-0.2920007602,1.3316773414,-5.1699626015,-0.2826512623,-0.6218286517,0.2374459254,-0.5896114766,-0.1389028722,0.3863339317,-1.5893890337,-0.0569472562,-0.2058336056,-0.2780880435,0.0380211304,-2.85862908,-2.2057462184,2.7541314227,0.3800245405,4.7472251599,-0.201311559,-0.2683414888,0.1499932355,-2.7395866174,-0.2639052205,0.4190825829,-0.1404867055,-0.0844141344,0.6987346975,5.7516218764,0.0985158755,35.7204751336,-3.9051634608,-23.256356613,0.5860106599,12.2843188637,-0.8082775948,-0.4127501607,-3.0367054316,-1.0580862291,-4.2239181799,8.8857466301,4.4412403966,1.2748780217,41.0741173492,-1.0515442751,-29.0272580508,-0.586356799,-0.1513635459,0.8172633856,5.3665199718,1.3408347925,-6.0870106312,-0.6243320388,-0.4948962524,-35.8744397709,-1.236673965,-41.8834605857,8.2094097962,23.350986371,-7.1868880031,-1.0427969612,2.5649427993,-10.890593468,10.8904542109,18.5383472427,0.0384692124,-0.302133184,-0.423572954,-0.124983461,-0.2337851891,-0.2714953904,-0.0148463264,0.0946138099,-0.0184480259,-0.9722646014,0.01341441,0.7790016433,0.4107567667,-0.084217671,-0.46962709,-0.0215210636,-0.6222454207,-0.2769981365,-0.1561862487,0.6401191179,-1.8580010889,1.5435419923,-0.3029536911,0.2547313725,-0.0119732007,-0.9830393943,-0.8189951421,1.0410581647,0.2584474692,1.4329501874,-0.1280921956,-0.0959146596,0.1380519109,-0.6258627982,-0.0147844419,-1.0157022399,0.2505483132,0.0734813389,-0.0703110253,9.2133977137,0.2039607644,1.4355625462,-0.2205150355,0.502972202,-1.3521068592,0.7718195932,-0.8240771496,0.8254959345,-0.3476785837,-5.0612998513,-3.4235246805,1.9527944212,1.5989864283,0.7522908821,-0.0257799942,-0.0027927574,0.3637506195,-0.1385663207,-0.784174978,-0.6698257574,-1.5872544542,-0.3858688183,1.2906175902,-0.0725698485,2.4204918462,-0.080278905,-1.091541771,-1.7833592628,1.4655403151,-0.8184634719,-0.1151389003,1.8578911183,0.0774323163,0.3854471745,-0.5643826698,0.4072945322,0.2713089011,0.3961696283,1.6525530477,-3.3859751468,0.1095900228,-0.9319067529,0.5874317634,-0.125306682,1.377719276,1.3389160326,-0.1668618132,0.115468652,0.2713113527,-0.7946820131,-0.1216274369,-0.4815599571,-0.4816326647,0.7013332965,-0.324755815,0.750211427,-0.9806056999,0.0412165553,-0.8459521283,0.0163941837,1.1123900888,-0.609185901,-0.425352795,-0.7234254494,-0.0423103486,-0.2936984482,0.5115104601,-1.1732114899,-1.1518789655,-0.6348275961,-2.633492582,-0.0824891725,-0.615011845,0.8017071747,0.7050921924,0.0319873378,-0.0269121115,0.7205440107,-0.7142961922,-0.9980013585,0.8401752569,0.0235545244,-0.9375286895,-0.7551205653,0.3102553171,-0.3418321793,0.3361786623,0.0836461185,-0.5183460318,-1.1091673926,1.1653920656,-2.7906932035,-0.8439182744,0.1831834928,1.4174697619,0.0897427082,0.0060060347,-0.4199210207,0.3518874287,1.3579655802,-0.2613691853,-0.0959006397,-0.1893870753,-1.0201982176,1.0125918156,0.8182344603,0.6243460913,0.0599995056,1.0212968322,1.1679072171,0.2602978428,-0.5264399808,-0.7626072576,0.3993664691,6.2097711866,0.6122293222,-0.3834796983,-0.1063225861,0.1309674849,-0.5018028906,0.3669063623,0.4174399965,0.0040817721,1.755531411,0.7902232851,0.4413402339,-8.6952509942,1.6428240297,-0.2844436935,2.3586812687,1.9039320357,-0.0944909491,-0.8446267298,-0.5987486157,0.9308917613,0.6188435791,-0.1218212178,-0.6340159196,-0.1177663136,-2.0342958828,1.1668776278,-0.7417095881,0.0701845366,-0.5496900507,-0.2950447352,0.4416021102,-0.2247503858,-0.6564838374,0.5801442761,0.4368112196,-1.3486759876,0.9139105211,0.4082292627,0.9781760097,0.939113766,0.7434639601,0.5742561228,0.9511858224,-0.0675575885,-1.2832107656,1.1872023168,1.4919949874,-10.8064826979,6.5251310636,-44.6497627103,4.6726391362,17.1732557217,-10.6720471007,6.0913961197,-1.2050083338,-2.6775912695,-4.9785519979,0.5035945288,-6.5018914592,-9.2576296389,-4.7147391891,5.533550653,-26.6415291544,4.2900292082,-2.3236979529,-0.7025527722,4.3175277451,-1.4965627107,-0.001527344,-0.8993796171,-1.2233801825,-1.4162564896,-0.5733009555,1.1562786778,-1.2843851496,1.8366119236,0.2029995825,-0.3907476445,0.667207935,1.9204913211,0.0579080011,0.878479472,-0.5795595612,-0.7037820936,-0.5485097054,-0.2155773431,0.1450953607,1.6936257809,0.6585761783,-1.6792066463,-0.3415219786,-3.6905850163,0.2252222691,9.3245489499,-2.0498581074,2.0715111067,-1.9536530911,0.6667176448,-0.6419158432,-0.3159771682,-0.1820482393,0.6246680257,0.1098035507,-2.5685832662,2.6165451953,-0.7455891879,-0.7649338449,-0.7557268172,-6.8652804881,0.1489492847,-1.2624962828,0.5446974623,-1.4525536827,-0.515463608,-6.9085024422,0.5302594481,13.1517553299,7.1357912333,0.8156127732,0.8750417321,-0.2364231425,-0.4264457174,-0.7577644135,-1.1533975464,-4.9681948568,3.5991675067,-3.3755584235,3.4174959441,1.0349335554,-1.2539310624,-2.4732910815,7.1104365086,-0.2414825163,0.3772165486,-0.8185135566,-2.7262516886,4.9990640437,-2.38615416,0.4108718338,1.2084621918,-0.0154941219,-0.2779922201,0.6881660095,0.0159994753,0.6581416915,2.0827136238,1.0090720712,0.9181671459,-0.9566345704,-1.2801255437,0.4544163017,1.3977199326,-0.5097803665,1.6939651921,-0.1605508432,0.0511701938,-0.5916512462,-0.6684518628,0.5719358475,2.1793297933,5.5091923711,0.9989859857,-0.6897867405,0.3267689194,-0.8981006098,-1.5473439672,0.6798318343,0.0866107985,0.7665662328,1.2364040794,-0.4971995064,-0.3798758839,-9.0040795533,0.6583148507,-0.3139909342,1.2817064958,1.2543359045,-0.8916668122,-0.1923525582,-0.0116586555,-0.9718072075,-0.1405949789,-4.1510191847,-0.183357293,-0.5213448996,-1.3540926803,0.8838402199,-0.5072556704,-0.6303484196,1.0459361238,0.3509550324,-0.203522767,0.481732831,-1.0713929054,2.480136226,-1.2575848156,-0.5427936813,-0.7488586768,-0.3348723793,-0.7332003693,-0.6898439762,0.8876346394,-0.8934142065,0.7932778605,0.8344690572,-0.0251810012,38.1982779355,0.3861293813,-72.0669407018,-44.0266377784,-2.4901841285,-1.9689430234,-0.2615773481,2.9241825709,0.7499065662,0.8082899662,10.1267975313,-27.8238986497,13.5813462393,35.6133664189,14.2941615343,34.5965510153,11.5087483054,15.6023669345,-0.7081166698,-2.92289432,-0.4959934207,1.0803877069,-0.8604641365,0.4110062579,0.4830460057,-0.6028663507,0.4236834384,0.6789049405,0.267835399,-0.4356960864,-0.3334441834,-0.3516765377,0.2649032721,-0.5720643875,-0.4765621116,-1.5813877489,1.1404750959,-0.5201566292,-0.1315361492,1.0862258762,-0.887029225,0.3818742131,0.1567800225,0.8187994988,0.0603123851,-1.0120656802,0.1737486076,-0.5397246147,3.0207851336,0.5804607253,0.7515625518,-0.9756915077,-2.8461613245,-0.1264736828,0.011411058,-0.6804470745,0.9422936568,1.1170014412,0.1014022921,1.0417281248,0.776796551,0.1184956911,-0.5340949915,-0.1812558476,0.3096867185,-0.7972958701,-0.3630029016,0.3902464149,-0.4252790786,0.9390384619,0.6647431179,1.0203862269,-0.3301684759,0.526461809,0.4598588915,-0.763726737,0.3053910024,-0.3317661271,0.5027108402,0.8804640494,-0.719164767,0.9990706433,0.8476002404,-1.0806845878,-0.1753480994,0.2716047087,-0.0400068751,0.2504777481,0.8513456182,-0.1525947155,-0.9446514486,0.2881534938,-0.4231984052,-0.3155684876,0.7163353698,2.280917359,0.2539671151,0.5564148188,-6.7251517964,0.8678121114,-0.0018961635,-0.2531739085,1.2544131163,0.149084575,-1.7815088211,0.2958807486,3.8272454864,0.4784128753,-0.2550063271,0.9872737598,-0.0634487971,0.0507843094,-1.0568514917,-1.3784566751,-0.1611816578,-0.1762361397,-0.3860687008,0.5960866858,-0.5146297721,-0.0168065249,0.388227653,0.3942419761,-0.5366504458,-0.7642755342,-0.0397443034,-0.0680975659,-0.3173128511,1.0522406671,-0.4349037234,-0.3212557595,0.6634205191,0.5621727728,-1.2695753393,0.0549618687,0.0818301939,-0.2082890858,0.9649342795,0.4351494638,0.9143140618,1.9656216368,0.8737696262,-1.9510681603,-0.9780887425,-0.6566812375,2.4619954907,-0.7693331496,0.0075844838,2.7156426843,-0.6075947588,-1.1365639608,-1.310730748,-1.8129216771,0.9858234224,0.178013433,0.6435388108,-5.4688053528,-0.1495384613,-0.3989482087,0.8015446472,0.0968304269,-1.3326791865,1.3483507644,-0.6828481329,3.4355356902,0.0219915183,0.3702257543,-1.3078433605,-0.6726357478,-0.3368066174,0.6669381186,0.4789234177,0.1405109509,-0.592126954,-0.7839186473,-0.438486178,1.8688790004,0.6645959726,-0.4854478825,0.7685790399,-0.1582277686,0.7444616314,-0.8521901586,0.5975882757,-0.894188166,3.0384839043,0.0327446942,0.0162428535,-0.2729092179,-0.3212681253,-0.2996330443,0.8214190493,0.1897161971,-3.6653145224,-2.7382280375,0.1586943536,6.6281933671,-1.3362039054,-3.9221550529,-4.3096266789,-0.112870564,-1.28875659,-1.9174867044,-1.5110376027,-5.5599103835,-0.3633243303,-0.4364706881,1.6029695467,7.6393909665,0.3124759873,1.604010262,0.9061478372,1.1766835548,-0.6851695698,-11.0775704973,0.226002075,1.9692606976,-0.7676561894,-0.9837451432,0.1798408177,0.5890589454,0.5501183215,-0.6362975451,0.363068071,1.9701350326,0.7837517741,0.3884795926,0.7421135616,-0.1756640811,-1.1268215432,0.5576594015,-3.3720897918,-0.7696561953,-1.6100243041,0.7092883866,0.947047505,0.8778996766,0.0927385849,-0.5220548798,0.1305021238,-4.8761083202,-0.3712613027,1.2778838279,-3.2579683882,0.7703203876,-0.9863741292,0.0262548456,-0.9365865229,-1.1413115329,-0.1164545355,0.1978696263,-0.4332552857,0.9376497319,0.7576919569,-0.0971177496,0.2367950989,-0.910628262,0.0127676214,-1.684566959,1.7500524399,-0.6274949378,-0.3351612526,-0.9429933691,-0.1230236676,-0.5033528588,0.1796436623,1.2908272694,0.5315844943,0.1600408282,-0.8440293245,0.3191995937,-0.7005441282,0.3331563161,0.6208375315,-0.7960306285,0.7317030659,-0.929351746,0.2901962297,-0.6053849453,-0.0315188917,0.7715782178,-0.9646720822,0.1935102105,-0.8101275258,-0.177784315,-0.5112698065,-0.9822271326,0.1020030645,0.651562206,0.8771841124,0.5747522602,-0.0230482233,0.722952102,-0.9130010863,0.0155790417,-0.6667029702,0.6829074662,0.966253961,-0.1161794244,-0.3653997041,0.391194516,-0.5891840943,3.3863610438,-0.3694633693,-0.5872891301,0.977175661,0.0692303078,0.0357748089,-0.3336949566,0.3712922966,0.5461093826,0.0506102205,-1.3661037131,1.0150570772,-1.4401380834,-0.3267567478,-0.9130631564,-0.9395978319,-0.3231201195,0.2146358876,-0.6970087646,0.3466672434,-0.1820146174,-0.6518532595,-0.4044041006,-0.4000002618,-0.671733023,-0.5658214128,0.536520828,1.1244630475,-1.0408899306,-1.1774429122,-0.518069397,-0.273912828,0.5685550707,3.274518532,-0.7441338268,-1.0521566655,0.081756291,0.4502375391,-0.1117088169,-1.2105026654,-0.062456625,0.5976275873,0.723654855,-0.1747496808,-10.6324442839,0.5546454384,-2.6143917789,0.0248593526,0.3892018068,-2.0913116231,-2.0156790289,-0.505457042,-2.3075078604,1.1419376463,0.5109686379,6.9036727484,-2.0382762405,1.6054998014,0.0980767656,-1.2609578948,0.836128704,-2.4113281419,-1.0772456976,-0.219313296,0.0356799088,0.7836187555,-1.1369542516,1.6536933337,0.0876032073,1.5798843184,0.19542605,-0.6656355265,0.1967931656,-0.4336996253,0.3121462974,-0.1053695388,-0.617714704,-0.3393399221,-0.9893889887,-0.2706617855,0.4501381017,0.8720588576,0.3842137078,-0.1030063563,0.9220693545,-1.2714164056,0.8511950734,0.2674772094,-1.2173391108,-0.8141102084,4.4645360219,0.6702369934,0.9344096015,0.1459436779,0.9135919859,0.1609940489,0.2151699548,-0.0456079175,0.1817686178,-1.1138520878,0.1823409538,0.3677269668,0.215264051,1.4985388162,-0.678870659,0.2566970341,0.4162548024,0.9107988713,-0.2391493959,0.4497509142,-0.0932572306,0.3688000754,3.5044003006,-1.2899966135,0.6419443909,-0.0510049411,0.8251475102,0.8859146337,-1.5319213518,-0.9413387013,-0.3469690285,-2.3215289078,-0.4606411714,0.2338989863,1.3731674141,5.1443617492,-0.8353663227,-0.6996604,0.3571881439,0.4838506479,-0.9443063208,0.3135073216,-0.0936743552,-0.6362817529,-0.0237706131,0.8015274889,-1.1362611427,-1.9024761736,5.7383491781,0.7112566562,-0.5749422972,-0.7577854584,0.1404055558,-0.8986217078,-1.4530459921,-0.0975993004,-0.0113085592,0.6077334773,-2.8405822626,0.6947302739,0.8287633471,0.1806047217,0.5004078212,1.4350731952,-1.5340886624,-1.5729405793,-0.5978047084,-1.9529375573,0.101714892,-3.600606099,0.3389179743,-0.1710477816,-0.7703305471,0.0345498069,0.9024559771,1.2516013675,-0.7270962436,0.7379392016,-0.0477001421,0.0994843002,-0.1868509007,-2.0655662907,0.0271898277,2.5733487145,2.4305103218,0.9487607322,0.5857240455,-0.0927702816,-0.7472003048,0.0398985774,-0.3729706337,1.1332142677,0.7768535413,0.6777317836,1.7673702748,-0.2357150938,0.5724661023,-0.6798426109,0.8561054525,-0.2047748112,0.9385934054,0.1920372602,0.6522083727,-0.1168282251,-2.068263829,0.5182931714,0.0769753128,-0.1994779388,0.3318592567,-0.0792611949,-0.7008006338,0.913069204,0.646434269,-0.929057639,0.7755512071,3.1211284542,-0.5651065997,-1.087559149,-0.8007221388,-0.6124843387,-0.4103397919,-0.2478947956,0.8422847093,0.5519448724,1.0837035744,0.9397913964,0.4792106358,-2.3609176896,-0.5604177277,-0.2051108199,-0.1921619191,0.8939923653,-0.8654135666,0.4541400833,-0.0897953335,0.6127000488,-0.5435808871,0.6336105667
biasActivation=0,1,1
[BASIC:ACTIVATION]
"org.encog.engine.network.activation.ActivationTANH"
"org.encog.engine.network.activation.ActivationTANH"
"org.encog.engine.network.activation.ActivationLinear"
