encog,BasicNetwork,java,3.4.0,1,1592081670975
[BASIC]
[BASIC:PARAMS]
[BASIC:NETWORK]
beginTraining=0
connectionLimit=0
contextTargetOffset=0,0,0
contextTargetSize=0,0,0
endTraining=2
hasContext=f
inputCount=22
layerCounts=3,38,23
layerFeedCounts=3,37,22
layerContextCount=0,0,0
layerIndex=0,3,41
output=0.0733944855,-0.9999996517,-0.9380567537,0.5422322576,-0.3333619858,0.9999997865,0.3936444062,0.6092967916,-0.5876350685,-0.7883438605,0.9836326519,-0.7363015365,0.9998756595,-0.6781194252,-0.2332758477,0.6193754391,0.9988321736,-0.9009976746,-0.9993614372,0.9746729126,0.9934036176,-0.9988285209,0.9822402273,-0.9758320761,0.9992718029,0.3962020897,-0.9999149077,0.7340000263,-0.9690065572,-0.9280543325,0.1515838212,0.9160191408,0.7259671517,-0.9732895987,0.3294088275,-0.654287768,0.8787146152,-0.4658350131,-0.9078866875,0.9035351329,1,-0.4496050212,-0.9232240449,-0.2444555181,0.9358274252,0.9042604865,0.8217775159,-0.1486989643,-0.6507021385,-0.6440291596,-0.8987466759,-0.8948265945,-0.9123744155,-0.9201977811,-0.8718131334,-0.6858892168,-0.3985034297,-0.9780128671,-0.8832512695,-0.8936479174,-0.9066733509,-0.9151543067,-0.9207593211,1
outputCount=3
weightIndex=0,114,965
weights=0.0645651831,0.460141459,-2.9595069607,-0.1133252348,1.6836673765,1.3824279368,-3.3389756927,-0.1524302943,1.8983805514,-1.1046122653,2.4398167671,2.1536630487,0.5517430356,-0.1653835709,-2.8772282602,1.128806179,0.7189723674,0.0191412425,-0.7300009721,-1.3270846603,-0.5017938445,0.3821744461,-0.0445381053,-0.1395230387,-0.3507652862,-1.0741495896,-0.0991825152,-1.7068553969,0.161493048,-2.1156344068,-1.3895183789,-1.4368196185,0.2625800815,0.1148474446,-0.30673505,-0.0894079073,1.9210905119,0.1296951713,-0.1606841685,-10.7012292148,140.5617866214,0.1634586491,29.376839097,-1.4615358575,75.926216928,4.9827026277,-21.7235255456,24.0094601137,0.2234831947,6.5872053512,-9.6619794933,-3.2200081758,2.0467116831,-0.9888770427,-5.8208418335,-7.4711275427,12.3322220161,-27.2727850943,-0.0297502616,2.9650570856,-1.8858621023,-8.5413609691,-1.5399089182,-0.1517235892,0.1557092321,-0.3272862925,0.045660427,-0.6330571642,-53.8553516873,-12.4595214944,1.6921768062,-0.6577071857,17.1859091867,0.9190024367,-2.9666376298,-0.0516418475,0.0461469483,-7.0711073719,1.5445614739,-0.0174656315,0.0489647085,-1.8891090996,1.6457108656,0.0469562199,-0.7371114733,-5.7904301186,2.64912462,-0.7300144255,0.132110773,0.0247666529,-1.9433896856,-1.7843656385,0.0710083754,0.1064973287,-0.050716989,-3.2340655049,0.9292759023,-0.1369931519,-0.1187540331,0.167560606,0.0274200934,-0.0194546041,-0.0257402842,1.6265950412,-1.1886417482,-1.1707547621,-1.2443651926,-4.2500909418,0.2111507459,0.0042403928,-0.1584107105,-0.0168813195,1.8608028637,-0.0732249665,-0.0460350999,0.0356220449,-0.0956332045,0.071489955,0.0778837014,0.0614381195,0.0263538814,0.0109720518,-0.0649701756,-0.0770381456,-0.0297877241,-0.0642253882,-0.0976022947,0.0072066432,-0.0448685548,0.0672691951,0.0411834226,-0.0180185734,-0.0130110838,0.0599987099,0.0627882259,0.0312231564,18.6065791697,0.023410704,0.0091846052,0.0041705623,0.0196919232,-0.021856772,-0.044161633,-0.0759719243,0.0040572266,-0.1090374796,-0.088960502,-0.1162904768,-0.0699168552,0.1377736984,0.1037121184,0.1448649208,0.0677954767,0.1144182498,-0.0380556243,0.0572016213,0.0193080793,-0.101276501,0.021081309,0.0372415863,0.017066121,-0.0326862581,0.0325418713,0.1052889912,0.0463345218,-0.0624486691,-0.0613327315,0.0608564435,-0.1058944039,0.0585601727,-0.0435027167,-0.1429937829,-0.2623366292,0.0278667899,0.0637536362,0.1181780267,0.0366472422,0.1038674909,-0.0634046456,-0.037880272,0.0224798401,0.0113170252,-0.0922277664,0.0534533887,0.0415903314,-2.47081412,-0.0749962343,0.070456924,-0.0707769024,3.493173488,2.0956343721,5.0803072147,6.0602707554,5.1360371552,5.0583817895,0.4870272753,5.0325221828,4.2014894848,1.7359526609,2.4344456879,0.0127172387,-0.0667864273,0.0932717899,0.0674719375,0.0407988017,-6.1549416257,0.3220044328,-0.0607131333,-1.1658349834,-0.0534543946,-0.0885793904,-0.0255224193,0.1115819025,-0.00437221,0.0351432351,0.0786505956,0.1127750224,0.0613491739,-0.2699999786,-0.0105967596,-0.0743985286,-0.0645569536,0.0578294146,-0.0097519772,-0.0790707004,0.0587509469,0.0434710168,-0.0144481593,-0.109076128,-0.0412606294,-0.0331666115,0.0317556322,-0.011469858,0.0030428921,0.0907328808,0.0825673728,-0.0044409815,-0.1365843672,-0.0461011096,0.0518422149,-0.0764282901,0.1582669223,0.1148860668,-0.052522399,0.0703619502,0.0618032643,0.0817444512,-0.0984547954,-0.0591274956,-0.0613383966,0.0206819983,0.0810868017,0.2451598693,-0.0533361269,-0.1581555983,-0.0526542249,0.014280173,-0.0517764203,-0.0694174395,0.091808668,0.1163261641,0.1282259376,0.0485129747,-0.095570347,-0.0737625834,-0.0180194936,-0.0025229119,-0.0479503059,-0.0305596174,-0.0738046289,0.0296192433,-0.0882246453,0.0789140696,0.0951207498,0.0077694811,-0.9173617353,-0.1043026304,1.6703179092,5.5856248495,0.3984810819,0.2116915638,2.9297687081,-1.2749563558,-0.002989611,0.0825015941,0.0005889445,-1.5561780124,-0.1851832119,1.1399949555,1.8058336593,0.1016399319,0.0107250266,0.943201636,1.5946296835,-0.0270396517,-0.0461073952,-0.0734926629,-0.1844893427,0.3695423108,0.015383047,0.1594056831,0.0713685915,-0.0490297365,0.21082254,-0.0041678231,-0.0545275284,0.0983412078,0.0529855529,-0.0036462299,0.0768933527,0.0934009264,0.0802498372,0.0797004146,-0.0186538732,-0.0945951209,0.0812349014,0.0195148021,0.0827717751,0.1122288771,0.0959181573,0.0876372569,-0.0595298596,0.0886587729,-0.1046531835,0.0181788902,-0.0497127529,-0.0326649333,0.0528828505,-0.0947883348,0.0830117882,0.0531190935,0.0272471887,0.0308628049,0.0078261712,0.0130883784,-0.2542185843,0.0386101767,-0.0551319902,-0.0563027513,-0.0637944489,0.0885002889,-0.0303542361,0.0078583471,-0.0719975547,0.4062271677,0.0219244237,1.5618149399,0.187813255,0.081871361,-0.397666299,-0.0149671574,-0.0059911934,-0.1821100741,-0.0343822881,0.0563454807,0.0547008558,-0.3344226123,0.0114899723,-0.0142293001,0.0016475164,0.0018621802,-0.4513460322,-0.0062986006,-0.0216943737,-0.0194124225,-0.0862550178,-0.037986532,0.0574714216,0.0680554793,0.0093474246,-0.0796983129,-0.0755939252,-0.0574570011,-0.0559962922,0.0188849177,-0.0689568755,0.0294396827,0.0405580284,-0.1126789566,-0.2232340335,0.1329047166,0.0178413833,0.108475802,0.0359547145,-0.5766347997,0.0577276846,0.0770252436,0.0454255857,-0.0175374918,-0.044950128,-0.9259233277,-0.0418355525,0.0695942762,-0.027342758,-0.0395724694,0.1465393729,-0.082647342,0.013066182,0.0016236269,0.0029389597,0.0104286547,0.0577501452,0.2910310432,0.1069997605,0.0985165374,0.0053772929,0.020282767,0.0691011381,0.0400700832,-0.0053386392,-0.0308002869,-0.0318284871,0.871352417,-0.0028131086,-0.0053405624,0.0311324686,-0.0686104094,0.0302447356,0.0411041305,-0.0589115883,-0.0647223013,0.0817655868,-0.0735652211,0.0618991344,0.0516445814,0.0746739667,-0.0346606123,-0.0516268692,-0.030018583,0.0160583215,-0.0016004441,0.0765419994,-0.0391608169,0.076817977,0.0928521561,0.071276502,-0.4895632623,-0.000968473,0.1349037708,0.0828052929,-0.0407814178,-0.0318957687,0.0636844321,-0.0531920789,0.0485343625,-0.0637278429,-0.0428168886,-0.103480276,-0.0556304903,0.060424463,0.0505607151,0.0315983597,0.0888320789,-0.02154749,0.0917598163,-0.0153934634,0.0122535618,-0.1000483724,-0.1121898403,-0.5002226482,-0.0642440654,-0.4415092922,-0.0090045542,0.0251402426,0.3612235907,-0.1045836826,-0.0514493914,-0.2700563375,-0.1080613103,-0.1238625951,0.0252102818,-0.033190413,0.5050707592,-0.0346556302,0.0361551556,-0.0374038586,0.1912909923,0.0429030285,-0.0215877611,0.0862713537,0.1246011343,0.0928334293,2.0876690691,-0.1507778,3.8304727059,0.2647946292,-1.5902210146,-0.3893453319,2.2788845079,0.7221143113,0.7564883157,0.4761192764,0.7507940616,0.8294614154,-1.1516403621,-1.6795922263,0.8104548878,-0.061084389,-0.0514252976,0.2432603637,0.1025168012,-0.0427079624,-0.1591085243,-2.0613118361,0.0375911847,-1.7372590936,-0.0814282999,-2.8270114533,-0.1141960206,0.0266220918,-0.1652816859,0.0132342474,0.1315023257,0.001348334,-0.0848236022,-0.059702546,0.0451153265,-0.0452154256,-1.4854798222,0.1555719444,-0.0095563399,-0.0290891046,1.6225614372,0.5323858876,0.0009716392,0.0006147295,-0.2836542134,0.0438478605,5.9127279515,0.0391619556,0.7829903601,-0.0460250933,-0.0263229837,-0.319718452,4.6127079009,0.1198629569,0.1869568542,0.652546724,0.0298387895,-0.4601512538,-13.0674451856,-0.8414664946,7.0598933514,0.0327290296,0.0021402336,2.1540739777,-1.28398412,0.0436827883,-0.0307013738,0.0083232265,-1.1912625719,0.079610262,-0.0016975336,-0.0151238352,0.0682811713,0.038878912,0.0807925092,0.0394598316,-0.0730295027,0.003627522,-0.0712038807,-0.0955348189,0.05725001,-0.0378880404,-0.1315968622,0.1578976642,0.080444817,0.0994596716,0.0171692719,0.0552525761,-0.0791938256,0.0745469179,0.0058937609,0.0234468994,0.1531272336,0.0930009603,0.7306248419,0.6145678953,3.7521081377,-1.6067446644,-2.5118014995,2.663429899,-0.9615099414,0.0044949074,2.4929331794,-0.4508740415,8.303976419,-0.5186182764,-3.831448814,-5.5445555448,-3.8608218139,4.0820339017,0.3552118751,0.2651587652,0.2266574261,0.1027292883,-0.9026801111,1.0183408043,-0.0759432557,-0.1124515752,-0.0650638978,-0.0649351561,-0.0478509834,-0.0389215579,0.0726576082,0.0033110052,0.1013864395,0.023143514,-0.0822847513,-0.1644358164,0.0706164071,0.118593186,0.0233352976,0.0163680987,-0.0472089856,-0.0906788662,0.0203512704,0.0036675683,-0.0113779301,-0.0866533107,-5.540100377,0.1851182468,3.8550023653,-0.3911873214,-0.1189118251,0.6467866756,0.1317164556,-0.0502024075,0.0551815472,-0.0360751314,-0.2768251923,0.6375063517,-2.7576859765,0.8577068237,0.0996597816,0.0741097926,0.0045123145,-2.6802139417,-0.1862562029,-0.0828022,0.4055192952,0.6018866092,0.0110078856,-1.3453451393,-0.0589070788,-0.2049469376,0.1375225323,0.1481852237,1.1497371151,-0.0435475746,-0.0435390448,-0.1318469025,0.0376996819,-0.0657990692,0.0599508186,0.4157888486,-0.3607447532,-0.5771846032,-0.020914504,-0.0428666745,0.0605474994,-0.0592473719,-0.0249794313,-0.0565393686,0.0871826863,0.7868899228,0.6523949839,0.2206319613,-2.444321891,-0.029807082,-0.1022512552,0.0000305623,0.0578535605,0.0706858218,-0.1122686676,0.0204958148,-0.0720016844,0.0748033977,1.3231901574,-0.1416816124,0.0234005861,0.1656071881,-0.1144988472,0.2193125562,0.0057964657,0.0600404324,0.0346210257,0.1758986064,0.0444063331,0.3985701947,0.6087281118,-0.5018501022,-0.4986959971,-0.0447080184,-1.1822034409,0.1132413584,0.4966792064,-0.0839835049,-0.3306683601,-0.2421186634,0.7314457714,0.5972146244,0.4733392246,-1.8687205592,0.1217685281,0.0662432842,-1.8754956471,-0.0346456545,-0.3472876418,0.2417193439,0.0884722683,0.1223287234,-0.0480240064,0.0118838043,-0.455023943,-0.0011814431,0.0035758134,-0.0497224459,4.0634409164,4.0792852509,3.9918172277,3.4546143731,9.8288536715,9.7165198394,1.1591555388,9.7928265676,3.4574753504,3.4019233952,3.439524044,0.934984467,0.001761672,-0.0929701083,-0.0733976971,-0.0653386937,-3.3934946009,-0.5655369328,-0.514633883,-0.7549958156,0.4152004766,0.2501836666,-1.1762630404,-0.5638728465,-0.0781227406,-0.3219762818,-0.2829249782,-0.0138693487,-0.0041341801,0.1627820218,0.237263803,0.8019885967,0.0569681413,-0.0360069037,-0.0206374225,0.2214072398,0.3301556638,-0.3826908441,-0.2975413748,-0.0007821748,-0.9134350771,0.0236962622,-0.2697247508,-0.16794174,-0.1043021966,-0.0124931411,0.0679549106,-0.0061215911,0.4349535487,-0.0983716789,-0.2653215728,0.3095355796,-0.1304030312,-1.4698534032,-0.0676802457,0.1001443275,-0.074092775,-0.5555577143,-0.0024153619,0.0817422137,0.1608117552,0.2712326745,0.076320369,0.4325567092,-0.0044323594,1.2338754586,-0.023637918,-0.0357305597,0.3327240972,-0.0329399815,-0.1599646754,-0.16895077,-0.1335247385,0.4813823128,0.5814975189,0.264513705,-0.0714382641,-0.0686350006,0.0622086753,-0.0908277872,-0.3897009791,0.3629070813,0.0654752858,0.0199983514,-0.0735823202,0.0759193136,0.298082716,-0.0611571533,-0.5323317758,0.0254595108,0.0530451033,0.0297541705,0.0528157333,-0.1096127393,-0.0663446261,-0.0176884597,-0.0359531896,0.2275013959,-0.0690608796,0.0712603329,0.005222099,-0.0176381934,-0.0626018688,-0.061276093,0.0759712235,0.0153503203,0.0395521669,-0.043187416,0.0664583755,0.1551607579,-0.0512494197,-0.0451591685,0.0389687103,-0.0703079399,-0.074379384,0.0809059656,0.0776485771,0.0058402436,0.0416042352,-0.0489486657,-0.085873932,-0.2691050542,0.1218102192,0.0802438055,0.0644793188,-0.0251664913,0.0312484351,-0.0414479493,-0.0533285426,0.0346230209,-0.0683420378,0.0950301007,2.7034701745,-0.3700732901,-1.7501473973,0.0676959705,-0.0261044555,-5.5582603961,-0.1080997812,-1.2407069835,2.0349435245,0.2454143079,-3.9571280335,10.0671206013,-12.029078415,1.3870665015,1.0994503026,0.0315923032,0.2362479404,-1.6327015653,-0.0211131086,-0.0948871204,-0.3863401193,-1.2267658471,-2.9208735985,24.5030407705,-7.0874390088,8.7047253856,19.321030532,21.1544550659,0.7606694203,-3.4489165554,-2.0717122403,-0.396881059,0.0248913093,4.5926905903,22.4528619605,23.4690623639,-23.0804751698,4.3793947627,-0.0283697668,-0.0327254997,132.9735701873,2.0132625295,1.4663994044,5.3905322805,52.0293365904,-0.0522748871,4.3987214244,-0.0283963921,0.0059090484,0.2857762239,0.4463296512,-0.8827695874,-1.2608976172,-1.2553110643,0.0058001372,1.8957915899,-5.3007087652,0.7841685414,0.5426792324,-0.2995172162,-1.4787514531,-1.7018943805,-1.0243258121,-1.3650755228,-0.1576174279,-0.090170617,0.0367698255,1.4610007907,-5.2633078818,5.526270944,1.3169134817,29.8037868118,-1.4445531541,6.1654452031,21.1987934895,17.0759218123,-0.0540878176,4.4720690817,-0.1221940204,1.1216025567,-14.1800544665,3.5528524513,9.8695712483,-11.8382421352,-0.2453056138,-0.0745999176,6.265484928,1.3309518197,28.2063184533,9.1631597578,1.6685065997,0.0148840043,-0.5666373655,-0.0989781637,-1.411475045,0.0554026074,-0.0762464546,0.1102071984,-0.0555163231,-0.1027587815,-0.0495730673,-0.0737929166,0.0547528956,0.1786498305,0.5264523835,0.0111485573,0.105710054,0.1796826075,-0.0697380329,0.4332179214,0.0002583692,-0.0363986013,0.0622371552,-0.0644044321,0.0657335874
biasActivation=0,1,1
[BASIC:ACTIVATION]
"org.encog.engine.network.activation.ActivationTANH"
"org.encog.engine.network.activation.ActivationTANH"
"org.encog.engine.network.activation.ActivationLinear"
